digraph Tree {
node [shape=box] ;
0 [label="haversine_distance <= 2.1065\nmse = 0.6154\nsamples = 643113\nvalue = 6.4737"] ;
1 [label="haversine_distance <= 0.9897\nmse = 0.452\nsamples = 322549\nvalue = 5.9885"] ;
0 -> 1 [labeldistance=2.5, labelangle=45, headlabel="True"] ;
2 [label="haversine_distance <= 0.0209\nmse = 0.5686\nsamples = 103952\nvalue = 5.5589"] ;
1 -> 2 ;
3 [label="haversine_distance <= 0.0093\nmse = 2.6704\nsamples = 1669\nvalue = 3.5197"] ;
2 -> 3 ;
4 [label="avg_pickup_cluster_haversine_speed <= 26.569\nmse = 2.1749\nsamples = 1197\nvalue = 3.2511"] ;
3 -> 4 ;
5 [label="haversine_distance <= 0.0053\nmse = 2.1879\nsamples = 1049\nvalue = 3.3386"] ;
4 -> 5 ;
6 [label="avg_pickup_cluster_haversine_speed <= 15.1265\nmse = 1.9174\nsamples = 797\nvalue = 3.2013"] ;
5 -> 6 ;
7 [label="passenger_count <= 1.5\nmse = 1.488\nsamples = 372\nvalue = 2.9359"] ;
6 -> 7 ;
8 [label="avg_pickup_cluster_pickup_hour_manhattan_speed <= 14.1499\nmse = 1.3783\nsamples = 306\nvalue = 2.8162"] ;
7 -> 8 ;
9 [label="avg_pickup_weekday_hour_manhattan_speed <= 16.7799\nmse = 2.1429\nsamples = 44\nvalue = 3.2912"] ;
8 -> 9 ;
10 [label="mse = 0.8808\nsamples = 25\nvalue = 2.6132"] ;
9 -> 10 ;
11 [label="mse = 2.4\nsamples = 19\nvalue = 4.1879"] ;
9 -> 11 ;
12 [label="dropoff_longitude <= -74.0166\nmse = 1.1952\nsamples = 262\nvalue = 2.7318"] ;
8 -> 12 ;
13 [label="mse = 1.0579\nsamples = 19\nvalue = 3.4582"] ;
12 -> 13 ;
14 [label="mse = 1.1646\nsamples = 243\nvalue = 2.6799"] ;
12 -> 14 ;
15 [label="passthru_longitude <= -73.9689\nmse = 1.6221\nsamples = 66\nvalue = 3.4904"] ;
7 -> 15 ;
16 [label="dropoff_latitude <= 40.7353\nmse = 1.2721\nsamples = 58\nvalue = 3.3702"] ;
15 -> 16 ;
17 [label="mse = 1.3624\nsamples = 15\nvalue = 4.1418"] ;
16 -> 17 ;
18 [label="mse = 1.0256\nsamples = 43\nvalue = 3.1483"] ;
16 -> 18 ;
19 [label="avg_dropoff_cluster_pickup_hour_manhattan_speed <= 16.2817\nmse = 3.554\nsamples = 8\nvalue = 4.7449"] ;
15 -> 19 ;
20 [label="mse = 0.0529\nsamples = 3\nvalue = 6.7896"] ;
19 -> 20 ;
21 [label="mse = 0.3347\nsamples = 5\nvalue = 3.1092"] ;
19 -> 21 ;
22 [label="manhattan_distance <= 0.0038\nmse = 2.1817\nsamples = 425\nvalue = 3.4381"] ;
6 -> 22 ;
23 [label="passthru_longitude <= -73.9367\nmse = 1.8493\nsamples = 337\nvalue = 3.3327"] ;
22 -> 23 ;
24 [label="pickup_hour <= 1.5\nmse = 1.2672\nsamples = 224\nvalue = 3.1892"] ;
23 -> 24 ;
25 [label="mse = 2.3952\nsamples = 15\nvalue = 4.0601"] ;
24 -> 25 ;
26 [label="mse = 1.1316\nsamples = 209\nvalue = 3.1283"] ;
24 -> 26 ;
27 [label="dropoff_longitude <= -73.9366\nmse = 2.9534\nsamples = 113\nvalue = 3.6389"] ;
23 -> 27 ;
28 [label="mse = 0.0\nsamples = 1\nvalue = 11.3659"] ;
27 -> 28 ;
29 [label="mse = 1.8819\nsamples = 112\nvalue = 3.4958"] ;
27 -> 29 ;
30 [label="avg_pickup_cluster_manhattan_speed <= 19.3283\nmse = 3.2628\nsamples = 88\nvalue = 3.8479"] ;
22 -> 30 ;
31 [label="mse = 0.0\nsamples = 1\nvalue = 11.2636"] ;
30 -> 31 ;
32 [label="pickup_latitude <= 40.6541\nmse = 2.4602\nsamples = 87\nvalue = 3.7347"] ;
30 -> 32 ;
33 [label="mse = 6.6833\nsamples = 4\nvalue = 7.133"] ;
32 -> 33 ;
34 [label="mse = 1.6766\nsamples = 83\nvalue = 3.5715"] ;
32 -> 34 ;
35 [label="avg_pickup_cluster_dropoff_cluster_manhattan_speed <= 11.6919\nmse = 2.7782\nsamples = 252\nvalue = 3.7555"] ;
5 -> 35 ;
36 [label="store_and_fwd_flag <= 0.5\nmse = 2.2797\nsamples = 167\nvalue = 3.4487"] ;
35 -> 36 ;
37 [label="passenger_count <= 4.5\nmse = 2.2318\nsamples = 160\nvalue = 3.5251"] ;
36 -> 37 ;
38 [label="haversine_distance <= 0.0067\nmse = 2.0617\nsamples = 157\nvalue = 3.4776"] ;
37 -> 38 ;
39 [label="mse = 1.916\nsamples = 57\nvalue = 3.9104"] ;
38 -> 39 ;
40 [label="mse = 1.9934\nsamples = 100\nvalue = 3.2599"] ;
38 -> 40 ;
41 [label="avg_pickup_weekday_hour_haversine_speed <= 11.3112\nmse = 4.9815\nsamples = 3\nvalue = 5.9083"] ;
37 -> 41 ;
42 [label="mse = 0.0\nsamples = 1\nvalue = 3.1781"] ;
41 -> 42 ;
43 [label="mse = 0.0203\nsamples = 2\nvalue = 7.7284"] ;
41 -> 43 ;
44 [label="avg_pickup_cluster_pickup_hour_haversine_speed <= 13.1204\nmse = 0.5191\nsamples = 7\nvalue = 1.8183"] ;
36 -> 44 ;
45 [label="pickup_cluster <= 57.5\nmse = 0.0652\nsamples = 3\nvalue = 1.354"] ;
44 -> 45 ;
46 [label="mse = 0.0\nsamples = 2\nvalue = 1.0986"] ;
45 -> 46 ;
47 [label="mse = 0.0\nsamples = 1\nvalue = 1.6094"] ;
45 -> 47 ;
48 [label="pickup_hour <= 17.5\nmse = 0.1334\nsamples = 4\nvalue = 2.7469"] ;
44 -> 48 ;
49 [label="mse = 0.0256\nsamples = 3\nvalue = 2.5518"] ;
48 -> 49 ;
50 [label="mse = -0.0\nsamples = 1\nvalue = 3.3322"] ;
48 -> 50 ;
51 [label="dropoff_cluster <= 18.0\nmse = 3.2087\nsamples = 85\nvalue = 4.3558"] ;
35 -> 51 ;
52 [label="manhattan_distance <= 0.0103\nmse = 3.5519\nsamples = 16\nvalue = 5.5646"] ;
51 -> 52 ;
53 [label="avg_pickup_weekday_haversine_speed <= 13.7471\nmse = 2.4542\nsamples = 12\nvalue = 6.0684"] ;
52 -> 53 ;
54 [label="mse = 1.435\nsamples = 4\nvalue = 4.0817"] ;
53 -> 54 ;
55 [label="mse = 0.929\nsamples = 8\nvalue = 6.7697"] ;
53 -> 55 ;
56 [label="avg_dropoff_cluster_pickup_hour_manhattan_speed <= 21.8147\nmse = 0.0125\nsamples = 4\nvalue = 2.6678"] ;
52 -> 56 ;
57 [label="mse = 0.0\nsamples = 2\nvalue = 2.5649"] ;
56 -> 57 ;
58 [label="mse = 0.0039\nsamples = 2\nvalue = 2.7706"] ;
56 -> 58 ;
59 [label="passthru_latitude <= 40.7731\nmse = 2.6777\nsamples = 69\nvalue = 4.0591"] ;
51 -> 59 ;
60 [label="pickup_weekday <= 2.5\nmse = 2.6366\nsamples = 45\nvalue = 4.5847"] ;
59 -> 60 ;
61 [label="mse = 2.1799\nsamples = 24\nvalue = 5.2959"] ;
60 -> 61 ;
62 [label="mse = 1.9413\nsamples = 21\nvalue = 3.7846"] ;
60 -> 62 ;
63 [label="pickup_weekday_hour <= 152.5\nmse = 1.5732\nsamples = 24\nvalue = 3.2083"] ;
59 -> 63 ;
64 [label="mse = 1.1182\nsamples = 21\nvalue = 3.4859"] ;
63 -> 64 ;
65 [label="mse = 0.148\nsamples = 3\nvalue = 1.1537"] ;
63 -> 65 ;
66 [label="passenger_count <= 0.5\nmse = 1.6715\nsamples = 148\nvalue = 2.6498"] ;
4 -> 66 ;
67 [label="mse = 0.0\nsamples = 1\nvalue = 11.361"] ;
66 -> 67 ;
68 [label="dropoff_longitude <= -73.7764\nmse = 1.0371\nsamples = 147\nvalue = 2.576"] ;
66 -> 68 ;
69 [label="haversine_distance <= 0.0084\nmse = 0.818\nsamples = 125\nvalue = 2.4164"] ;
68 -> 69 ;
70 [label="dropoff_longitude <= -73.7817\nmse = 0.5719\nsamples = 122\nvalue = 2.3635"] ;
69 -> 70 ;
71 [label="pickup_hour <= 7.5\nmse = 0.599\nsamples = 100\nvalue = 2.4721"] ;
70 -> 71 ;
72 [label="mse = 0.4526\nsamples = 14\nvalue = 1.8874"] ;
71 -> 72 ;
73 [label="mse = 0.5526\nsamples = 86\nvalue = 2.5776"] ;
71 -> 73 ;
74 [label="pickup_hour <= 17.5\nmse = 0.2505\nsamples = 22\nvalue = 1.948"] ;
70 -> 74 ;
75 [label="mse = 0.2127\nsamples = 14\nvalue = 2.1641"] ;
74 -> 75 ;
76 [label="mse = 0.1775\nsamples = 8\nvalue = 1.6978"] ;
74 -> 76 ;
77 [label="pickup_hour <= 18.0\nmse = 6.0675\nsamples = 3\nvalue = 4.5104"] ;
69 -> 77 ;
78 [label="avg_pickup_weekday_manhattan_speed <= 18.5578\nmse = 0.0214\nsamples = 2\nvalue = 2.5013"] ;
77 -> 78 ;
79 [label="mse = 0.0\nsamples = 1\nvalue = 2.3979"] ;
78 -> 79 ;
80 [label="mse = -0.0\nsamples = 1\nvalue = 2.7081"] ;
78 -> 80 ;
81 [label="mse = -0.0\nsamples = 1\nvalue = 7.524"] ;
77 -> 81 ;
82 [label="avg_pickup_weekday_hour_haversine_speed <= 13.042\nmse = 1.2647\nsamples = 22\nvalue = 3.5578"] ;
68 -> 82 ;
83 [label="haversine_distance <= 0.0013\nmse = 0.9558\nsamples = 11\nvalue = 4.1086"] ;
82 -> 83 ;
84 [label="manhattan_distance <= 0.0012\nmse = 0.5238\nsamples = 8\nvalue = 3.676"] ;
83 -> 84 ;
85 [label="mse = 0.2193\nsamples = 6\nvalue = 3.8919"] ;
84 -> 85 ;
86 [label="mse = 0.6476\nsamples = 2\nvalue = 2.5965"] ;
84 -> 86 ;
87 [label="avg_pickup_weekday_hour_haversine_speed <= 12.7942\nmse = 0.0065\nsamples = 3\nvalue = 5.4062"] ;
83 -> 87 ;
88 [label="mse = 0.0019\nsamples = 2\nvalue = 5.3318"] ;
87 -> 88 ;
89 [label="mse = -0.0\nsamples = 1\nvalue = 5.4806"] ;
87 -> 89 ;
90 [label="dropoff_longitude <= -73.4985\nmse = 1.0014\nsamples = 11\nvalue = 3.0395"] ;
82 -> 90 ;
91 [label="avg_pickup_weekday_hour_haversine_speed <= 20.5706\nmse = 0.7891\nsamples = 8\nvalue = 3.381"] ;
90 -> 91 ;
92 [label="mse = 0.6572\nsamples = 5\nvalue = 2.9711"] ;
91 -> 92 ;
93 [label="mse = 0.045\nsamples = 3\nvalue = 4.2008"] ;
91 -> 93 ;
94 [label="avg_pickup_weekday_manhattan_speed <= 18.6465\nmse = 0.5589\nsamples = 3\nvalue = 2.2199"] ;
90 -> 94 ;
95 [label="mse = 0.0\nsamples = 2\nvalue = 1.6094"] ;
94 -> 95 ;
96 [label="mse = -0.0\nsamples = 1\nvalue = 3.1355"] ;
94 -> 96 ;
97 [label="pickup_latitude <= 40.7636\nmse = 3.2787\nsamples = 472\nvalue = 4.194"] ;
3 -> 97 ;
98 [label="avg_pickup_cluster_pickup_hour_manhattan_speed <= 29.9812\nmse = 2.9141\nsamples = 327\nvalue = 3.892"] ;
97 -> 98 ;
99 [label="pickup_latitude <= 40.763\nmse = 3.0255\nsamples = 283\nvalue = 4.0637"] ;
98 -> 99 ;
100 [label="pickup_longitude <= -74.004\nmse = 2.943\nsamples = 279\nvalue = 4.1175"] ;
99 -> 100 ;
101 [label="dropoff_longitude <= -74.0069\nmse = 3.2388\nsamples = 49\nvalue = 4.8176"] ;
100 -> 101 ;
102 [label="avg_pickup_weekday_hour_haversine_speed <= 21.3713\nmse = 2.2771\nsamples = 29\nvalue = 4.0819"] ;
101 -> 102 ;
103 [label="mse = 1.8429\nsamples = 27\nvalue = 3.8413"] ;
102 -> 103 ;
104 [label="mse = 0.0907\nsamples = 2\nvalue = 6.5363"] ;
102 -> 104 ;
105 [label="avg_pickup_weekday_hour_haversine_speed <= 18.825\nmse = 2.0323\nsamples = 20\nvalue = 6.2384"] ;
101 -> 105 ;
106 [label="mse = 1.4319\nsamples = 14\nvalue = 6.7156"] ;
105 -> 106 ;
107 [label="mse = 1.4412\nsamples = 6\nvalue = 4.9857"] ;
105 -> 107 ;
108 [label="pickup_longitude <= -73.9393\nmse = 2.7225\nsamples = 230\nvalue = 3.947"] ;
100 -> 108 ;
109 [label="haversine_distance <= 0.0093\nmse = 2.5431\nsamples = 209\nvalue = 3.8288"] ;
108 -> 109 ;
110 [label="mse = 0.0\nsamples = 1\nvalue = 7.6658"] ;
109 -> 110 ;
111 [label="mse = 2.4644\nsamples = 208\nvalue = 3.8042"] ;
109 -> 111 ;
112 [label="avg_pickup_cluster_manhattan_speed <= 20.7709\nmse = 3.0836\nsamples = 21\nvalue = 5.0071"] ;
108 -> 112 ;
113 [label="mse = 2.5124\nsamples = 8\nvalue = 6.5905"] ;
112 -> 113 ;
114 [label="mse = 1.0642\nsamples = 13\nvalue = 4.0715"] ;
112 -> 114 ;
115 [label="avg_pickup_hour_haversine_speed <= 20.1992\nmse = 0.1164\nsamples = 4\nvalue = 1.4667"] ;
99 -> 115 ;
116 [label="pickup_longitude <= -73.9836\nmse = 0.0091\nsamples = 3\nvalue = 1.3503"] ;
115 -> 116 ;
117 [label="mse = 0.0\nsamples = 1\nvalue = 1.0986"] ;
116 -> 117 ;
118 [label="mse = 0.0\nsamples = 2\nvalue = 1.3863"] ;
116 -> 118 ;
119 [label="mse = 0.0\nsamples = 1\nvalue = 2.3979"] ;
115 -> 119 ;
120 [label="avg_pickup_cluster_dropoff_cluster_manhattan_speed <= 26.7627\nmse = 0.9738\nsamples = 44\nvalue = 2.85"] ;
98 -> 120 ;
121 [label="avg_pickup_hour_haversine_speed <= 12.4696\nmse = 0.8313\nsamples = 42\nvalue = 2.9367"] ;
120 -> 121 ;
122 [label="pickup_longitude <= -73.7779\nmse = 0.6981\nsamples = 11\nvalue = 2.3805"] ;
121 -> 122 ;
123 [label="avg_pickup_cluster_pickup_hour_haversine_speed <= 22.5265\nmse = 0.4962\nsamples = 10\nvalue = 2.2679"] ;
122 -> 123 ;
124 [label="mse = 0.7221\nsamples = 2\nvalue = 2.8325"] ;
123 -> 124 ;
125 [label="mse = 0.2395\nsamples = 8\nvalue = 2.0508"] ;
123 -> 125 ;
126 [label="mse = -0.0\nsamples = 1\nvalue = 4.4067"] ;
122 -> 126 ;
127 [label="manhattan_distance <= 0.0242\nmse = 0.7228\nsamples = 31\nvalue = 3.1439"] ;
121 -> 127 ;
128 [label="avg_dropoff_cluster_pickup_hour_haversine_speed <= 41.5779\nmse = 0.5354\nsamples = 28\nvalue = 3.0137"] ;
127 -> 128 ;
129 [label="mse = 0.4338\nsamples = 26\nvalue = 2.8795"] ;
128 -> 129 ;
130 [label="mse = 0.2921\nsamples = 2\nvalue = 3.9085"] ;
128 -> 130 ;
131 [label="avg_dropoff_cluster_haversine_speed <= 28.669\nmse = 0.8573\nsamples = 3\nvalue = 4.3411"] ;
127 -> 131 ;
132 [label="mse = 0.3042\nsamples = 2\nvalue = 3.6704"] ;
131 -> 132 ;
133 [label="mse = -0.0\nsamples = 1\nvalue = 5.3471"] ;
131 -> 133 ;
134 [label="avg_pickup_weekday_haversine_speed <= 13.4686\nmse = 0.0365\nsamples = 2\nvalue = 0.8283"] ;
120 -> 134 ;
135 [label="mse = 0.0\nsamples = 1\nvalue = 1.0986"] ;
134 -> 135 ;
136 [label="mse = 0.0\nsamples = 1\nvalue = 0.6931"] ;
134 -> 136 ;
137 [label="manhattan_distance <= 0.0119\nmse = 3.4326\nsamples = 145\nvalue = 4.8717"] ;
97 -> 137 ;
138 [label="avg_pickup_hour_manhattan_speed <= 16.3264\nmse = 1.3042\nsamples = 6\nvalue = 6.7342"] ;
137 -> 138 ;
139 [label="pickup_longitude <= -73.9615\nmse = 0.1089\nsamples = 2\nvalue = 4.7295"] ;
138 -> 139 ;
140 [label="mse = 0.0\nsamples = 1\nvalue = 4.2627"] ;
139 -> 140 ;
141 [label="mse = -0.0\nsamples = 1\nvalue = 4.9628"] ;
139 -> 141 ;
142 [label="avg_pickup_cluster_pickup_hour_manhattan_speed <= 19.0977\nmse = 0.2351\nsamples = 4\nvalue = 7.281"] ;
138 -> 142 ;
143 [label="haversine_distance <= 0.0095\nmse = 0.0738\nsamples = 2\nvalue = 6.6912"] ;
142 -> 143 ;
144 [label="mse = 0.0\nsamples = 1\nvalue = 6.848"] ;
143 -> 144 ;
145 [label="mse = 0.0\nsamples = 1\nvalue = 6.2206"] ;
143 -> 145 ;
146 [label="avg_pickup_cluster_haversine_speed <= 13.8312\nmse = 0.015\nsamples = 2\nvalue = 7.618"] ;
142 -> 146 ;
147 [label="mse = 0.0\nsamples = 1\nvalue = 7.5121"] ;
146 -> 147 ;
148 [label="mse = -0.0\nsamples = 1\nvalue = 7.7592"] ;
146 -> 148 ;
149 [label="avg_dropoff_cluster_pickup_hour_haversine_speed <= 23.4992\nmse = 3.3311\nsamples = 139\nvalue = 4.751"] ;
137 -> 149 ;
150 [label="pickup_hour <= 18.5\nmse = 3.3058\nsamples = 126\nvalue = 4.8874"] ;
149 -> 150 ;
151 [label="haversine_distance <= 0.0148\nmse = 3.2904\nsamples = 95\nvalue = 4.6485"] ;
150 -> 151 ;
152 [label="dropoff_latitude <= 40.7675\nmse = 3.5361\nsamples = 50\nvalue = 4.1396"] ;
151 -> 152 ;
153 [label="mse = 1.1864\nsamples = 15\nvalue = 3.2488"] ;
152 -> 153 ;
154 [label="mse = 4.0506\nsamples = 35\nvalue = 4.5147"] ;
152 -> 154 ;
155 [label="passenger_count <= 1.5\nmse = 2.3596\nsamples = 45\nvalue = 5.2374"] ;
151 -> 155 ;
156 [label="mse = 1.9695\nsamples = 33\nvalue = 4.8291"] ;
155 -> 156 ;
157 [label="mse = 1.9736\nsamples = 12\nvalue = 6.1899"] ;
155 -> 157 ;
158 [label="avg_dropoff_cluster_pickup_hour_manhattan_speed <= 20.0949\nmse = 2.5238\nsamples = 31\nvalue = 5.6889"] ;
150 -> 158 ;
159 [label="avg_dropoff_cluster_pickup_hour_manhattan_speed <= 17.4612\nmse = 2.427\nsamples = 14\nvalue = 4.758"] ;
158 -> 159 ;
160 [label="mse = 0.7496\nsamples = 6\nvalue = 6.0004"] ;
159 -> 160 ;
161 [label="mse = 1.5459\nsamples = 8\nvalue = 3.764"] ;
159 -> 161 ;
162 [label="manhattan_distance <= 0.0137\nmse = 1.6254\nsamples = 17\nvalue = 6.3096"] ;
158 -> 162 ;
163 [label="mse = 1.2778\nsamples = 2\nvalue = 3.9965"] ;
162 -> 163 ;
164 [label="mse = 0.9165\nsamples = 15\nvalue = 6.5987"] ;
162 -> 164 ;
165 [label="dropoff_cluster <= 53.5\nmse = 1.6112\nsamples = 13\nvalue = 3.4149"] ;
149 -> 165 ;
166 [label="manhattan_distance <= 0.0193\nmse = 1.2188\nsamples = 12\nvalue = 3.7335"] ;
165 -> 166 ;
167 [label="avg_dropoff_cluster_manhattan_speed <= 35.7496\nmse = 2.613\nsamples = 2\nvalue = 5.4877"] ;
166 -> 167 ;
168 [label="mse = 0.0\nsamples = 1\nvalue = 7.1041"] ;
167 -> 168 ;
169 [label="mse = 0.0\nsamples = 1\nvalue = 3.8712"] ;
167 -> 169 ;
170 [label="passenger_count <= 1.5\nmse = 0.5679\nsamples = 10\nvalue = 3.4996"] ;
166 -> 170 ;
171 [label="mse = 0.5077\nsamples = 7\nvalue = 3.1697"] ;
170 -> 171 ;
172 [label="mse = 0.0354\nsamples = 3\nvalue = 4.1593"] ;
170 -> 172 ;
173 [label="mse = 0.0\nsamples = 1\nvalue = 1.6094"] ;
165 -> 173 ;
174 [label="haversine_distance <= 0.6552\nmse = 0.4661\nsamples = 102283\nvalue = 5.5919"] ;
2 -> 174 ;
175 [label="avg_dropoff_cluster_pickup_hour_haversine_speed <= 12.33\nmse = 0.6673\nsamples = 36172\nvalue = 5.358"] ;
174 -> 175 ;
176 [label="haversine_distance <= 0.4681\nmse = 0.6129\nsamples = 15309\nvalue = 5.5444"] ;
175 -> 176 ;
177 [label="haversine_distance <= 0.2166\nmse = 0.9557\nsamples = 5980\nvalue = 5.4055"] ;
176 -> 177 ;
178 [label="pickup_longitude <= -74.0111\nmse = 2.2073\nsamples = 1329\nvalue = 5.2092"] ;
177 -> 178 ;
179 [label="avg_pickup_cluster_pickup_hour_haversine_speed <= 11.0001\nmse = 2.6118\nsamples = 5\nvalue = 2.9646"] ;
178 -> 179 ;
180 [label="mse = 0.0\nsamples = 1\nvalue = 6.9088"] ;
179 -> 180 ;
181 [label="avg_pickup_cluster_pickup_hour_haversine_speed <= 12.1005\nmse = 0.7507\nsamples = 4\nvalue = 2.4716"] ;
179 -> 181 ;
182 [label="mse = 0.089\nsamples = 2\nvalue = 3.9358"] ;
181 -> 182 ;
183 [label="mse = 0.0184\nsamples = 2\nvalue = 1.9835"] ;
181 -> 183 ;
184 [label="avg_pickup_cluster_dropoff_cluster_manhattan_speed <= 7.7706\nmse = 2.1833\nsamples = 1324\nvalue = 5.219"] ;
178 -> 184 ;
185 [label="haversine_distance <= 0.059\nmse = 2.005\nsamples = 250\nvalue = 4.9058"] ;
184 -> 185 ;
186 [label="mse = 2.5858\nsamples = 76\nvalue = 4.4082"] ;
185 -> 186 ;
187 [label="mse = 1.5891\nsamples = 174\nvalue = 5.1264"] ;
185 -> 187 ;
188 [label="avg_pickup_cluster_dropoff_cluster_manhattan_speed <= 12.8998\nmse = 2.1968\nsamples = 1074\nvalue = 5.2932"] ;
184 -> 188 ;
189 [label="mse = 2.2281\nsamples = 934\nvalue = 5.3482"] ;
188 -> 189 ;
190 [label="mse = 1.8369\nsamples = 140\nvalue = 4.9289"] ;
188 -> 190 ;
191 [label="avg_pickup_cluster_dropoff_cluster_haversine_speed <= 9.1551\nmse = 0.5905\nsamples = 4651\nvalue = 5.4607"] ;
177 -> 191 ;
192 [label="avg_dropoff_cluster_pickup_hour_manhattan_speed <= 12.7324\nmse = 0.5996\nsamples = 2707\nvalue = 5.5605"] ;
191 -> 192 ;
193 [label="avg_pickup_weekday_hour_haversine_speed <= 14.5113\nmse = 0.6207\nsamples = 655\nvalue = 5.7712"] ;
192 -> 193 ;
194 [label="mse = 0.5991\nsamples = 587\nvalue = 5.818"] ;
193 -> 194 ;
195 [label="mse = 0.6239\nsamples = 68\nvalue = 5.3634"] ;
193 -> 195 ;
196 [label="passthru_latitude <= 40.7663\nmse = 0.574\nsamples = 2052\nvalue = 5.4928"] ;
192 -> 196 ;
197 [label="mse = 0.578\nsamples = 1813\nvalue = 5.5286"] ;
196 -> 197 ;
198 [label="mse = 0.4561\nsamples = 239\nvalue = 5.2156"] ;
196 -> 198 ;
199 [label="avg_pickup_cluster_pickup_hour_haversine_speed <= 9.9153\nmse = 0.5448\nsamples = 1944\nvalue = 5.3223"] ;
191 -> 199 ;
200 [label="passthru_longitude <= -73.9968\nmse = 3.522\nsamples = 30\nvalue = 6.0307"] ;
199 -> 200 ;
201 [label="mse = 8.9099\nsamples = 4\nvalue = 9.0807"] ;
200 -> 201 ;
202 [label="mse = 0.4669\nsamples = 26\nvalue = 5.4632"] ;
200 -> 202 ;
203 [label="haversine_distance <= 0.2326\nmse = 0.4862\nsamples = 1914\nvalue = 5.3103"] ;
199 -> 203 ;
204 [label="mse = 1.1439\nsamples = 29\nvalue = 5.8294"] ;
203 -> 204 ;
205 [label="mse = 0.4715\nsamples = 1885\nvalue = 5.3022"] ;
203 -> 205 ;
206 [label="avg_pickup_cluster_dropoff_cluster_haversine_speed <= 9.5912\nmse = 0.374\nsamples = 9329\nvalue = 5.633"] ;
176 -> 206 ;
207 [label="avg_dropoff_cluster_pickup_hour_manhattan_speed <= 13.0764\nmse = 0.3625\nsamples = 4559\nvalue = 5.7698"] ;
206 -> 207 ;
208 [label="avg_pickup_weekday_hour_haversine_speed <= 12.6994\nmse = 0.3375\nsamples = 1558\nvalue = 5.9425"] ;
207 -> 208 ;
209 [label="dropoff_longitude <= -73.9844\nmse = 0.3284\nsamples = 1074\nvalue = 6.0063"] ;
208 -> 209 ;
210 [label="mse = 0.3037\nsamples = 410\nvalue = 6.1296"] ;
209 -> 210 ;
211 [label="mse = 0.3286\nsamples = 664\nvalue = 5.9309"] ;
209 -> 211 ;
212 [label="dropoff_longitude <= -73.9815\nmse = 0.3281\nsamples = 484\nvalue = 5.7983"] ;
208 -> 212 ;
213 [label="mse = 0.3317\nsamples = 305\nvalue = 5.9084"] ;
212 -> 213 ;
214 [label="mse = 0.2715\nsamples = 179\nvalue = 5.621"] ;
212 -> 214 ;
215 [label="avg_pickup_weekday_hour_manhattan_speed <= 20.1387\nmse = 0.3521\nsamples = 3001\nvalue = 5.6811"] ;
207 -> 215 ;
216 [label="dropoff_latitude <= 40.766\nmse = 0.3522\nsamples = 2714\nvalue = 5.7112"] ;
215 -> 216 ;
217 [label="mse = 0.361\nsamples = 2359\nvalue = 5.7453"] ;
216 -> 217 ;
218 [label="mse = 0.2407\nsamples = 355\nvalue = 5.4921"] ;
216 -> 218 ;
219 [label="avg_pickup_hour_haversine_speed <= 14.0686\nmse = 0.2689\nsamples = 287\nvalue = 5.4093"] ;
215 -> 219 ;
220 [label="mse = 0.2256\nsamples = 143\nvalue = 5.2399"] ;
219 -> 220 ;
221 [label="mse = 0.2574\nsamples = 144\nvalue = 5.5683"] ;
219 -> 221 ;
222 [label="avg_pickup_cluster_dropoff_cluster_manhattan_speed <= 17.9454\nmse = 0.3503\nsamples = 4770\nvalue = 5.5033"] ;
206 -> 222 ;
223 [label="avg_pickup_weekday_hour_haversine_speed <= 12.8741\nmse = 0.3291\nsamples = 4252\nvalue = 5.5373"] ;
222 -> 223 ;
224 [label="avg_dropoff_cluster_pickup_hour_haversine_speed <= 11.721\nmse = 0.3341\nsamples = 2944\nvalue = 5.5967"] ;
223 -> 224 ;
225 [label="mse = 0.3598\nsamples = 2014\nvalue = 5.6481"] ;
224 -> 225 ;
226 [label="mse = 0.2619\nsamples = 930\nvalue = 5.4873"] ;
224 -> 226 ;
227 [label="avg_dropoff_cluster_pickup_hour_manhattan_speed <= 13.3451\nmse = 0.2911\nsamples = 1308\nvalue = 5.4014"] ;
223 -> 227 ;
228 [label="mse = 0.4011\nsamples = 224\nvalue = 5.6123"] ;
227 -> 228 ;
229 [label="mse = 0.2585\nsamples = 1084\nvalue = 5.3593"] ;
227 -> 229 ;
230 [label="dropoff_longitude <= -73.9573\nmse = 0.4366\nsamples = 518\nvalue = 5.2266"] ;
222 -> 230 ;
231 [label="avg_pickup_weekday_hour_haversine_speed <= 12.0088\nmse = 0.2964\nsamples = 431\nvalue = 5.1565"] ;
230 -> 231 ;
232 [label="mse = 0.2958\nsamples = 229\nvalue = 5.2594"] ;
231 -> 232 ;
233 [label="mse = 0.2737\nsamples = 202\nvalue = 5.0465"] ;
231 -> 233 ;
234 [label="avg_pickup_weekday_hour_haversine_speed <= 10.7969\nmse = 0.9659\nsamples = 87\nvalue = 5.5578"] ;
230 -> 234 ;
235 [label="mse = 5.8596\nsamples = 4\nvalue = 6.8492"] ;
234 -> 235 ;
236 [label="mse = 0.5244\nsamples = 83\nvalue = 5.4723"] ;
234 -> 236 ;
237 [label="avg_pickup_cluster_pickup_hour_manhattan_speed <= 24.6159\nmse = 0.6631\nsamples = 20863\nvalue = 5.2219"] ;
175 -> 237 ;
238 [label="avg_pickup_cluster_dropoff_cluster_manhattan_speed <= 13.0324\nmse = 0.6014\nsamples = 18378\nvalue = 5.2688"] ;
237 -> 238 ;
239 [label="haversine_distance <= 0.4128\nmse = 0.6622\nsamples = 8561\nvalue = 5.3636"] ;
238 -> 239 ;
240 [label="dropoff_longitude <= -74.0446\nmse = 1.1638\nsamples = 3219\nvalue = 5.2066"] ;
239 -> 240 ;
241 [label="pickup_longitude <= -74.1786\nmse = 0.9977\nsamples = 8\nvalue = 2.8278"] ;
240 -> 241 ;
242 [label="mse = 0.2885\nsamples = 3\nvalue = 1.7507"] ;
241 -> 242 ;
243 [label="mse = 0.1135\nsamples = 5\nvalue = 3.5818"] ;
241 -> 243 ;
244 [label="pickup_longitude <= -74.0125\nmse = 1.1453\nsamples = 3211\nvalue = 5.2146"] ;
240 -> 244 ;
245 [label="mse = 1.6105\nsamples = 119\nvalue = 5.6595"] ;
244 -> 245 ;
246 [label="mse = 1.1187\nsamples = 3092\nvalue = 5.197"] ;
244 -> 246 ;
247 [label="dropoff_latitude <= 40.7236\nmse = 0.3383\nsamples = 5342\nvalue = 5.4577"] ;
239 -> 247 ;
248 [label="avg_pickup_weekday_hour_manhattan_speed <= 19.4808\nmse = 0.3326\nsamples = 888\nvalue = 5.6449"] ;
247 -> 248 ;
249 [label="mse = 0.3496\nsamples = 574\nvalue = 5.7385"] ;
248 -> 249 ;
250 [label="mse = 0.2531\nsamples = 314\nvalue = 5.4686"] ;
248 -> 250 ;
251 [label="haversine_distance <= 0.5516\nmse = 0.3312\nsamples = 4454\nvalue = 5.4211"] ;
247 -> 251 ;
252 [label="mse = 0.3825\nsamples = 2275\nvalue = 5.3574"] ;
251 -> 252 ;
253 [label="mse = 0.2681\nsamples = 2179\nvalue = 5.4884"] ;
251 -> 253 ;
254 [label="haversine_distance <= 0.4942\nmse = 0.5334\nsamples = 9817\nvalue = 5.1858"] ;
238 -> 254 ;
255 [label="haversine_distance <= 0.0529\nmse = 0.8458\nsamples = 3883\nvalue = 5.0782"] ;
254 -> 255 ;
256 [label="manhattan_distance <= 0.0314\nmse = 3.5298\nsamples = 155\nvalue = 4.6496"] ;
255 -> 256 ;
257 [label="mse = 3.5711\nsamples = 25\nvalue = 5.73"] ;
256 -> 257 ;
258 [label="mse = 3.2653\nsamples = 130\nvalue = 4.4491"] ;
256 -> 258 ;
259 [label="haversine_distance <= 0.0595\nmse = 0.7346\nsamples = 3728\nvalue = 5.0948"] ;
255 -> 259 ;
260 [label="mse = 1.9407\nsamples = 21\nvalue = 6.1276"] ;
259 -> 260 ;
261 [label="mse = 0.7199\nsamples = 3707\nvalue = 5.0881"] ;
259 -> 261 ;
262 [label="avg_pickup_cluster_dropoff_cluster_haversine_speed <= 13.2501\nmse = 0.3142\nsamples = 5934\nvalue = 5.2569"] ;
254 -> 262 ;
263 [label="avg_pickup_weekday_hour_manhattan_speed <= 19.2679\nmse = 0.2993\nsamples = 3746\nvalue = 5.318"] ;
262 -> 263 ;
264 [label="mse = 0.3187\nsamples = 2331\nvalue = 5.3771"] ;
263 -> 264 ;
265 [label="mse = 0.2519\nsamples = 1415\nvalue = 5.2203"] ;
263 -> 265 ;
266 [label="avg_pickup_weekday_hour_manhattan_speed <= 22.6593\nmse = 0.3224\nsamples = 2188\nvalue = 5.1524"] ;
262 -> 266 ;
267 [label="mse = 0.3198\nsamples = 1968\nvalue = 5.1776"] ;
266 -> 267 ;
268 [label="mse = 0.2806\nsamples = 220\nvalue = 4.9051"] ;
266 -> 268 ;
269 [label="haversine_distance <= 0.2875\nmse = 0.9779\nsamples = 2485\nvalue = 4.8817"] ;
237 -> 269 ;
270 [label="dropoff_longitude <= -73.9341\nmse = 2.082\nsamples = 621\nvalue = 4.3669"] ;
269 -> 270 ;
271 [label="avg_pickup_weekday_hour_manhattan_speed <= 31.3676\nmse = 1.3447\nsamples = 384\nvalue = 4.6523"] ;
270 -> 271 ;
272 [label="avg_pickup_weekday_hour_haversine_speed <= 24.0666\nmse = 1.2973\nsamples = 342\nvalue = 4.7333"] ;
271 -> 272 ;
273 [label="mse = 1.2079\nsamples = 304\nvalue = 4.6542"] ;
272 -> 273 ;
274 [label="mse = 1.5682\nsamples = 38\nvalue = 5.324"] ;
272 -> 274 ;
275 [label="avg_pickup_cluster_dropoff_cluster_haversine_speed <= 6.8359\nmse = 1.2199\nsamples = 42\nvalue = 3.9663"] ;
271 -> 275 ;
276 [label="mse = 0.4227\nsamples = 9\nvalue = 5.0141"] ;
275 -> 276 ;
277 [label="mse = 1.091\nsamples = 33\nvalue = 3.7231"] ;
275 -> 277 ;
278 [label="manhattan_distance <= 0.0355\nmse = 2.9502\nsamples = 237\nvalue = 3.8903"] ;
270 -> 278 ;
279 [label="haversine_distance <= 0.0224\nmse = 1.2387\nsamples = 17\nvalue = 2.7376"] ;
278 -> 279 ;
280 [label="mse = 0.8861\nsamples = 2\nvalue = 4.8873"] ;
279 -> 280 ;
281 [label="mse = 0.633\nsamples = 15\nvalue = 2.4689"] ;
279 -> 281 ;
282 [label="pickup_weekday_hour <= 149.0\nmse = 2.9754\nsamples = 220\nvalue = 4.0072"] ;
278 -> 282 ;
283 [label="mse = 2.4834\nsamples = 190\nvalue = 3.8846"] ;
282 -> 283 ;
284 [label="mse = 5.548\nsamples = 30\nvalue = 4.8514"] ;
282 -> 284 ;
285 [label="dropoff_latitude <= 40.6436\nmse = 0.4643\nsamples = 1864\nvalue = 5.0625"] ;
269 -> 285 ;
286 [label="avg_dropoff_cluster_pickup_hour_haversine_speed <= 27.5097\nmse = 3.1019\nsamples = 9\nvalue = 7.0862"] ;
285 -> 286 ;
287 [label="pickup_hour <= 17.5\nmse = 0.7144\nsamples = 6\nvalue = 7.9481"] ;
286 -> 287 ;
288 [label="mse = 0.0921\nsamples = 3\nvalue = 8.841"] ;
287 -> 288 ;
289 [label="mse = 0.0643\nsamples = 3\nvalue = 7.2338"] ;
287 -> 289 ;
290 [label="manhattan_distance <= 0.5364\nmse = 1.3488\nsamples = 3\nvalue = 4.5003"] ;
286 -> 290 ;
291 [label="mse = 0.0\nsamples = 1\nvalue = 2.9957"] ;
290 -> 291 ;
292 [label="mse = 0.3254\nsamples = 2\nvalue = 5.2526"] ;
290 -> 292 ;
293 [label="avg_pickup_cluster_dropoff_cluster_manhattan_speed <= 32.8638\nmse = 0.4369\nsamples = 1855\nvalue = 5.0543"] ;
285 -> 293 ;
294 [label="passthru_longitude <= -73.9379\nmse = 0.4288\nsamples = 1847\nvalue = 5.062"] ;
293 -> 294 ;
295 [label="mse = 0.3301\nsamples = 1701\nvalue = 5.0332"] ;
294 -> 295 ;
296 [label="mse = 1.4636\nsamples = 146\nvalue = 5.3995"] ;
294 -> 296 ;
297 [label="avg_pickup_hour_haversine_speed <= 19.6731\nmse = 0.3488\nsamples = 8\nvalue = 3.928"] ;
293 -> 297 ;
298 [label="mse = 0.1474\nsamples = 6\nvalue = 3.6039"] ;
297 -> 298 ;
299 [label="mse = 0.0024\nsamples = 2\nvalue = 4.684"] ;
297 -> 299 ;
300 [label="avg_pickup_cluster_dropoff_cluster_haversine_speed <= 11.0624\nmse = 0.3091\nsamples = 66111\nvalue = 5.7203"] ;
174 -> 300 ;
301 [label="avg_pickup_weekday_hour_manhattan_speed <= 18.907\nmse = 0.2766\nsamples = 37857\nvalue = 5.8719"] ;
300 -> 301 ;
302 [label="avg_pickup_cluster_dropoff_cluster_haversine_speed <= 8.7387\nmse = 0.2737\nsamples = 24563\nvalue = 5.987"] ;
301 -> 302 ;
303 [label="avg_dropoff_cluster_pickup_hour_haversine_speed <= 10.4804\nmse = 0.2774\nsamples = 7289\nvalue = 6.174"] ;
302 -> 303 ;
304 [label="haversine_distance <= 0.8147\nmse = 0.289\nsamples = 4219\nvalue = 6.271"] ;
303 -> 304 ;
305 [label="avg_pickup_cluster_dropoff_cluster_haversine_speed <= 7.8739\nmse = 0.283\nsamples = 1913\nvalue = 6.1603"] ;
304 -> 305 ;
306 [label="mse = 0.2828\nsamples = 1064\nvalue = 6.2333"] ;
305 -> 306 ;
307 [label="mse = 0.2685\nsamples = 849\nvalue = 6.0697"] ;
305 -> 307 ;
308 [label="avg_pickup_cluster_dropoff_cluster_haversine_speed <= 7.8996\nmse = 0.275\nsamples = 2306\nvalue = 6.3639"] ;
304 -> 308 ;
309 [label="mse = 0.2909\nsamples = 1197\nvalue = 6.4425"] ;
308 -> 309 ;
310 [label="mse = 0.2428\nsamples = 1109\nvalue = 6.2764"] ;
308 -> 310 ;
311 [label="haversine_distance <= 0.764\nmse = 0.2297\nsamples = 3070\nvalue = 6.0386"] ;
303 -> 311 ;
312 [label="passthru_longitude <= -73.9561\nmse = 0.2554\nsamples = 1052\nvalue = 5.8883"] ;
311 -> 312 ;
313 [label="mse = 0.2492\nsamples = 1021\nvalue = 5.9037"] ;
312 -> 313 ;
314 [label="mse = 0.2065\nsamples = 31\nvalue = 5.4005"] ;
312 -> 314 ;
315 [label="dropoff_latitude <= 40.762\nmse = 0.1981\nsamples = 2018\nvalue = 6.1175"] ;
311 -> 315 ;
316 [label="mse = 0.1983\nsamples = 1738\nvalue = 6.1444"] ;
315 -> 316 ;
317 [label="mse = 0.1633\nsamples = 280\nvalue = 5.9467"] ;
315 -> 317 ;
318 [label="haversine_distance <= 0.8265\nmse = 0.2514\nsamples = 17274\nvalue = 5.909"] ;
302 -> 318 ;
319 [label="avg_dropoff_cluster_pickup_hour_manhattan_speed <= 14.6323\nmse = 0.273\nsamples = 7985\nvalue = 5.8101"] ;
318 -> 319 ;
320 [label="avg_pickup_weekday_hour_manhattan_speed <= 15.5442\nmse = 0.3033\nsamples = 3379\nvalue = 5.9048"] ;
319 -> 320 ;
321 [label="mse = 0.302\nsamples = 2065\nvalue = 5.9557"] ;
320 -> 321 ;
322 [label="mse = 0.2952\nsamples = 1314\nvalue = 5.8258"] ;
320 -> 322 ;
323 [label="passthru_latitude <= 40.7561\nmse = 0.2397\nsamples = 4606\nvalue = 5.7413"] ;
319 -> 323 ;
324 [label="mse = 0.2622\nsamples = 2795\nvalue = 5.786"] ;
323 -> 324 ;
325 [label="mse = 0.1974\nsamples = 1811\nvalue = 5.6725"] ;
323 -> 325 ;
326 [label="avg_pickup_weekday_hour_manhattan_speed <= 15.0063\nmse = 0.2173\nsamples = 9289\nvalue = 5.9939"] ;
318 -> 326 ;
327 [label="avg_dropoff_cluster_pickup_hour_haversine_speed <= 11.148\nmse = 0.2072\nsamples = 3793\nvalue = 6.0846"] ;
326 -> 327 ;
328 [label="mse = 0.2169\nsamples = 2078\nvalue = 6.1516"] ;
327 -> 328 ;
329 [label="mse = 0.1832\nsamples = 1715\nvalue = 6.003"] ;
327 -> 329 ;
330 [label="avg_pickup_cluster_dropoff_cluster_haversine_speed <= 10.2593\nmse = 0.2148\nsamples = 5496\nvalue = 5.9319"] ;
326 -> 330 ;
331 [label="mse = 0.2164\nsamples = 3606\nvalue = 5.9802"] ;
330 -> 331 ;
332 [label="mse = 0.199\nsamples = 1890\nvalue = 5.8406"] ;
330 -> 332 ;
333 [label="avg_pickup_weekday_hour_haversine_speed <= 17.523\nmse = 0.2133\nsamples = 13294\nvalue = 5.661"] ;
301 -> 333 ;
334 [label="haversine_distance <= 0.8335\nmse = 0.2057\nsamples = 8656\nvalue = 5.7364"] ;
333 -> 334 ;
335 [label="passthru_latitude <= 40.766\nmse = 0.2037\nsamples = 4220\nvalue = 5.6373"] ;
334 -> 335 ;
336 [label="avg_pickup_cluster_dropoff_cluster_manhattan_speed <= 12.027\nmse = 0.2035\nsamples = 3645\nvalue = 5.6653"] ;
335 -> 336 ;
337 [label="mse = 0.2076\nsamples = 1964\nvalue = 5.7177"] ;
336 -> 337 ;
338 [label="mse = 0.1911\nsamples = 1681\nvalue = 5.602"] ;
336 -> 338 ;
339 [label="haversine_distance <= 0.8013\nmse = 0.1709\nsamples = 575\nvalue = 5.4654"] ;
335 -> 339 ;
340 [label="mse = 0.1535\nsamples = 469\nvalue = 5.4234"] ;
339 -> 340 ;
341 [label="mse = 0.2058\nsamples = 106\nvalue = 5.6566"] ;
339 -> 341 ;
342 [label="avg_pickup_cluster_dropoff_cluster_haversine_speed <= 9.6171\nmse = 0.1887\nsamples = 4436\nvalue = 5.8329"] ;
334 -> 342 ;
343 [label="avg_pickup_cluster_dropoff_cluster_haversine_speed <= 8.1479\nmse = 0.1993\nsamples = 2333\nvalue = 5.9212"] ;
342 -> 343 ;
344 [label="mse = 0.265\nsamples = 682\nvalue = 6.0253"] ;
343 -> 344 ;
345 [label="mse = 0.1652\nsamples = 1651\nvalue = 5.8774"] ;
343 -> 345 ;
346 [label="pickup_latitude <= 40.7309\nmse = 0.159\nsamples = 2103\nvalue = 5.7357"] ;
342 -> 346 ;
347 [label="mse = 0.1671\nsamples = 404\nvalue = 5.876"] ;
346 -> 347 ;
348 [label="mse = 0.1514\nsamples = 1699\nvalue = 5.7028"] ;
346 -> 348 ;
349 [label="avg_dropoff_cluster_pickup_hour_haversine_speed <= 16.7757\nmse = 0.1973\nsamples = 4638\nvalue = 5.5206"] ;
333 -> 349 ;
350 [label="haversine_distance <= 0.8388\nmse = 0.2135\nsamples = 2929\nvalue = 5.585"] ;
349 -> 350 ;
351 [label="avg_pickup_cluster_dropoff_cluster_haversine_speed <= 9.84\nmse = 0.1899\nsamples = 1517\nvalue = 5.5001"] ;
350 -> 351 ;
352 [label="mse = 0.1951\nsamples = 947\nvalue = 5.5613"] ;
351 -> 352 ;
353 [label="mse = 0.1644\nsamples = 570\nvalue = 5.3976"] ;
351 -> 353 ;
354 [label="avg_pickup_cluster_pickup_hour_haversine_speed <= 10.4414\nmse = 0.2228\nsamples = 1412\nvalue = 5.677"] ;
350 -> 354 ;
355 [label="mse = 2.3811\nsamples = 24\nvalue = 6.2553"] ;
354 -> 355 ;
356 [label="mse = 0.1795\nsamples = 1388\nvalue = 5.667"] ;
354 -> 356 ;
357 [label="haversine_distance <= 0.8453\nmse = 0.1507\nsamples = 1709\nvalue = 5.4111"] ;
349 -> 357 ;
358 [label="passthru_latitude <= 40.7203\nmse = 0.1704\nsamples = 929\nvalue = 5.3458"] ;
357 -> 358 ;
359 [label="mse = 0.1455\nsamples = 70\nvalue = 5.6183"] ;
358 -> 359 ;
360 [label="mse = 0.1655\nsamples = 859\nvalue = 5.3219"] ;
358 -> 360 ;
361 [label="avg_pickup_cluster_dropoff_cluster_manhattan_speed <= 13.7499\nmse = 0.1174\nsamples = 780\nvalue = 5.4865"] ;
357 -> 361 ;
362 [label="mse = 0.1104\nsamples = 684\nvalue = 5.5141"] ;
361 -> 362 ;
363 [label="mse = 0.1267\nsamples = 96\nvalue = 5.3122"] ;
361 -> 363 ;
364 [label="avg_pickup_weekday_hour_manhattan_speed <= 18.9076\nmse = 0.2801\nsamples = 28254\nvalue = 5.5162"] ;
300 -> 364 ;
365 [label="avg_pickup_cluster_dropoff_cluster_haversine_speed <= 13.637\nmse = 0.2789\nsamples = 18452\nvalue = 5.6026"] ;
364 -> 365 ;
366 [label="haversine_distance <= 0.8122\nmse = 0.2571\nsamples = 10733\nvalue = 5.7055"] ;
365 -> 366 ;
367 [label="avg_pickup_weekday_hour_haversine_speed <= 11.8908\nmse = 0.2615\nsamples = 4556\nvalue = 5.6028"] ;
366 -> 367 ;
368 [label="avg_dropoff_cluster_pickup_hour_manhattan_speed <= 14.8614\nmse = 0.2798\nsamples = 2278\nvalue = 5.6744"] ;
367 -> 368 ;
369 [label="mse = 0.273\nsamples = 735\nvalue = 5.7903"] ;
368 -> 369 ;
370 [label="mse = 0.2734\nsamples = 1543\nvalue = 5.6184"] ;
368 -> 370 ;
371 [label="avg_dropoff_cluster_manhattan_speed <= 17.5142\nmse = 0.2322\nsamples = 2278\nvalue = 5.5297"] ;
367 -> 371 ;
372 [label="mse = 0.2905\nsamples = 1209\nvalue = 5.5767"] ;
371 -> 372 ;
373 [label="mse = 0.1598\nsamples = 1069\nvalue = 5.4757"] ;
371 -> 373 ;
374 [label="avg_pickup_weekday_hour_manhattan_speed <= 14.6914\nmse = 0.2403\nsamples = 6177\nvalue = 5.7811"] ;
366 -> 374 ;
375 [label="avg_dropoff_cluster_pickup_hour_manhattan_speed <= 15.275\nmse = 0.3136\nsamples = 1896\nvalue = 5.9027"] ;
374 -> 375 ;
376 [label="mse = 0.4015\nsamples = 950\nvalue = 6.0224"] ;
375 -> 376 ;
377 [label="mse = 0.1932\nsamples = 946\nvalue = 5.7795"] ;
375 -> 377 ;
378 [label="avg_pickup_cluster_dropoff_cluster_haversine_speed <= 12.1965\nmse = 0.1977\nsamples = 4281\nvalue = 5.7263"] ;
374 -> 378 ;
379 [label="mse = 0.1715\nsamples = 2160\nvalue = 5.7805"] ;
378 -> 379 ;
380 [label="mse = 0.2182\nsamples = 2121\nvalue = 5.6715"] ;
378 -> 380 ;
381 [label="haversine_distance <= 0.8545\nmse = 0.2743\nsamples = 7719\nvalue = 5.4603"] ;
365 -> 381 ;
382 [label="dropoff_latitude <= 40.7677\nmse = 0.2897\nsamples = 3988\nvalue = 5.3766"] ;
381 -> 382 ;
383 [label="passthru_longitude <= -73.7863\nmse = 0.3788\nsamples = 1420\nvalue = 5.4807"] ;
382 -> 383 ;
384 [label="mse = 0.3625\nsamples = 1413\nvalue = 5.4744"] ;
383 -> 384 ;
385 [label="mse = 2.0598\nsamples = 7\nvalue = 6.755"] ;
383 -> 385 ;
386 [label="avg_pickup_cluster_dropoff_cluster_manhattan_speed <= 20.798\nmse = 0.2303\nsamples = 2568\nvalue = 5.3183"] ;
382 -> 386 ;
387 [label="mse = 0.2217\nsamples = 1660\nvalue = 5.3822"] ;
386 -> 387 ;
388 [label="mse = 0.2255\nsamples = 908\nvalue = 5.2054"] ;
386 -> 388 ;
389 [label="avg_pickup_cluster_dropoff_cluster_haversine_speed <= 16.1714\nmse = 0.2427\nsamples = 3731\nvalue = 5.5492"] ;
381 -> 389 ;
390 [label="avg_pickup_weekday_hour_manhattan_speed <= 16.4854\nmse = 0.2295\nsamples = 2494\nvalue = 5.6094"] ;
389 -> 390 ;
391 [label="mse = 0.2428\nsamples = 1611\nvalue = 5.6644"] ;
390 -> 391 ;
392 [label="mse = 0.1895\nsamples = 883\nvalue = 5.5084"] ;
390 -> 392 ;
393 [label="avg_pickup_cluster_pickup_hour_haversine_speed <= 13.4996\nmse = 0.2471\nsamples = 1237\nvalue = 5.4278"] ;
389 -> 393 ;
394 [label="mse = 0.2637\nsamples = 792\nvalue = 5.4999"] ;
393 -> 394 ;
395 [label="mse = 0.1918\nsamples = 445\nvalue = 5.2998"] ;
393 -> 395 ;
396 [label="avg_pickup_cluster_dropoff_cluster_haversine_speed <= 14.3814\nmse = 0.242\nsamples = 9802\nvalue = 5.3541"] ;
364 -> 396 ;
397 [label="avg_pickup_weekday_hour_haversine_speed <= 19.0384\nmse = 0.23\nsamples = 6871\nvalue = 5.4159"] ;
396 -> 397 ;
398 [label="haversine_distance <= 0.8056\nmse = 0.2138\nsamples = 5244\nvalue = 5.4639"] ;
397 -> 398 ;
399 [label="avg_dropoff_cluster_pickup_hour_manhattan_speed <= 19.6814\nmse = 0.23\nsamples = 2093\nvalue = 5.3702"] ;
398 -> 399 ;
400 [label="mse = 0.2467\nsamples = 1237\nvalue = 5.4372"] ;
399 -> 400 ;
401 [label="mse = 0.1913\nsamples = 856\nvalue = 5.2756"] ;
399 -> 401 ;
402 [label="avg_pickup_cluster_dropoff_cluster_haversine_speed <= 11.7269\nmse = 0.1931\nsamples = 3151\nvalue = 5.5265"] ;
398 -> 402 ;
403 [label="mse = 0.1954\nsamples = 928\nvalue = 5.6322"] ;
402 -> 403 ;
404 [label="mse = 0.1859\nsamples = 2223\nvalue = 5.484"] ;
402 -> 404 ;
405 [label="avg_pickup_cluster_dropoff_cluster_manhattan_speed <= 16.8598\nmse = 0.2508\nsamples = 1627\nvalue = 5.2632"] ;
397 -> 405 ;
406 [label="passthru_longitude <= -73.8849\nmse = 0.2304\nsamples = 1146\nvalue = 5.3176"] ;
405 -> 406 ;
407 [label="mse = 0.219\nsamples = 1135\nvalue = 5.3082"] ;
406 -> 407 ;
408 [label="mse = 0.5216\nsamples = 11\nvalue = 6.2072"] ;
406 -> 408 ;
409 [label="haversine_distance <= 0.795\nmse = 0.2755\nsamples = 481\nvalue = 5.1345"] ;
405 -> 409 ;
410 [label="mse = 0.2355\nsamples = 178\nvalue = 4.9701"] ;
409 -> 410 ;
411 [label="mse = 0.2727\nsamples = 303\nvalue = 5.2402"] ;
409 -> 411 ;
412 [label="haversine_distance <= 0.8804\nmse = 0.24\nsamples = 2931\nvalue = 5.2084"] ;
396 -> 412 ;
413 [label="avg_pickup_cluster_dropoff_cluster_manhattan_speed <= 21.1775\nmse = 0.2575\nsamples = 1767\nvalue = 5.1419"] ;
412 -> 413 ;
414 [label="avg_pickup_weekday_hour_manhattan_speed <= 24.251\nmse = 0.2628\nsamples = 1148\nvalue = 5.1952"] ;
413 -> 414 ;
415 [label="mse = 0.2688\nsamples = 849\nvalue = 5.247"] ;
414 -> 415 ;
416 [label="mse = 0.2181\nsamples = 299\nvalue = 5.0513"] ;
414 -> 416 ;
417 [label="avg_dropoff_cluster_pickup_hour_manhattan_speed <= 43.0376\nmse = 0.2334\nsamples = 619\nvalue = 5.0451"] ;
413 -> 417 ;
418 [label="mse = 0.2129\nsamples = 615\nvalue = 5.0363"] ;
417 -> 418 ;
419 [label="mse = 1.4998\nsamples = 4\nvalue = 6.4958"] ;
417 -> 419 ;
420 [label="avg_pickup_cluster_dropoff_cluster_manhattan_speed <= 21.9727\nmse = 0.1944\nsamples = 1164\nvalue = 5.3134"] ;
412 -> 420 ;
421 [label="avg_pickup_weekday_hour_manhattan_speed <= 26.3602\nmse = 0.1874\nsamples = 802\nvalue = 5.3685"] ;
420 -> 421 ;
422 [label="mse = 0.184\nsamples = 704\nvalue = 5.4033"] ;
421 -> 422 ;
423 [label="mse = 0.1463\nsamples = 98\nvalue = 5.1322"] ;
421 -> 423 ;
424 [label="manhattan_distance <= 1.2023\nmse = 0.1873\nsamples = 362\nvalue = 5.1858"] ;
420 -> 424 ;
425 [label="mse = 0.1879\nsamples = 90\nvalue = 5.371"] ;
424 -> 425 ;
426 [label="mse = 0.1708\nsamples = 272\nvalue = 5.1207"] ;
424 -> 426 ;
427 [label="avg_pickup_cluster_dropoff_cluster_haversine_speed <= 12.7437\nmse = 0.2668\nsamples = 218597\nvalue = 6.193"] ;
1 -> 427 ;
428 [label="avg_pickup_weekday_hour_manhattan_speed <= 18.907\nmse = 0.2259\nsamples = 145772\nvalue = 6.3127"] ;
427 -> 428 ;
429 [label="haversine_distance <= 1.4582\nmse = 0.2098\nsamples = 91692\nvalue = 6.4343"] ;
428 -> 429 ;
430 [label="avg_pickup_cluster_dropoff_cluster_haversine_speed <= 9.3416\nmse = 0.2047\nsamples = 46251\nvalue = 6.2781"] ;
429 -> 430 ;
431 [label="avg_pickup_weekday_hour_haversine_speed <= 12.6427\nmse = 0.1885\nsamples = 13797\nvalue = 6.4622"] ;
430 -> 431 ;
432 [label="haversine_distance <= 1.1541\nmse = 0.1758\nsamples = 8579\nvalue = 6.5421"] ;
431 -> 432 ;
433 [label="avg_dropoff_cluster_pickup_hour_manhattan_speed <= 13.07\nmse = 0.1797\nsamples = 3455\nvalue = 6.4353"] ;
432 -> 433 ;
434 [label="avg_pickup_cluster_dropoff_cluster_haversine_speed <= 8.1428\nmse = 0.2025\nsamples = 1626\nvalue = 6.5452"] ;
433 -> 434 ;
435 [label="mse = 0.2157\nsamples = 789\nvalue = 6.6239"] ;
434 -> 435 ;
436 [label="mse = 0.1788\nsamples = 837\nvalue = 6.4712"] ;
434 -> 436 ;
437 [label="avg_pickup_cluster_pickup_hour_manhattan_speed <= 13.9516\nmse = 0.1392\nsamples = 1829\nvalue = 6.3379"] ;
433 -> 437 ;
438 [label="mse = 0.1524\nsamples = 380\nvalue = 6.494"] ;
437 -> 438 ;
439 [label="mse = 0.1279\nsamples = 1449\nvalue = 6.2976"] ;
437 -> 439 ;
440 [label="avg_dropoff_cluster_pickup_hour_manhattan_speed <= 13.3054\nmse = 0.1602\nsamples = 5124\nvalue = 6.6145"] ;
432 -> 440 ;
441 [label="avg_pickup_weekday_hour_manhattan_speed <= 14.679\nmse = 0.1649\nsamples = 2648\nvalue = 6.683"] ;
440 -> 441 ;
442 [label="mse = 0.1808\nsamples = 1420\nvalue = 6.7315"] ;
441 -> 442 ;
443 [label="mse = 0.14\nsamples = 1228\nvalue = 6.6256"] ;
441 -> 443 ;
444 [label="passthru_latitude <= 40.7457\nmse = 0.1449\nsamples = 2476\nvalue = 6.5414"] ;
440 -> 444 ;
445 [label="mse = 0.1109\nsamples = 580\nvalue = 6.4154"] ;
444 -> 445 ;
446 [label="mse = 0.1489\nsamples = 1896\nvalue = 6.5793"] ;
444 -> 446 ;
447 [label="haversine_distance <= 1.1482\nmse = 0.1813\nsamples = 5218\nvalue = 6.3295"] ;
431 -> 447 ;
448 [label="avg_pickup_cluster_dropoff_cluster_haversine_speed <= 8.1814\nmse = 0.2252\nsamples = 1957\nvalue = 6.2319"] ;
447 -> 448 ;
449 [label="avg_dropoff_cluster_pickup_hour_manhattan_speed <= 17.6297\nmse = 0.2902\nsamples = 704\nvalue = 6.3329"] ;
448 -> 449 ;
450 [label="mse = 0.2943\nsamples = 663\nvalue = 6.3575"] ;
449 -> 450 ;
451 [label="mse = 0.0731\nsamples = 41\nvalue = 5.9522"] ;
449 -> 451 ;
452 [label="avg_pickup_cluster_pickup_hour_manhattan_speed <= 15.2544\nmse = 0.1782\nsamples = 1253\nvalue = 6.1732"] ;
448 -> 452 ;
453 [label="mse = 0.224\nsamples = 630\nvalue = 6.2461"] ;
452 -> 453 ;
454 [label="mse = 0.1222\nsamples = 623\nvalue = 6.101"] ;
452 -> 454 ;
455 [label="dropoff_longitude <= -73.9784\nmse = 0.1465\nsamples = 3261\nvalue = 6.387"] ;
447 -> 455 ;
456 [label="haversine_distance <= 1.3612\nmse = 0.1383\nsamples = 2387\nvalue = 6.4161"] ;
455 -> 456 ;
457 [label="mse = 0.1343\nsamples = 1744\nvalue = 6.3856"] ;
456 -> 457 ;
458 [label="mse = 0.1399\nsamples = 643\nvalue = 6.4977"] ;
456 -> 458 ;
459 [label="pickup_weekday <= 2.5\nmse = 0.1601\nsamples = 874\nvalue = 6.3082"] ;
455 -> 459 ;
460 [label="mse = 0.1015\nsamples = 317\nvalue = 6.4112"] ;
459 -> 460 ;
461 [label="mse = 0.1851\nsamples = 557\nvalue = 6.246"] ;
459 -> 461 ;
462 [label="haversine_distance <= 1.2025\nmse = 0.1909\nsamples = 32454\nvalue = 6.1993"] ;
430 -> 462 ;
463 [label="avg_dropoff_cluster_pickup_hour_haversine_speed <= 11.5136\nmse = 0.1912\nsamples = 15095\nvalue = 6.0999"] ;
462 -> 463 ;
464 [label="avg_pickup_weekday_hour_haversine_speed <= 12.6427\nmse = 0.2146\nsamples = 6733\nvalue = 6.1908"] ;
463 -> 464 ;
465 [label="avg_pickup_cluster_dropoff_cluster_haversine_speed <= 11.1376\nmse = 0.2156\nsamples = 4858\nvalue = 6.2415"] ;
464 -> 465 ;
466 [label="mse = 0.2225\nsamples = 3675\nvalue = 6.2772"] ;
465 -> 466 ;
467 [label="mse = 0.1774\nsamples = 1183\nvalue = 6.1297"] ;
465 -> 467 ;
468 [label="avg_pickup_cluster_dropoff_cluster_haversine_speed <= 10.8696\nmse = 0.188\nsamples = 1875\nvalue = 6.0593"] ;
464 -> 468 ;
469 [label="mse = 0.1879\nsamples = 1248\nvalue = 6.1215"] ;
468 -> 469 ;
470 [label="mse = 0.1635\nsamples = 627\nvalue = 5.9299"] ;
468 -> 470 ;
471 [label="avg_pickup_cluster_dropoff_cluster_haversine_speed <= 10.7516\nmse = 0.1607\nsamples = 8362\nvalue = 6.0271"] ;
463 -> 471 ;
472 [label="haversine_distance <= 1.1286\nmse = 0.1478\nsamples = 4123\nvalue = 6.0983"] ;
471 -> 472 ;
473 [label="mse = 0.1383\nsamples = 2693\nvalue = 6.0552"] ;
472 -> 473 ;
474 [label="mse = 0.1556\nsamples = 1430\nvalue = 6.179"] ;
472 -> 474 ;
475 [label="avg_pickup_cluster_pickup_hour_manhattan_speed <= 19.9448\nmse = 0.1634\nsamples = 4239\nvalue = 5.9583"] ;
471 -> 475 ;
476 [label="mse = 0.1602\nsamples = 3959\nvalue = 5.9743"] ;
475 -> 476 ;
477 [label="mse = 0.1552\nsamples = 280\nvalue = 5.7373"] ;
475 -> 477 ;
478 [label="avg_pickup_weekday_hour_manhattan_speed <= 14.8351\nmse = 0.1744\nsamples = 17359\nvalue = 6.2863"] ;
462 -> 478 ;
479 [label="avg_dropoff_cluster_pickup_hour_haversine_speed <= 11.5382\nmse = 0.1992\nsamples = 5884\nvalue = 6.3921"] ;
478 -> 479 ;
480 [label="avg_pickup_cluster_dropoff_cluster_haversine_speed <= 11.444\nmse = 0.2015\nsamples = 3500\nvalue = 6.4573"] ;
479 -> 480 ;
481 [label="mse = 0.2112\nsamples = 2626\nvalue = 6.5039"] ;
480 -> 481 ;
482 [label="mse = 0.1452\nsamples = 874\nvalue = 6.3154"] ;
480 -> 482 ;
483 [label="haversine_distance <= 1.3263\nmse = 0.1803\nsamples = 2384\nvalue = 6.2964"] ;
479 -> 483 ;
484 [label="mse = 0.1375\nsamples = 1190\nvalue = 6.2298"] ;
483 -> 484 ;
485 [label="mse = 0.2139\nsamples = 1194\nvalue = 6.3624"] ;
483 -> 485 ;
486 [label="avg_pickup_cluster_dropoff_cluster_haversine_speed <= 11.0934\nmse = 0.153\nsamples = 11475\nvalue = 6.232"] ;
478 -> 486 ;
487 [label="avg_dropoff_cluster_pickup_hour_manhattan_speed <= 14.7751\nmse = 0.1477\nsamples = 7864\nvalue = 6.2835"] ;
486 -> 487 ;
488 [label="mse = 0.1676\nsamples = 3338\nvalue = 6.3412"] ;
487 -> 488 ;
489 [label="mse = 0.1289\nsamples = 4526\nvalue = 6.2412"] ;
487 -> 489 ;
490 [label="avg_pickup_weekday_hour_haversine_speed <= 13.3131\nmse = 0.1463\nsamples = 3611\nvalue = 6.1209"] ;
486 -> 490 ;
491 [label="mse = 0.1326\nsamples = 2389\nvalue = 6.1594"] ;
490 -> 491 ;
492 [label="mse = 0.1648\nsamples = 1222\nvalue = 6.0442"] ;
490 -> 492 ;
493 [label="avg_pickup_cluster_dropoff_cluster_haversine_speed <= 10.195\nmse = 0.1648\nsamples = 45441\nvalue = 6.5937"] ;
429 -> 493 ;
494 [label="avg_pickup_weekday_hour_haversine_speed <= 12.0556\nmse = 0.1581\nsamples = 16599\nvalue = 6.7194"] ;
493 -> 494 ;
495 [label="passthru_latitude <= 40.7416\nmse = 0.1555\nsamples = 8323\nvalue = 6.817"] ;
494 -> 495 ;
496 [label="haversine_distance <= 1.747\nmse = 0.0994\nsamples = 1348\nvalue = 6.6188"] ;
495 -> 496 ;
497 [label="avg_dropoff_cluster_pickup_hour_haversine_speed <= 10.9856\nmse = 0.0939\nsamples = 832\nvalue = 6.5558"] ;
496 -> 497 ;
498 [label="mse = 0.1031\nsamples = 191\nvalue = 6.6694"] ;
497 -> 498 ;
499 [label="mse = 0.0863\nsamples = 641\nvalue = 6.5224"] ;
497 -> 499 ;
500 [label="passthru_longitude <= -74.0104\nmse = 0.0908\nsamples = 516\nvalue = 6.725"] ;
496 -> 500 ;
501 [label="mse = 0.0055\nsamples = 2\nvalue = 7.5808"] ;
500 -> 501 ;
502 [label="mse = 0.0874\nsamples = 514\nvalue = 6.7207"] ;
500 -> 502 ;
503 [label="haversine_distance <= 1.8258\nmse = 0.1573\nsamples = 6975\nvalue = 6.855"] ;
495 -> 503 ;
504 [label="avg_pickup_cluster_dropoff_cluster_haversine_speed <= 8.8119\nmse = 0.1597\nsamples = 4754\nvalue = 6.8004"] ;
503 -> 504 ;
505 [label="mse = 0.1037\nsamples = 1516\nvalue = 6.8972"] ;
504 -> 505 ;
506 [label="mse = 0.1798\nsamples = 3238\nvalue = 6.7544"] ;
504 -> 506 ;
507 [label="avg_pickup_cluster_dropoff_cluster_haversine_speed <= 9.4923\nmse = 0.1318\nsamples = 2221\nvalue = 6.9724"] ;
503 -> 507 ;
508 [label="mse = 0.1353\nsamples = 1199\nvalue = 7.031"] ;
507 -> 508 ;
509 [label="mse = 0.1178\nsamples = 1022\nvalue = 6.8996"] ;
507 -> 509 ;
510 [label="haversine_distance <= 1.7772\nmse = 0.1414\nsamples = 8276\nvalue = 6.621"] ;
494 -> 510 ;
511 [label="avg_pickup_cluster_dropoff_cluster_haversine_speed <= 9.1157\nmse = 0.1335\nsamples = 5035\nvalue = 6.5559"] ;
510 -> 511 ;
512 [label="avg_pickup_weekday_hour_haversine_speed <= 13.0872\nmse = 0.1171\nsamples = 1911\nvalue = 6.6274"] ;
511 -> 512 ;
513 [label="mse = 0.1315\nsamples = 958\nvalue = 6.69"] ;
512 -> 513 ;
514 [label="mse = 0.0949\nsamples = 953\nvalue = 6.5652"] ;
512 -> 514 ;
515 [label="avg_pickup_cluster_pickup_hour_manhattan_speed <= 12.6948\nmse = 0.1385\nsamples = 3124\nvalue = 6.5123"] ;
511 -> 515 ;
516 [label="mse = 1.7118\nsamples = 33\nvalue = 7.0803"] ;
515 -> 516 ;
517 [label="mse = 0.1195\nsamples = 3091\nvalue = 6.5067"] ;
515 -> 517 ;
518 [label="avg_pickup_weekday_hour_haversine_speed <= 13.0597\nmse = 0.1368\nsamples = 3241\nvalue = 6.7233"] ;
510 -> 518 ;
519 [label="haversine_distance <= 1.7783\nmse = 0.1325\nsamples = 1412\nvalue = 6.7778"] ;
518 -> 519 ;
520 [label="mse = 4.7466\nsamples = 5\nvalue = 8.0353"] ;
519 -> 520 ;
521 [label="mse = 0.1046\nsamples = 1407\nvalue = 6.7722"] ;
519 -> 521 ;
522 [label="passthru_longitude <= -73.9766\nmse = 0.1359\nsamples = 1829\nvalue = 6.6803"] ;
518 -> 522 ;
523 [label="mse = 0.1427\nsamples = 1531\nvalue = 6.707"] ;
522 -> 523 ;
524 [label="mse = 0.0833\nsamples = 298\nvalue = 6.5518"] ;
522 -> 524 ;
525 [label="haversine_distance <= 1.7847\nmse = 0.1542\nsamples = 28842\nvalue = 6.5213"] ;
493 -> 525 ;
526 [label="avg_pickup_weekday_hour_manhattan_speed <= 15.0944\nmse = 0.154\nsamples = 15114\nvalue = 6.4398"] ;
525 -> 526 ;
527 [label="avg_pickup_cluster_dropoff_cluster_haversine_speed <= 11.0762\nmse = 0.1514\nsamples = 6624\nvalue = 6.5327"] ;
526 -> 527 ;
528 [label="passthru_latitude <= 40.7375\nmse = 0.1735\nsamples = 3082\nvalue = 6.6152"] ;
527 -> 528 ;
529 [label="mse = 0.2058\nsamples = 546\nvalue = 6.49"] ;
528 -> 529 ;
530 [label="mse = 0.1625\nsamples = 2536\nvalue = 6.642"] ;
528 -> 530 ;
531 [label="avg_dropoff_cluster_pickup_hour_manhattan_speed <= 14.5604\nmse = 0.1211\nsamples = 3542\nvalue = 6.461"] ;
527 -> 531 ;
532 [label="mse = 0.1383\nsamples = 1493\nvalue = 6.5262"] ;
531 -> 532 ;
533 [label="mse = 0.1039\nsamples = 2049\nvalue = 6.415"] ;
531 -> 533 ;
534 [label="avg_pickup_cluster_dropoff_cluster_haversine_speed <= 11.4407\nmse = 0.1439\nsamples = 8490\nvalue = 6.3669"] ;
526 -> 534 ;
535 [label="haversine_distance <= 1.595\nmse = 0.1304\nsamples = 5202\nvalue = 6.4179"] ;
534 -> 535 ;
536 [label="mse = 0.1436\nsamples = 2250\nvalue = 6.3581"] ;
535 -> 536 ;
537 [label="mse = 0.1154\nsamples = 2952\nvalue = 6.4641"] ;
535 -> 537 ;
538 [label="avg_pickup_weekday_hour_manhattan_speed <= 17.2583\nmse = 0.1545\nsamples = 3288\nvalue = 6.2879"] ;
534 -> 538 ;
539 [label="mse = 0.1622\nsamples = 2050\nvalue = 6.3379"] ;
538 -> 539 ;
540 [label="mse = 0.13\nsamples = 1238\nvalue = 6.2032"] ;
538 -> 540 ;
541 [label="avg_pickup_weekday_hour_haversine_speed <= 11.8908\nmse = 0.1393\nsamples = 13728\nvalue = 6.6106"] ;
525 -> 541 ;
542 [label="avg_dropoff_cluster_pickup_hour_manhattan_speed <= 15.15\nmse = 0.1313\nsamples = 6501\nvalue = 6.6996"] ;
541 -> 542 ;
543 [label="avg_pickup_cluster_dropoff_cluster_haversine_speed <= 10.944\nmse = 0.1422\nsamples = 3703\nvalue = 6.7666"] ;
542 -> 543 ;
544 [label="mse = 0.1223\nsamples = 1407\nvalue = 6.8388"] ;
543 -> 544 ;
545 [label="mse = 0.1493\nsamples = 2296\nvalue = 6.7215"] ;
543 -> 545 ;
546 [label="avg_pickup_cluster_dropoff_cluster_haversine_speed <= 11.0124\nmse = 0.1035\nsamples = 2798\nvalue = 6.612"] ;
542 -> 546 ;
547 [label="mse = 0.0887\nsamples = 766\nvalue = 6.7065"] ;
546 -> 547 ;
548 [label="mse = 0.1044\nsamples = 2032\nvalue = 6.5765"] ;
546 -> 548 ;
549 [label="avg_pickup_cluster_dropoff_cluster_haversine_speed <= 11.4848\nmse = 0.133\nsamples = 7227\nvalue = 6.5313"] ;
541 -> 549 ;
550 [label="passthru_latitude <= 40.7657\nmse = 0.1177\nsamples = 4015\nvalue = 6.5907"] ;
549 -> 550 ;
551 [label="mse = 0.1209\nsamples = 2959\nvalue = 6.6255"] ;
550 -> 551 ;
552 [label="mse = 0.0959\nsamples = 1056\nvalue = 6.4936"] ;
550 -> 552 ;
553 [label="avg_pickup_weekday_hour_haversine_speed <= 13.3686\nmse = 0.1423\nsamples = 3212\nvalue = 6.4567"] ;
549 -> 553 ;
554 [label="mse = 0.1534\nsamples = 1941\nvalue = 6.5013"] ;
553 -> 554 ;
555 [label="mse = 0.1176\nsamples = 1271\nvalue = 6.3883"] ;
553 -> 555 ;
556 [label="haversine_distance <= 1.4367\nmse = 0.1859\nsamples = 54080\nvalue = 6.1072"] ;
428 -> 556 ;
557 [label="avg_pickup_weekday_hour_haversine_speed <= 18.1513\nmse = 0.175\nsamples = 24868\nvalue = 5.9396"] ;
556 -> 557 ;
558 [label="avg_pickup_cluster_dropoff_cluster_haversine_speed <= 10.2174\nmse = 0.1675\nsamples = 18020\nvalue = 6.0046"] ;
557 -> 558 ;
559 [label="haversine_distance <= 1.1203\nmse = 0.1595\nsamples = 9818\nvalue = 6.0891"] ;
558 -> 559 ;
560 [label="avg_pickup_cluster_dropoff_cluster_haversine_speed <= 8.5525\nmse = 0.1648\nsamples = 3002\nvalue = 5.9617"] ;
559 -> 560 ;
561 [label="avg_pickup_weekday_hour_manhattan_speed <= 20.4217\nmse = 0.16\nsamples = 911\nvalue = 6.0601"] ;
560 -> 561 ;
562 [label="mse = 0.1938\nsamples = 519\nvalue = 6.129"] ;
561 -> 562 ;
563 [label="mse = 0.0968\nsamples = 392\nvalue = 5.9638"] ;
561 -> 563 ;
564 [label="avg_pickup_weekday_hour_manhattan_speed <= 20.1387\nmse = 0.161\nsamples = 2091\nvalue = 5.9199"] ;
560 -> 564 ;
565 [label="mse = 0.189\nsamples = 1004\nvalue = 5.9782"] ;
564 -> 565 ;
566 [label="mse = 0.1284\nsamples = 1087\nvalue = 5.8652"] ;
564 -> 566 ;
567 [label="avg_pickup_weekday_hour_manhattan_speed <= 20.4217\nmse = 0.147\nsamples = 6816\nvalue = 6.1449"] ;
559 -> 567 ;
568 [label="avg_pickup_cluster_pickup_hour_manhattan_speed <= 20.4214\nmse = 0.1381\nsamples = 3780\nvalue = 6.1948"] ;
567 -> 568 ;
569 [label="mse = 0.1399\nsamples = 3286\nvalue = 6.2161"] ;
568 -> 569 ;
570 [label="mse = 0.1039\nsamples = 494\nvalue = 6.0555"] ;
568 -> 570 ;
571 [label="pickup_latitude <= 40.693\nmse = 0.1512\nsamples = 3036\nvalue = 6.0822"] ;
567 -> 571 ;
572 [label="mse = 0.0\nsamples = 1\nvalue = 11.3497"] ;
571 -> 572 ;
573 [label="mse = 0.1454\nsamples = 3035\nvalue = 6.0811"] ;
571 -> 573 ;
574 [label="haversine_distance <= 1.2211\nmse = 0.1582\nsamples = 8202\nvalue = 5.9033"] ;
558 -> 574 ;
575 [label="avg_pickup_cluster_dropoff_cluster_haversine_speed <= 11.7269\nmse = 0.1788\nsamples = 4308\nvalue = 5.8205"] ;
574 -> 575 ;
576 [label="haversine_distance <= 1.0724\nmse = 0.1736\nsamples = 3232\nvalue = 5.8543"] ;
575 -> 576 ;
577 [label="mse = 0.1429\nsamples = 1118\nvalue = 5.7808"] ;
576 -> 577 ;
578 [label="mse = 0.1858\nsamples = 2114\nvalue = 5.8947"] ;
576 -> 578 ;
579 [label="dropoff_cluster <= 31.5\nmse = 0.1808\nsamples = 1076\nvalue = 5.7194"] ;
575 -> 579 ;
580 [label="mse = 0.1347\nsamples = 397\nvalue = 5.6563"] ;
579 -> 580 ;
581 [label="mse = 0.2049\nsamples = 679\nvalue = 5.7576"] ;
579 -> 581 ;
582 [label="avg_pickup_cluster_dropoff_cluster_haversine_speed <= 11.5941\nmse = 0.1199\nsamples = 3894\nvalue = 5.9942"] ;
574 -> 582 ;
583 [label="avg_pickup_weekday_hour_manhattan_speed <= 20.2783\nmse = 0.1147\nsamples = 2807\nvalue = 6.0268"] ;
582 -> 583 ;
584 [label="mse = 0.1202\nsamples = 1442\nvalue = 6.0748"] ;
583 -> 584 ;
585 [label="mse = 0.1035\nsamples = 1365\nvalue = 5.9748"] ;
583 -> 585 ;
586 [label="haversine_distance <= 1.3101\nmse = 0.1235\nsamples = 1087\nvalue = 5.9101"] ;
582 -> 586 ;
587 [label="mse = 0.1087\nsamples = 467\nvalue = 5.8261"] ;
586 -> 587 ;
588 [label="mse = 0.1253\nsamples = 620\nvalue = 5.9744"] ;
586 -> 588 ;
589 [label="haversine_distance <= 1.1811\nmse = 0.1542\nsamples = 6848\nvalue = 5.7674"] ;
557 -> 589 ;
590 [label="avg_pickup_cluster_dropoff_cluster_haversine_speed <= 10.8592\nmse = 0.1527\nsamples = 3041\nvalue = 5.6683"] ;
589 -> 590 ;
591 [label="avg_dropoff_cluster_pickup_hour_haversine_speed <= 15.8656\nmse = 0.1318\nsamples = 2177\nvalue = 5.7229"] ;
590 -> 591 ;
592 [label="avg_pickup_weekday_hour_manhattan_speed <= 26.3602\nmse = 0.122\nsamples = 1102\nvalue = 5.8055"] ;
591 -> 592 ;
593 [label="mse = 0.1301\nsamples = 715\nvalue = 5.8564"] ;
592 -> 593 ;
594 [label="mse = 0.0933\nsamples = 387\nvalue = 5.7111"] ;
592 -> 594 ;
595 [label="avg_pickup_cluster_pickup_hour_haversine_speed <= 19.047\nmse = 0.128\nsamples = 1075\nvalue = 5.6403"] ;
591 -> 595 ;
596 [label="mse = 0.0799\nsamples = 408\nvalue = 5.7133"] ;
595 -> 596 ;
597 [label="mse = 0.1521\nsamples = 667\nvalue = 5.596"] ;
595 -> 597 ;
598 [label="avg_dropoff_cluster_haversine_speed <= 13.3839\nmse = 0.1785\nsamples = 864\nvalue = 5.5377"] ;
590 -> 598 ;
599 [label="avg_pickup_cluster_pickup_hour_haversine_speed <= 19.4783\nmse = 0.1461\nsamples = 542\nvalue = 5.4745"] ;
598 -> 599 ;
600 [label="mse = 0.1456\nsamples = 385\nvalue = 5.5346"] ;
599 -> 600 ;
601 [label="mse = 0.1175\nsamples = 157\nvalue = 5.3293"] ;
599 -> 601 ;
602 [label="haversine_distance <= 1.0663\nmse = 0.2159\nsamples = 322\nvalue = 5.6476"] ;
598 -> 602 ;
603 [label="mse = 0.1223\nsamples = 140\nvalue = 5.5082"] ;
602 -> 603 ;
604 [label="mse = 0.2604\nsamples = 182\nvalue = 5.7515"] ;
602 -> 604 ;
605 [label="avg_pickup_cluster_dropoff_cluster_haversine_speed <= 10.2778\nmse = 0.1413\nsamples = 3807\nvalue = 5.8461"] ;
589 -> 605 ;
606 [label="avg_pickup_weekday_hour_haversine_speed <= 20.7392\nmse = 0.1326\nsamples = 2247\nvalue = 5.9093"] ;
605 -> 606 ;
607 [label="haversine_distance <= 1.2711\nmse = 0.0975\nsamples = 1606\nvalue = 5.947"] ;
606 -> 607 ;
608 [label="mse = 0.1095\nsamples = 606\nvalue = 5.8801"] ;
607 -> 608 ;
609 [label="mse = 0.0862\nsamples = 1000\nvalue = 5.9866"] ;
607 -> 609 ;
610 [label="pickup_longitude <= -74.0079\nmse = 0.2074\nsamples = 641\nvalue = 5.8157"] ;
606 -> 610 ;
611 [label="mse = 0.4495\nsamples = 11\nvalue = 6.3282"] ;
610 -> 611 ;
612 [label="mse = 0.1994\nsamples = 630\nvalue = 5.8076"] ;
610 -> 612 ;
613 [label="avg_pickup_cluster_dropoff_cluster_manhattan_speed <= 17.5257\nmse = 0.1396\nsamples = 1560\nvalue = 5.7529"] ;
605 -> 613 ;
614 [label="avg_pickup_weekday_hour_manhattan_speed <= 31.3676\nmse = 0.1329\nsamples = 1544\nvalue = 5.762"] ;
613 -> 614 ;
615 [label="mse = 0.1267\nsamples = 1421\nvalue = 5.7831"] ;
614 -> 615 ;
616 [label="mse = 0.1454\nsamples = 123\nvalue = 5.5416"] ;
614 -> 616 ;
617 [label="pickup_hour <= 7.5\nmse = 0.1688\nsamples = 16\nvalue = 5.0718"] ;
613 -> 617 ;
618 [label="mse = 0.0742\nsamples = 10\nvalue = 4.7756"] ;
617 -> 618 ;
619 [label="mse = 0.0327\nsamples = 6\nvalue = 5.4525"] ;
617 -> 619 ;
620 [label="avg_pickup_weekday_hour_haversine_speed <= 18.5219\nmse = 0.1508\nsamples = 29212\nvalue = 6.2503"] ;
556 -> 620 ;
621 [label="haversine_distance <= 1.7246\nmse = 0.1419\nsamples = 21730\nvalue = 6.3129"] ;
620 -> 621 ;
622 [label="avg_pickup_cluster_dropoff_cluster_haversine_speed <= 10.4076\nmse = 0.1515\nsamples = 10432\nvalue = 6.2318"] ;
621 -> 622 ;
623 [label="avg_pickup_weekday_hour_manhattan_speed <= 21.4118\nmse = 0.14\nsamples = 5467\nvalue = 6.3161"] ;
622 -> 623 ;
624 [label="avg_pickup_cluster_dropoff_cluster_haversine_speed <= 9.5411\nmse = 0.1423\nsamples = 3887\nvalue = 6.3538"] ;
623 -> 624 ;
625 [label="mse = 0.143\nsamples = 1953\nvalue = 6.3967"] ;
624 -> 625 ;
626 [label="mse = 0.1379\nsamples = 1934\nvalue = 6.3103"] ;
624 -> 626 ;
627 [label="haversine_distance <= 1.5623\nmse = 0.122\nsamples = 1580\nvalue = 6.2229"] ;
623 -> 627 ;
628 [label="mse = 0.1051\nsamples = 738\nvalue = 6.1694"] ;
627 -> 628 ;
629 [label="mse = 0.1323\nsamples = 842\nvalue = 6.2713"] ;
627 -> 629 ;
630 [label="avg_pickup_weekday_hour_manhattan_speed <= 20.4217\nmse = 0.1479\nsamples = 4965\nvalue = 6.1402"] ;
622 -> 630 ;
631 [label="haversine_distance <= 1.5665\nmse = 0.1672\nsamples = 2715\nvalue = 6.1958"] ;
630 -> 631 ;
632 [label="mse = 0.1516\nsamples = 1186\nvalue = 6.1325"] ;
631 -> 632 ;
633 [label="mse = 0.1737\nsamples = 1529\nvalue = 6.2445"] ;
631 -> 633 ;
634 [label="avg_pickup_cluster_dropoff_cluster_haversine_speed <= 11.3922\nmse = 0.117\nsamples = 2250\nvalue = 6.0743"] ;
630 -> 634 ;
635 [label="mse = 0.1052\nsamples = 1228\nvalue = 6.1134"] ;
634 -> 635 ;
636 [label="mse = 0.1272\nsamples = 1022\nvalue = 6.0271"] ;
634 -> 636 ;
637 [label="avg_pickup_cluster_dropoff_cluster_haversine_speed <= 10.8982\nmse = 0.1212\nsamples = 11298\nvalue = 6.388"] ;
621 -> 637 ;
638 [label="avg_pickup_weekday_hour_manhattan_speed <= 20.4409\nmse = 0.1126\nsamples = 6387\nvalue = 6.4589"] ;
637 -> 638 ;
639 [label="avg_pickup_cluster_dropoff_cluster_haversine_speed <= 9.4857\nmse = 0.1\nsamples = 3467\nvalue = 6.5053"] ;
638 -> 639 ;
640 [label="mse = 0.0981\nsamples = 996\nvalue = 6.5808"] ;
639 -> 640 ;
641 [label="mse = 0.0975\nsamples = 2471\nvalue = 6.4741"] ;
639 -> 641 ;
642 [label="avg_pickup_cluster_dropoff_cluster_haversine_speed <= 9.6402\nmse = 0.1218\nsamples = 2920\nvalue = 6.4042"] ;
638 -> 642 ;
643 [label="mse = 0.0934\nsamples = 937\nvalue = 6.4816"] ;
642 -> 643 ;
644 [label="mse = 0.1313\nsamples = 1983\nvalue = 6.3671"] ;
642 -> 644 ;
645 [label="haversine_distance <= 1.9441\nmse = 0.1175\nsamples = 4911\nvalue = 6.2958"] ;
637 -> 645 ;
646 [label="avg_pickup_cluster_dropoff_cluster_haversine_speed <= 11.7199\nmse = 0.1252\nsamples = 2835\nvalue = 6.2493"] ;
645 -> 646 ;
647 [label="mse = 0.1206\nsamples = 1327\nvalue = 6.3046"] ;
646 -> 647 ;
648 [label="mse = 0.1242\nsamples = 1508\nvalue = 6.2007"] ;
646 -> 648 ;
649 [label="avg_pickup_weekday_hour_manhattan_speed <= 21.798\nmse = 0.0995\nsamples = 2076\nvalue = 6.3604"] ;
645 -> 649 ;
650 [label="mse = 0.1031\nsamples = 1634\nvalue = 6.387"] ;
649 -> 650 ;
651 [label="mse = 0.0731\nsamples = 442\nvalue = 6.259"] ;
649 -> 651 ;
652 [label="haversine_distance <= 1.6312\nmse = 0.1319\nsamples = 7482\nvalue = 6.0676"] ;
620 -> 652 ;
653 [label="avg_pickup_cluster_dropoff_cluster_haversine_speed <= 10.8587\nmse = 0.1495\nsamples = 2435\nvalue = 5.9609"] ;
652 -> 653 ;
654 [label="dropoff_latitude <= 40.7414\nmse = 0.1468\nsamples = 1694\nvalue = 6.0133"] ;
653 -> 654 ;
655 [label="avg_pickup_cluster_dropoff_cluster_manhattan_speed <= 11.3192\nmse = 0.228\nsamples = 487\nvalue = 6.1152"] ;
654 -> 655 ;
656 [label="mse = 0.3316\nsamples = 73\nvalue = 6.3074"] ;
655 -> 656 ;
657 [label="mse = 0.1997\nsamples = 414\nvalue = 6.0785"] ;
655 -> 657 ;
658 [label="avg_pickup_weekday_hour_haversine_speed <= 24.1265\nmse = 0.1088\nsamples = 1207\nvalue = 5.9728"] ;
654 -> 658 ;
659 [label="mse = 0.1106\nsamples = 1064\nvalue = 5.9945"] ;
658 -> 659 ;
660 [label="mse = 0.0713\nsamples = 143\nvalue = 5.8239"] ;
658 -> 660 ;
661 [label="avg_dropoff_cluster_pickup_hour_haversine_speed <= 9.4162\nmse = 0.1349\nsamples = 741\nvalue = 5.8407"] ;
653 -> 661 ;
662 [label="mse = 0.0\nsamples = 1\nvalue = 11.337"] ;
661 -> 662 ;
663 [label="avg_pickup_cluster_pickup_hour_haversine_speed <= 21.6335\nmse = 0.1088\nsamples = 740\nvalue = 5.836"] ;
661 -> 663 ;
664 [label="mse = 0.1004\nsamples = 623\nvalue = 5.8671"] ;
663 -> 664 ;
665 [label="mse = 0.1217\nsamples = 117\nvalue = 5.6778"] ;
663 -> 665 ;
666 [label="avg_pickup_cluster_pickup_hour_manhattan_speed <= 26.8646\nmse = 0.1155\nsamples = 5047\nvalue = 6.1188"] ;
652 -> 666 ;
667 [label="avg_pickup_cluster_dropoff_cluster_manhattan_speed <= 15.0312\nmse = 0.1147\nsamples = 3987\nvalue = 6.1528"] ;
666 -> 667 ;
668 [label="avg_pickup_weekday_hour_haversine_speed <= 20.499\nmse = 0.1006\nsamples = 3116\nvalue = 6.182"] ;
667 -> 668 ;
669 [label="mse = 0.1074\nsamples = 2147\nvalue = 6.2163"] ;
668 -> 669 ;
670 [label="mse = 0.0768\nsamples = 969\nvalue = 6.1045"] ;
668 -> 670 ;
671 [label="haversine_distance <= 1.8169\nmse = 0.1521\nsamples = 871\nvalue = 6.0441"] ;
667 -> 671 ;
672 [label="mse = 0.1495\nsamples = 374\nvalue = 5.9567"] ;
671 -> 672 ;
673 [label="mse = 0.1435\nsamples = 497\nvalue = 6.1124"] ;
671 -> 673 ;
674 [label="avg_pickup_cluster_dropoff_cluster_manhattan_speed <= 14.7992\nmse = 0.0978\nsamples = 1060\nvalue = 5.9912"] ;
666 -> 674 ;
675 [label="avg_dropoff_cluster_manhattan_speed <= 15.3953\nmse = 0.0831\nsamples = 738\nvalue = 6.0509"] ;
674 -> 675 ;
676 [label="mse = 0.071\nsamples = 245\nvalue = 5.9669"] ;
675 -> 676 ;
677 [label="mse = 0.084\nsamples = 493\nvalue = 6.0909"] ;
675 -> 677 ;
678 [label="avg_dropoff_cluster_haversine_speed <= 12.7214\nmse = 0.1046\nsamples = 322\nvalue = 5.8543"] ;
674 -> 678 ;
679 [label="mse = 0.0912\nsamples = 175\nvalue = 5.7404"] ;
678 -> 679 ;
680 [label="mse = 0.0862\nsamples = 147\nvalue = 5.9919"] ;
678 -> 680 ;
681 [label="haversine_distance <= 1.5171\nmse = 0.2627\nsamples = 72825\nvalue = 5.9544"] ;
427 -> 681 ;
682 [label="avg_pickup_weekday_hour_haversine_speed <= 13.2094\nmse = 0.2551\nsamples = 35615\nvalue = 5.7843"] ;
681 -> 682 ;
683 [label="avg_dropoff_cluster_pickup_hour_haversine_speed <= 12.2261\nmse = 0.2393\nsamples = 17212\nvalue = 5.9162"] ;
682 -> 683 ;
684 [label="haversine_distance <= 1.2979\nmse = 0.2639\nsamples = 7274\nvalue = 6.0386"] ;
683 -> 684 ;
685 [label="avg_pickup_cluster_dropoff_cluster_haversine_speed <= 14.9518\nmse = 0.2636\nsamples = 4168\nvalue = 5.9499"] ;
684 -> 685 ;
686 [label="haversine_distance <= 1.1337\nmse = 0.2426\nsamples = 2745\nvalue = 6.0108"] ;
685 -> 686 ;
687 [label="avg_dropoff_cluster_pickup_hour_haversine_speed <= 10.8784\nmse = 0.2491\nsamples = 1239\nvalue = 5.9188"] ;
686 -> 687 ;
688 [label="mse = 0.2281\nsamples = 356\nvalue = 6.0449"] ;
687 -> 688 ;
689 [label="mse = 0.2484\nsamples = 883\nvalue = 5.8659"] ;
687 -> 689 ;
690 [label="avg_pickup_weekday_hour_manhattan_speed <= 14.679\nmse = 0.2248\nsamples = 1506\nvalue = 6.086"] ;
686 -> 690 ;
691 [label="mse = 0.1839\nsamples = 667\nvalue = 6.1673"] ;
690 -> 691 ;
692 [label="mse = 0.2478\nsamples = 839\nvalue = 6.0215"] ;
690 -> 692 ;
693 [label="avg_pickup_cluster_dropoff_cluster_haversine_speed <= 17.5108\nmse = 0.2831\nsamples = 1423\nvalue = 5.8322"] ;
685 -> 693 ;
694 [label="passthru_longitude <= -73.9583\nmse = 0.2876\nsamples = 1249\nvalue = 5.8619"] ;
693 -> 694 ;
695 [label="mse = 0.2558\nsamples = 1227\nvalue = 5.8488"] ;
694 -> 695 ;
696 [label="mse = 1.373\nsamples = 22\nvalue = 6.4659"] ;
694 -> 696 ;
697 [label="dropoff_longitude <= -73.9874\nmse = 0.2022\nsamples = 174\nvalue = 5.624"] ;
693 -> 697 ;
698 [label="mse = 0.206\nsamples = 75\nvalue = 5.4859"] ;
697 -> 698 ;
699 [label="mse = 0.1756\nsamples = 99\nvalue = 5.724"] ;
697 -> 699 ;
700 [label="avg_pickup_cluster_dropoff_cluster_manhattan_speed <= 20.3284\nmse = 0.2398\nsamples = 3106\nvalue = 6.157"] ;
684 -> 700 ;
701 [label="avg_pickup_weekday_hour_manhattan_speed <= 15.3919\nmse = 0.2223\nsamples = 2229\nvalue = 6.2123"] ;
700 -> 701 ;
702 [label="avg_dropoff_cluster_pickup_hour_haversine_speed <= 11.5382\nmse = 0.2065\nsamples = 1489\nvalue = 6.2587"] ;
701 -> 702 ;
703 [label="mse = 0.2241\nsamples = 1038\nvalue = 6.3095"] ;
702 -> 703 ;
704 [label="mse = 0.1439\nsamples = 451\nvalue = 6.1379"] ;
702 -> 704 ;
705 [label="pickup_longitude <= -74.0093\nmse = 0.2415\nsamples = 740\nvalue = 6.1164"] ;
701 -> 705 ;
706 [label="mse = 5.2363\nsamples = 4\nvalue = 7.4315"] ;
705 -> 706 ;
707 [label="mse = 0.1941\nsamples = 736\nvalue = 6.1072"] ;
705 -> 707 ;
708 [label="haversine_distance <= 1.2981\nmse = 0.2569\nsamples = 877\nvalue = 6.0194"] ;
700 -> 708 ;
709 [label="mse = 0.0\nsamples = 1\nvalue = 11.3657"] ;
708 -> 709 ;
710 [label="avg_pickup_weekday_hour_manhattan_speed <= 14.9145\nmse = 0.2368\nsamples = 876\nvalue = 6.0156"] ;
708 -> 710 ;
711 [label="mse = 0.2358\nsamples = 498\nvalue = 6.0943"] ;
710 -> 711 ;
712 [label="mse = 0.2177\nsamples = 378\nvalue = 5.9066"] ;
710 -> 712 ;
713 [label="haversine_distance <= 1.2796\nmse = 0.2024\nsamples = 9938\nvalue = 5.8268"] ;
683 -> 713 ;
714 [label="avg_pickup_cluster_dropoff_cluster_haversine_speed <= 17.8247\nmse = 0.2149\nsamples = 5510\nvalue = 5.7348"] ;
713 -> 714 ;
715 [label="dropoff_latitude <= 40.8556\nmse = 0.2059\nsamples = 4546\nvalue = 5.7763"] ;
714 -> 715 ;
716 [label="haversine_distance <= 1.1702\nmse = 0.189\nsamples = 4543\nvalue = 5.7732"] ;
715 -> 716 ;
717 [label="mse = 0.1991\nsamples = 2860\nvalue = 5.7331"] ;
716 -> 717 ;
718 [label="mse = 0.1638\nsamples = 1683\nvalue = 5.8426"] ;
716 -> 718 ;
719 [label="pickup_weekday_hour <= 40.5\nmse = 7.4518\nsamples = 3\nvalue = 8.0198"] ;
715 -> 719 ;
720 [label="mse = 0.0\nsamples = 1\nvalue = 11.3617"] ;
719 -> 720 ;
721 [label="mse = 0.0102\nsamples = 2\nvalue = 5.7918"] ;
719 -> 721 ;
722 [label="pickup_longitude <= -73.7923\nmse = 0.2113\nsamples = 964\nvalue = 5.5407"] ;
714 -> 722 ;
723 [label="pickup_hour <= 12.5\nmse = 0.1899\nsamples = 958\nvalue = 5.5323"] ;
722 -> 723 ;
724 [label="mse = 0.2086\nsamples = 361\nvalue = 5.6177"] ;
723 -> 724 ;
725 [label="mse = 0.1704\nsamples = 597\nvalue = 5.4778"] ;
723 -> 725 ;
726 [label="pickup_latitude <= 40.6458\nmse = 1.792\nsamples = 6\nvalue = 6.8432"] ;
722 -> 726 ;
727 [label="mse = 0.3623\nsamples = 3\nvalue = 5.8416"] ;
726 -> 727 ;
728 [label="mse = 0.1749\nsamples = 3\nvalue = 8.3455"] ;
726 -> 728 ;
729 [label="avg_pickup_cluster_dropoff_cluster_haversine_speed <= 15.7088\nmse = 0.1625\nsamples = 4428\nvalue = 5.9426"] ;
713 -> 729 ;
730 [label="avg_pickup_cluster_pickup_hour_haversine_speed <= 21.7051\nmse = 0.1392\nsamples = 2225\nvalue = 6.0389"] ;
729 -> 730 ;
731 [label="avg_pickup_cluster_dropoff_cluster_haversine_speed <= 14.1601\nmse = 0.1375\nsamples = 2224\nvalue = 6.0379"] ;
730 -> 731 ;
732 [label="mse = 0.1112\nsamples = 1205\nvalue = 6.0756"] ;
731 -> 732 ;
733 [label="mse = 0.1654\nsamples = 1019\nvalue = 5.9926"] ;
731 -> 733 ;
734 [label="mse = 0.0\nsamples = 1\nvalue = 7.814"] ;
730 -> 734 ;
735 [label="avg_pickup_cluster_dropoff_cluster_haversine_speed <= 18.6893\nmse = 0.167\nsamples = 2203\nvalue = 5.8435"] ;
729 -> 735 ;
736 [label="avg_pickup_cluster_pickup_hour_haversine_speed <= 10.5472\nmse = 0.1661\nsamples = 1557\nvalue = 5.8891"] ;
735 -> 736 ;
737 [label="mse = 1.5642\nsamples = 27\nvalue = 6.4119"] ;
736 -> 737 ;
738 [label="mse = 0.1393\nsamples = 1530\nvalue = 5.8807"] ;
736 -> 738 ;
739 [label="manhattan_distance <= 1.7232\nmse = 0.1528\nsamples = 646\nvalue = 5.7363"] ;
735 -> 739 ;
740 [label="mse = 0.1449\nsamples = 83\nvalue = 5.9847"] ;
739 -> 740 ;
741 [label="mse = 0.1442\nsamples = 563\nvalue = 5.7021"] ;
739 -> 741 ;
742 [label="haversine_distance <= 1.2336\nmse = 0.2383\nsamples = 18403\nvalue = 5.6605"] ;
682 -> 742 ;
743 [label="avg_pickup_cluster_dropoff_cluster_haversine_speed <= 16.1173\nmse = 0.2318\nsamples = 8137\nvalue = 5.5569"] ;
742 -> 743 ;
744 [label="avg_pickup_weekday_hour_manhattan_speed <= 20.1387\nmse = 0.2171\nsamples = 6115\nvalue = 5.611"] ;
743 -> 744 ;
745 [label="avg_pickup_cluster_dropoff_cluster_haversine_speed <= 14.2635\nmse = 0.2148\nsamples = 3290\nvalue = 5.7"] ;
744 -> 745 ;
746 [label="passthru_longitude <= -73.9823\nmse = 0.1894\nsamples = 1881\nvalue = 5.7608"] ;
745 -> 746 ;
747 [label="mse = 0.2208\nsamples = 798\nvalue = 5.8365"] ;
746 -> 747 ;
748 [label="mse = 0.1582\nsamples = 1083\nvalue = 5.7038"] ;
746 -> 748 ;
749 [label="dropoff_latitude <= 40.7695\nmse = 0.2377\nsamples = 1409\nvalue = 5.6168"] ;
745 -> 749 ;
750 [label="mse = 0.3128\nsamples = 762\nvalue = 5.6827"] ;
749 -> 750 ;
751 [label="mse = 0.1356\nsamples = 647\nvalue = 5.5373"] ;
749 -> 751 ;
752 [label="avg_pickup_weekday_hour_manhattan_speed <= 25.4373\nmse = 0.1997\nsamples = 2825\nvalue = 5.5068"] ;
744 -> 752 ;
753 [label="pickup_latitude <= 40.7239\nmse = 0.18\nsamples = 2078\nvalue = 5.5492"] ;
752 -> 753 ;
754 [label="mse = 0.2172\nsamples = 279\nvalue = 5.7146"] ;
753 -> 754 ;
755 [label="mse = 0.1697\nsamples = 1799\nvalue = 5.5243"] ;
753 -> 755 ;
756 [label="avg_dropoff_cluster_haversine_speed <= 17.5966\nmse = 0.2359\nsamples = 747\nvalue = 5.387"] ;
752 -> 756 ;
757 [label="mse = 0.2124\nsamples = 622\nvalue = 5.3515"] ;
756 -> 757 ;
758 [label="mse = 0.3184\nsamples = 125\nvalue = 5.5747"] ;
756 -> 758 ;
759 [label="avg_pickup_cluster_pickup_hour_manhattan_speed <= 22.5327\nmse = 0.2404\nsamples = 2022\nvalue = 5.3915"] ;
743 -> 759 ;
760 [label="avg_pickup_cluster_dropoff_cluster_haversine_speed <= 17.9202\nmse = 0.2431\nsamples = 1448\nvalue = 5.4431"] ;
759 -> 760 ;
761 [label="manhattan_distance <= 1.3679\nmse = 0.2263\nsamples = 925\nvalue = 5.4947"] ;
760 -> 761 ;
762 [label="mse = 0.3881\nsamples = 167\nvalue = 5.6536"] ;
761 -> 762 ;
763 [label="mse = 0.1814\nsamples = 758\nvalue = 5.4577"] ;
761 -> 763 ;
764 [label="pickup_cluster <= 16.5\nmse = 0.2601\nsamples = 523\nvalue = 5.3488"] ;
760 -> 764 ;
765 [label="mse = 0.7675\nsamples = 63\nvalue = 5.609"] ;
764 -> 765 ;
766 [label="mse = 0.1732\nsamples = 460\nvalue = 5.3101"] ;
764 -> 766 ;
767 [label="dropoff_longitude <= -73.9383\nmse = 0.2079\nsamples = 574\nvalue = 5.256"] ;
759 -> 767 ;
768 [label="manhattan_distance <= 1.3166\nmse = 0.1687\nsamples = 517\nvalue = 5.2147"] ;
767 -> 768 ;
769 [label="mse = 0.3155\nsamples = 56\nvalue = 5.4668"] ;
768 -> 769 ;
770 [label="mse = 0.1464\nsamples = 461\nvalue = 5.1888"] ;
768 -> 770 ;
771 [label="dropoff_latitude <= 40.6468\nmse = 0.4018\nsamples = 57\nvalue = 5.5997"] ;
767 -> 771 ;
772 [label="mse = 0.8607\nsamples = 3\nvalue = 7.0922"] ;
771 -> 772 ;
773 [label="mse = 0.3108\nsamples = 54\nvalue = 5.5505"] ;
771 -> 773 ;
774 [label="avg_pickup_cluster_dropoff_cluster_manhattan_speed <= 19.8177\nmse = 0.2281\nsamples = 10266\nvalue = 5.7431"] ;
742 -> 774 ;
775 [label="avg_pickup_weekday_hour_manhattan_speed <= 23.3767\nmse = 0.2163\nsamples = 5563\nvalue = 5.8343"] ;
774 -> 775 ;
776 [label="haversine_distance <= 1.3217\nmse = 0.1975\nsamples = 4469\nvalue = 5.8791"] ;
775 -> 776 ;
777 [label="avg_pickup_weekday_hour_haversine_speed <= 14.9681\nmse = 0.1603\nsamples = 1398\nvalue = 5.7943"] ;
776 -> 777 ;
778 [label="mse = 0.1969\nsamples = 702\nvalue = 5.8537"] ;
777 -> 778 ;
779 [label="mse = 0.1138\nsamples = 696\nvalue = 5.7314"] ;
777 -> 779 ;
780 [label="dropoff_latitude <= 40.7512\nmse = 0.2092\nsamples = 3071\nvalue = 5.916"] ;
776 -> 780 ;
781 [label="mse = 0.2593\nsamples = 1478\nvalue = 5.9756"] ;
780 -> 781 ;
782 [label="mse = 0.1553\nsamples = 1593\nvalue = 5.8597"] ;
780 -> 782 ;
783 [label="dropoff_latitude <= 40.749\nmse = 0.2515\nsamples = 1094\nvalue = 5.6461"] ;
775 -> 783 ;
784 [label="passthru_longitude <= -74.005\nmse = 0.3669\nsamples = 478\nvalue = 5.7656"] ;
783 -> 784 ;
785 [label="mse = 1.1074\nsamples = 54\nvalue = 6.0399"] ;
784 -> 785 ;
786 [label="mse = 0.2526\nsamples = 424\nvalue = 5.7277"] ;
784 -> 786 ;
787 [label="avg_pickup_weekday_hour_manhattan_speed <= 26.8615\nmse = 0.1382\nsamples = 616\nvalue = 5.5501"] ;
783 -> 787 ;
788 [label="mse = 0.1263\nsamples = 434\nvalue = 5.6018"] ;
787 -> 788 ;
789 [label="mse = 0.145\nsamples = 182\nvalue = 5.4302"] ;
787 -> 789 ;
790 [label="avg_pickup_weekday_hour_manhattan_speed <= 21.7388\nmse = 0.2206\nsamples = 4703\nvalue = 5.6357"] ;
774 -> 790 ;
791 [label="avg_pickup_cluster_dropoff_cluster_manhattan_speed <= 23.0255\nmse = 0.2321\nsamples = 3362\nvalue = 5.6923"] ;
790 -> 791 ;
792 [label="manhattan_distance <= 1.5145\nmse = 0.1807\nsamples = 1960\nvalue = 5.7562"] ;
791 -> 792 ;
793 [label="mse = 0.1377\nsamples = 110\nvalue = 5.9708"] ;
792 -> 793 ;
794 [label="mse = 0.1804\nsamples = 1850\nvalue = 5.744"] ;
792 -> 794 ;
795 [label="haversine_distance <= 1.2345\nmse = 0.2902\nsamples = 1402\nvalue = 5.6028"] ;
791 -> 795 ;
796 [label="mse = 8.9994\nsamples = 2\nvalue = 9.2053"] ;
795 -> 796 ;
797 [label="mse = 0.2608\nsamples = 1400\nvalue = 5.598"] ;
795 -> 797 ;
798 [label="pickup_latitude <= 40.7164\nmse = 0.1637\nsamples = 1341\nvalue = 5.4939"] ;
790 -> 798 ;
799 [label="avg_pickup_cluster_pickup_hour_haversine_speed <= 32.0176\nmse = 0.2072\nsamples = 40\nvalue = 5.8901"] ;
798 -> 799 ;
800 [label="mse = 0.1134\nsamples = 39\nvalue = 5.8354"] ;
799 -> 800 ;
801 [label="mse = -0.0\nsamples = 1\nvalue = 7.6672"] ;
799 -> 801 ;
802 [label="avg_pickup_cluster_dropoff_cluster_manhattan_speed <= 22.6113\nmse = 0.1569\nsamples = 1301\nvalue = 5.481"] ;
798 -> 802 ;
803 [label="mse = 0.1544\nsamples = 664\nvalue = 5.5444"] ;
802 -> 803 ;
804 [label="mse = 0.1504\nsamples = 637\nvalue = 5.4112"] ;
802 -> 804 ;
805 [label="avg_pickup_weekday_hour_haversine_speed <= 12.9522\nmse = 0.2159\nsamples = 37210\nvalue = 6.117"] ;
681 -> 805 ;
806 [label="avg_pickup_cluster_dropoff_cluster_haversine_speed <= 15.1214\nmse = 0.2021\nsamples = 15733\nvalue = 6.2804"] ;
805 -> 806 ;
807 [label="haversine_distance <= 1.7775\nmse = 0.1736\nsamples = 8087\nvalue = 6.4012"] ;
806 -> 807 ;
808 [label="avg_dropoff_cluster_pickup_hour_manhattan_speed <= 12.8391\nmse = 0.1685\nsamples = 3735\nvalue = 6.3129"] ;
807 -> 808 ;
809 [label="pickup_latitude <= 40.7796\nmse = 0.3353\nsamples = 213\nvalue = 6.6132"] ;
808 -> 809 ;
810 [label="avg_pickup_weekday_hour_haversine_speed <= 12.5513\nmse = 0.1459\nsamples = 211\nvalue = 6.5723"] ;
809 -> 810 ;
811 [label="mse = 0.1326\nsamples = 188\nvalue = 6.6146"] ;
810 -> 811 ;
812 [label="mse = 0.1109\nsamples = 23\nvalue = 6.2049"] ;
810 -> 812 ;
813 [label="avg_pickup_hour_haversine_speed <= 12.4077\nmse = 5.5899\nsamples = 2\nvalue = 8.9937"] ;
809 -> 813 ;
814 [label="mse = 0.0\nsamples = 1\nvalue = 11.3579"] ;
813 -> 814 ;
815 [label="mse = -0.0\nsamples = 1\nvalue = 6.6294"] ;
813 -> 815 ;
816 [label="avg_pickup_weekday_hour_haversine_speed <= 11.7801\nmse = 0.1521\nsamples = 3522\nvalue = 6.2941"] ;
808 -> 816 ;
817 [label="avg_dropoff_cluster_pickup_hour_haversine_speed <= 11.6161\nmse = 0.1578\nsamples = 2352\nvalue = 6.3352"] ;
816 -> 817 ;
818 [label="mse = 0.1542\nsamples = 1011\nvalue = 6.3987"] ;
817 -> 818 ;
819 [label="mse = 0.1551\nsamples = 1341\nvalue = 6.2875"] ;
817 -> 819 ;
820 [label="avg_pickup_cluster_pickup_hour_haversine_speed <= 13.7999\nmse = 0.1312\nsamples = 1170\nvalue = 6.2137"] ;
816 -> 820 ;
821 [label="mse = 0.1368\nsamples = 909\nvalue = 6.2437"] ;
820 -> 821 ;
822 [label="mse = 0.0986\nsamples = 261\nvalue = 6.1117"] ;
820 -> 822 ;
823 [label="avg_dropoff_cluster_pickup_hour_haversine_speed <= 11.6058\nmse = 0.1653\nsamples = 4352\nvalue = 6.4783"] ;
807 -> 823 ;
824 [label="haversine_distance <= 1.9265\nmse = 0.1818\nsamples = 1919\nvalue = 6.5603"] ;
823 -> 824 ;
825 [label="avg_pickup_weekday_hour_manhattan_speed <= 14.679\nmse = 0.1512\nsamples = 877\nvalue = 6.4966"] ;
824 -> 825 ;
826 [label="mse = 0.1712\nsamples = 412\nvalue = 6.5636"] ;
825 -> 826 ;
827 [label="mse = 0.1268\nsamples = 465\nvalue = 6.4391"] ;
825 -> 827 ;
828 [label="haversine_distance <= 1.9282\nmse = 0.2011\nsamples = 1042\nvalue = 6.6129"] ;
824 -> 828 ;
829 [label="mse = 4.2671\nsamples = 7\nvalue = 8.0074"] ;
828 -> 829 ;
830 [label="mse = 0.1607\nsamples = 1035\nvalue = 6.6035"] ;
828 -> 830 ;
831 [label="manhattan_distance <= 1.7995\nmse = 0.1432\nsamples = 2433\nvalue = 6.4146"] ;
823 -> 831 ;
832 [label="manhattan_distance <= 1.7906\nmse = 6.1375\nsamples = 2\nvalue = 9.6128"] ;
831 -> 832 ;
833 [label="mse = 0.0\nsamples = 1\nvalue = 6.1092"] ;
832 -> 833 ;
834 [label="mse = 0.0\nsamples = 1\nvalue = 11.3646"] ;
832 -> 834 ;
835 [label="avg_pickup_weekday_hour_haversine_speed <= 11.6312\nmse = 0.1306\nsamples = 2431\nvalue = 6.4122"] ;
831 -> 835 ;
836 [label="mse = 0.1369\nsamples = 1311\nvalue = 6.4661"] ;
835 -> 836 ;
837 [label="mse = 0.1161\nsamples = 1120\nvalue = 6.35"] ;
835 -> 837 ;
838 [label="haversine_distance <= 1.855\nmse = 0.2002\nsamples = 7646\nvalue = 6.1513"] ;
806 -> 838 ;
839 [label="avg_dropoff_cluster_pickup_hour_manhattan_speed <= 17.7613\nmse = 0.1806\nsamples = 4587\nvalue = 6.0817"] ;
838 -> 839 ;
840 [label="haversine_distance <= 1.6758\nmse = 0.1788\nsamples = 2847\nvalue = 6.1426"] ;
839 -> 840 ;
841 [label="avg_pickup_weekday_hour_manhattan_speed <= 14.6418\nmse = 0.1519\nsamples = 1349\nvalue = 6.0777"] ;
840 -> 841 ;
842 [label="mse = 0.1631\nsamples = 537\nvalue = 6.1662"] ;
841 -> 842 ;
843 [label="mse = 0.1358\nsamples = 812\nvalue = 6.0185"] ;
841 -> 843 ;
844 [label="avg_pickup_cluster_pickup_hour_haversine_speed <= 11.9057\nmse = 0.1956\nsamples = 1498\nvalue = 6.2"] ;
840 -> 844 ;
845 [label="mse = 0.2554\nsamples = 624\nvalue = 6.2703"] ;
844 -> 845 ;
846 [label="mse = 0.1475\nsamples = 874\nvalue = 6.1503"] ;
844 -> 846 ;
847 [label="haversine_distance <= 1.6604\nmse = 0.1677\nsamples = 1740\nvalue = 5.9827"] ;
839 -> 847 ;
848 [label="avg_pickup_weekday_hour_manhattan_speed <= 16.0583\nmse = 0.15\nsamples = 738\nvalue = 5.9061"] ;
847 -> 848 ;
849 [label="mse = 0.1531\nsamples = 586\nvalue = 5.9461"] ;
848 -> 849 ;
850 [label="mse = 0.1067\nsamples = 152\nvalue = 5.7495"] ;
848 -> 850 ;
851 [label="avg_pickup_cluster_pickup_hour_haversine_speed <= 23.9855\nmse = 0.1733\nsamples = 1002\nvalue = 6.0386"] ;
847 -> 851 ;
852 [label="mse = 0.1664\nsamples = 1000\nvalue = 6.035"] ;
851 -> 852 ;
853 [label="mse = 0.0349\nsamples = 2\nvalue = 7.9805"] ;
851 -> 853 ;
854 [label="avg_pickup_cluster_dropoff_cluster_haversine_speed <= 17.6732\nmse = 0.2114\nsamples = 3059\nvalue = 6.2541"] ;
838 -> 854 ;
855 [label="avg_pickup_weekday_hour_manhattan_speed <= 15.0063\nmse = 0.1609\nsamples = 1878\nvalue = 6.3217"] ;
854 -> 855 ;
856 [label="avg_dropoff_cluster_pickup_hour_haversine_speed <= 11.9145\nmse = 0.1833\nsamples = 988\nvalue = 6.3856"] ;
855 -> 856 ;
857 [label="mse = 0.2167\nsamples = 303\nvalue = 6.4963"] ;
856 -> 857 ;
858 [label="mse = 0.1598\nsamples = 685\nvalue = 6.3349"] ;
856 -> 858 ;
859 [label="dropoff_longitude <= -73.9406\nmse = 0.1262\nsamples = 890\nvalue = 6.25"] ;
855 -> 859 ;
860 [label="mse = 0.1255\nsamples = 868\nvalue = 6.2414"] ;
859 -> 860 ;
861 [label="mse = 0.0507\nsamples = 22\nvalue = 6.563"] ;
859 -> 861 ;
862 [label="avg_pickup_weekday_hour_manhattan_speed <= 14.02\nmse = 0.2736\nsamples = 1181\nvalue = 6.145"] ;
854 -> 862 ;
863 [label="manhattan_distance <= 2.3705\nmse = 0.6548\nsamples = 170\nvalue = 6.3754"] ;
862 -> 863 ;
864 [label="mse = 5.566\nsamples = 9\nvalue = 8.0343"] ;
863 -> 864 ;
865 [label="mse = 0.1609\nsamples = 161\nvalue = 6.2708"] ;
863 -> 865 ;
866 [label="passthru_latitude <= 40.6535\nmse = 0.2043\nsamples = 1011\nvalue = 6.1089"] ;
862 -> 866 ;
867 [label="mse = 1.9433\nsamples = 3\nvalue = 7.7319"] ;
866 -> 867 ;
868 [label="mse = 0.1935\nsamples = 1008\nvalue = 6.1049"] ;
866 -> 868 ;
869 [label="avg_pickup_cluster_dropoff_cluster_manhattan_speed <= 22.9455\nmse = 0.1919\nsamples = 21477\nvalue = 5.9963"] ;
805 -> 869 ;
870 [label="avg_pickup_weekday_hour_haversine_speed <= 16.555\nmse = 0.1759\nsamples = 16428\nvalue = 6.0565"] ;
869 -> 870 ;
871 [label="haversine_distance <= 1.7683\nmse = 0.1659\nsamples = 10979\nvalue = 6.1349"] ;
870 -> 871 ;
872 [label="avg_pickup_cluster_dropoff_cluster_haversine_speed <= 14.707\nmse = 0.1995\nsamples = 4849\nvalue = 6.0492"] ;
871 -> 872 ;
873 [label="passthru_longitude <= -73.9848\nmse = 0.1823\nsamples = 2887\nvalue = 6.1076"] ;
872 -> 873 ;
874 [label="mse = 0.192\nsamples = 1170\nvalue = 6.172"] ;
873 -> 874 ;
875 [label="mse = 0.1711\nsamples = 1717\nvalue = 6.0642"] ;
873 -> 875 ;
876 [label="avg_pickup_weekday_hour_haversine_speed <= 14.5897\nmse = 0.2125\nsamples = 1962\nvalue = 5.9632"] ;
872 -> 876 ;
877 [label="mse = 0.2758\nsamples = 969\nvalue = 6.0252"] ;
876 -> 877 ;
878 [label="mse = 0.1422\nsamples = 993\nvalue = 5.9018"] ;
876 -> 878 ;
879 [label="avg_pickup_cluster_dropoff_cluster_haversine_speed <= 14.7972\nmse = 0.1285\nsamples = 6130\nvalue = 6.2032"] ;
871 -> 879 ;
880 [label="avg_pickup_cluster_pickup_hour_manhattan_speed <= 20.2511\nmse = 0.106\nsamples = 3559\nvalue = 6.2658"] ;
879 -> 880 ;
881 [label="mse = 0.1012\nsamples = 2735\nvalue = 6.2905"] ;
880 -> 881 ;
882 [label="mse = 0.1133\nsamples = 824\nvalue = 6.1832"] ;
880 -> 882 ;
883 [label="avg_pickup_weekday_hour_haversine_speed <= 14.5741\nmse = 0.1466\nsamples = 2571\nvalue = 6.1177"] ;
879 -> 883 ;
884 [label="mse = 0.1734\nsamples = 1173\nvalue = 6.175"] ;
883 -> 884 ;
885 [label="mse = 0.1181\nsamples = 1398\nvalue = 6.068"] ;
883 -> 885 ;
886 [label="avg_pickup_weekday_hour_haversine_speed <= 18.9081\nmse = 0.1595\nsamples = 5449\nvalue = 5.9008"] ;
870 -> 886 ;
887 [label="haversine_distance <= 1.8198\nmse = 0.1623\nsamples = 3039\nvalue = 5.978"] ;
886 -> 887 ;
888 [label="avg_pickup_cluster_pickup_hour_haversine_speed <= 19.0899\nmse = 0.1673\nsamples = 1558\nvalue = 5.9007"] ;
887 -> 888 ;
889 [label="mse = 0.1643\nsamples = 1361\nvalue = 5.928"] ;
888 -> 889 ;
890 [label="mse = 0.1452\nsamples = 197\nvalue = 5.705"] ;
888 -> 890 ;
891 [label="passthru_latitude <= 40.7356\nmse = 0.1442\nsamples = 1481\nvalue = 6.0588"] ;
887 -> 891 ;
892 [label="mse = 0.2444\nsamples = 386\nvalue = 6.196"] ;
891 -> 892 ;
893 [label="mse = 0.0989\nsamples = 1095\nvalue = 6.0094"] ;
891 -> 893 ;
894 [label="avg_dropoff_cluster_manhattan_speed <= 19.9559\nmse = 0.1389\nsamples = 2410\nvalue = 5.8035"] ;
886 -> 894 ;
895 [label="haversine_distance <= 1.7615\nmse = 0.1146\nsamples = 1757\nvalue = 5.7546"] ;
894 -> 895 ;
896 [label="mse = 0.1071\nsamples = 713\nvalue = 5.651"] ;
895 -> 896 ;
897 [label="mse = 0.1069\nsamples = 1044\nvalue = 5.8278"] ;
895 -> 897 ;
898 [label="haversine_distance <= 1.6465\nmse = 0.1817\nsamples = 653\nvalue = 5.94"] ;
894 -> 898 ;
899 [label="mse = 0.1124\nsamples = 160\nvalue = 5.7965"] ;
898 -> 899 ;
900 [label="mse = 0.1965\nsamples = 493\nvalue = 5.9912"] ;
898 -> 900 ;
901 [label="avg_pickup_weekday_hour_manhattan_speed <= 21.3209\nmse = 0.1934\nsamples = 5049\nvalue = 5.7995"] ;
869 -> 901 ;
902 [label="haversine_distance <= 1.7958\nmse = 0.1866\nsamples = 3503\nvalue = 5.8618"] ;
901 -> 902 ;
903 [label="dropoff_latitude <= 40.7744\nmse = 0.2106\nsamples = 1634\nvalue = 5.778"] ;
902 -> 903 ;
904 [label="pickup_latitude <= 40.645\nmse = 0.2274\nsamples = 607\nvalue = 5.8546"] ;
903 -> 904 ;
905 [label="mse = 0.0\nsamples = 1\nvalue = 7.824"] ;
904 -> 905 ;
906 [label="mse = 0.2234\nsamples = 606\nvalue = 5.8525"] ;
904 -> 906 ;
907 [label="passthru_longitude <= -73.9932\nmse = 0.1959\nsamples = 1027\nvalue = 5.7348"] ;
903 -> 907 ;
908 [label="mse = 0.0\nsamples = 1\nvalue = 7.6232"] ;
907 -> 908 ;
909 [label="mse = 0.1897\nsamples = 1026\nvalue = 5.7314"] ;
907 -> 909 ;
910 [label="avg_pickup_cluster_dropoff_cluster_manhattan_speed <= 27.6925\nmse = 0.1538\nsamples = 1869\nvalue = 5.9357"] ;
902 -> 910 ;
911 [label="manhattan_distance <= 2.7576\nmse = 0.1393\nsamples = 1467\nvalue = 5.9862"] ;
910 -> 911 ;
912 [label="mse = 0.1249\nsamples = 1109\nvalue = 5.9515"] ;
911 -> 912 ;
913 [label="mse = 0.1683\nsamples = 358\nvalue = 6.0924"] ;
911 -> 913 ;
914 [label="manhattan_distance <= 2.2942\nmse = 0.165\nsamples = 402\nvalue = 5.7615"] ;
910 -> 914 ;
915 [label="mse = 0.7155\nsamples = 25\nvalue = 6.1876"] ;
914 -> 915 ;
916 [label="mse = 0.1176\nsamples = 377\nvalue = 5.7344"] ;
914 -> 916 ;
917 [label="haversine_distance <= 1.7234\nmse = 0.181\nsamples = 1546\nvalue = 5.6626"] ;
901 -> 917 ;
918 [label="avg_pickup_cluster_pickup_hour_manhattan_speed <= 28.1093\nmse = 0.188\nsamples = 501\nvalue = 5.5503"] ;
917 -> 918 ;
919 [label="passthru_longitude <= -73.9486\nmse = 0.1902\nsamples = 424\nvalue = 5.5892"] ;
918 -> 919 ;
920 [label="mse = 0.1389\nsamples = 380\nvalue = 5.5641"] ;
919 -> 920 ;
921 [label="mse = 0.601\nsamples = 44\nvalue = 5.8189"] ;
919 -> 921 ;
922 [label="dropoff_latitude <= 40.8003\nmse = 0.1333\nsamples = 77\nvalue = 5.3599"] ;
918 -> 922 ;
923 [label="mse = 0.1227\nsamples = 62\nvalue = 5.2975"] ;
922 -> 923 ;
924 [label="mse = 0.1011\nsamples = 15\nvalue = 5.601"] ;
922 -> 924 ;
925 [label="avg_pickup_cluster_dropoff_cluster_manhattan_speed <= 25.6376\nmse = 0.1679\nsamples = 1045\nvalue = 5.719"] ;
917 -> 925 ;
926 [label="avg_pickup_cluster_dropoff_cluster_manhattan_speed <= 25.5473\nmse = 0.1755\nsamples = 607\nvalue = 5.8052"] ;
925 -> 926 ;
927 [label="mse = 0.1121\nsamples = 606\nvalue = 5.7937"] ;
926 -> 927 ;
928 [label="mse = -0.0\nsamples = 1\nvalue = 11.3459"] ;
926 -> 928 ;
929 [label="manhattan_distance <= 2.861\nmse = 0.132\nsamples = 438\nvalue = 5.5976"] ;
925 -> 929 ;
930 [label="mse = 0.1165\nsamples = 410\nvalue = 5.5699"] ;
929 -> 930 ;
931 [label="mse = 0.1902\nsamples = 28\nvalue = 5.9821"] ;
929 -> 931 ;
932 [label="haversine_distance <= 5.1422\nmse = 0.3058\nsamples = 320564\nvalue = 6.9609"] ;
0 -> 932 [labeldistance=2.5, labelangle=-45, headlabel="False"] ;
933 [label="avg_pickup_weekday_hour_manhattan_speed <= 18.8453\nmse = 0.2086\nsamples = 208637\nvalue = 6.7361"] ;
932 -> 933 ;
934 [label="haversine_distance <= 3.0729\nmse = 0.1915\nsamples = 112218\nvalue = 6.8724"] ;
933 -> 934 ;
935 [label="avg_pickup_cluster_dropoff_cluster_haversine_speed <= 14.2654\nmse = 0.1672\nsamples = 60926\nvalue = 6.7308"] ;
934 -> 935 ;
936 [label="avg_pickup_weekday_hour_manhattan_speed <= 15.5442\nmse = 0.1318\nsamples = 41369\nvalue = 6.8429"] ;
935 -> 936 ;
937 [label="avg_pickup_cluster_dropoff_cluster_haversine_speed <= 12.136\nmse = 0.1312\nsamples = 19709\nvalue = 6.9354"] ;
936 -> 937 ;
938 [label="haversine_distance <= 2.5522\nmse = 0.1234\nsamples = 11277\nvalue = 7.0084"] ;
937 -> 938 ;
939 [label="avg_pickup_cluster_dropoff_cluster_haversine_speed <= 10.4445\nmse = 0.1235\nsamples = 7158\nvalue = 6.9483"] ;
938 -> 939 ;
940 [label="dropoff_latitude <= 40.7471\nmse = 0.1234\nsamples = 2613\nvalue = 7.0419"] ;
939 -> 940 ;
941 [label="mse = 0.0805\nsamples = 571\nvalue = 6.9157"] ;
940 -> 941 ;
942 [label="mse = 0.1296\nsamples = 2042\nvalue = 7.0762"] ;
940 -> 942 ;
943 [label="avg_dropoff_cluster_pickup_hour_manhattan_speed <= 15.0951\nmse = 0.1154\nsamples = 4545\nvalue = 6.8934"] ;
939 -> 943 ;
944 [label="mse = 0.1029\nsamples = 2704\nvalue = 6.9394"] ;
943 -> 944 ;
945 [label="mse = 0.1261\nsamples = 1841\nvalue = 6.8263"] ;
943 -> 945 ;
946 [label="avg_dropoff_cluster_pickup_hour_haversine_speed <= 12.4016\nmse = 0.1057\nsamples = 4119\nvalue = 7.1138"] ;
938 -> 946 ;
947 [label="avg_pickup_cluster_dropoff_cluster_haversine_speed <= 10.2522\nmse = 0.1066\nsamples = 3415\nvalue = 7.14"] ;
946 -> 947 ;
948 [label="mse = 0.1039\nsamples = 730\nvalue = 7.2347"] ;
947 -> 948 ;
949 [label="mse = 0.1042\nsamples = 2685\nvalue = 7.1135"] ;
947 -> 949 ;
950 [label="haversine_distance <= 2.7754\nmse = 0.0814\nsamples = 704\nvalue = 6.9851"] ;
946 -> 950 ;
951 [label="mse = 0.0772\nsamples = 398\nvalue = 6.9228"] ;
950 -> 951 ;
952 [label="mse = 0.074\nsamples = 306\nvalue = 7.0742"] ;
950 -> 952 ;
953 [label="haversine_distance <= 2.5827\nmse = 0.125\nsamples = 8432\nvalue = 6.8379"] ;
937 -> 953 ;
954 [label="avg_dropoff_cluster_pickup_hour_haversine_speed <= 11.1037\nmse = 0.1125\nsamples = 4654\nvalue = 6.7448"] ;
953 -> 954 ;
955 [label="haversine_distance <= 2.2879\nmse = 0.1261\nsamples = 1727\nvalue = 6.8183"] ;
954 -> 955 ;
956 [label="mse = 0.1042\nsamples = 667\nvalue = 6.7346"] ;
955 -> 956 ;
957 [label="mse = 0.1326\nsamples = 1060\nvalue = 6.8699"] ;
955 -> 957 ;
958 [label="haversine_distance <= 2.2133\nmse = 0.0993\nsamples = 2927\nvalue = 6.7009"] ;
954 -> 958 ;
959 [label="mse = 0.0771\nsamples = 752\nvalue = 6.6183"] ;
958 -> 959 ;
960 [label="mse = 0.1038\nsamples = 2175\nvalue = 6.7291"] ;
958 -> 960 ;
961 [label="avg_dropoff_cluster_pickup_hour_haversine_speed <= 10.3612\nmse = 0.1166\nsamples = 3778\nvalue = 6.9525"] ;
953 -> 961 ;
962 [label="avg_pickup_cluster_pickup_hour_haversine_speed <= 9.9522\nmse = 0.1317\nsamples = 856\nvalue = 7.0893"] ;
961 -> 962 ;
963 [label="mse = 0.2825\nsamples = 52\nvalue = 7.3233"] ;
962 -> 963 ;
964 [label="mse = 0.1172\nsamples = 804\nvalue = 7.0731"] ;
962 -> 964 ;
965 [label="haversine_distance <= 2.8876\nmse = 0.1054\nsamples = 2922\nvalue = 6.9134"] ;
961 -> 965 ;
966 [label="mse = 0.1173\nsamples = 1960\nvalue = 6.8817"] ;
965 -> 966 ;
967 [label="mse = 0.075\nsamples = 962\nvalue = 6.9774"] ;
965 -> 967 ;
968 [label="avg_pickup_cluster_dropoff_cluster_haversine_speed <= 12.175\nmse = 0.1173\nsamples = 21660\nvalue = 6.7584"] ;
936 -> 968 ;
969 [label="haversine_distance <= 2.5867\nmse = 0.1122\nsamples = 12838\nvalue = 6.8247"] ;
968 -> 969 ;
970 [label="avg_pickup_cluster_dropoff_cluster_haversine_speed <= 10.6966\nmse = 0.1102\nsamples = 8451\nvalue = 6.7677"] ;
969 -> 970 ;
971 [label="avg_pickup_weekday_hour_haversine_speed <= 12.8741\nmse = 0.1077\nsamples = 3682\nvalue = 6.8377"] ;
970 -> 971 ;
972 [label="mse = 0.1097\nsamples = 1431\nvalue = 6.9061"] ;
971 -> 972 ;
973 [label="mse = 0.1014\nsamples = 2251\nvalue = 6.7938"] ;
971 -> 973 ;
974 [label="passthru_longitude <= -73.9789\nmse = 0.1054\nsamples = 4769\nvalue = 6.7133"] ;
970 -> 974 ;
975 [label="mse = 0.1122\nsamples = 2574\nvalue = 6.7707"] ;
974 -> 975 ;
976 [label="mse = 0.0895\nsamples = 2195\nvalue = 6.6475"] ;
974 -> 976 ;
977 [label="avg_pickup_weekday_hour_manhattan_speed <= 16.6347\nmse = 0.0979\nsamples = 4387\nvalue = 6.9337"] ;
969 -> 977 ;
978 [label="avg_dropoff_cluster_pickup_hour_manhattan_speed <= 16.0483\nmse = 0.1062\nsamples = 1721\nvalue = 7.0038"] ;
977 -> 978 ;
979 [label="mse = 0.1141\nsamples = 1352\nvalue = 7.029"] ;
978 -> 979 ;
980 [label="mse = 0.0645\nsamples = 369\nvalue = 6.9081"] ;
978 -> 980 ;
981 [label="passthru_latitude <= 40.7654\nmse = 0.0873\nsamples = 2666\nvalue = 6.8886"] ;
977 -> 981 ;
982 [label="mse = 0.0759\nsamples = 1992\nvalue = 6.9304"] ;
981 -> 982 ;
983 [label="mse = 0.1007\nsamples = 674\nvalue = 6.7654"] ;
981 -> 983 ;
984 [label="haversine_distance <= 2.4638\nmse = 0.1089\nsamples = 8822\nvalue = 6.6609"] ;
968 -> 984 ;
985 [label="avg_pickup_cluster_pickup_hour_haversine_speed <= 16.1501\nmse = 0.1064\nsamples = 3640\nvalue = 6.5493"] ;
984 -> 985 ;
986 [label="avg_pickup_weekday_hour_manhattan_speed <= 17.2583\nmse = 0.1061\nsamples = 3455\nvalue = 6.5619"] ;
985 -> 986 ;
987 [label="mse = 0.1108\nsamples = 2044\nvalue = 6.5946"] ;
986 -> 987 ;
988 [label="mse = 0.0955\nsamples = 1411\nvalue = 6.5146"] ;
986 -> 988 ;
989 [label="avg_dropoff_cluster_pickup_hour_haversine_speed <= 23.5098\nmse = 0.0554\nsamples = 185\nvalue = 6.3171"] ;
985 -> 989 ;
990 [label="mse = 0.0534\nsamples = 180\nvalue = 6.3268"] ;
989 -> 990 ;
991 [label="mse = 0.0186\nsamples = 5\nvalue = 6.0078"] ;
989 -> 991 ;
992 [label="haversine_distance <= 2.8149\nmse = 0.0958\nsamples = 5182\nvalue = 6.7392"] ;
984 -> 992 ;
993 [label="avg_pickup_weekday_hour_manhattan_speed <= 16.9112\nmse = 0.092\nsamples = 3194\nvalue = 6.7002"] ;
992 -> 993 ;
994 [label="mse = 0.0933\nsamples = 1469\nvalue = 6.747"] ;
993 -> 994 ;
995 [label="mse = 0.0873\nsamples = 1725\nvalue = 6.6595"] ;
993 -> 995 ;
996 [label="dropoff_latitude <= 40.761\nmse = 0.0954\nsamples = 1988\nvalue = 6.8033"] ;
992 -> 996 ;
997 [label="mse = 0.1025\nsamples = 1188\nvalue = 6.8339"] ;
996 -> 997 ;
998 [label="mse = 0.081\nsamples = 800\nvalue = 6.7566"] ;
996 -> 998 ;
999 [label="avg_pickup_cluster_dropoff_cluster_haversine_speed <= 16.7211\nmse = 0.1594\nsamples = 19557\nvalue = 6.4938"] ;
935 -> 999 ;
1000 [label="haversine_distance <= 2.5174\nmse = 0.1413\nsamples = 10705\nvalue = 6.5989"] ;
999 -> 1000 ;
1001 [label="avg_pickup_weekday_hour_manhattan_speed <= 16.5274\nmse = 0.1384\nsamples = 4657\nvalue = 6.4901"] ;
1000 -> 1001 ;
1002 [label="avg_dropoff_cluster_pickup_hour_haversine_speed <= 10.9683\nmse = 0.1357\nsamples = 2910\nvalue = 6.5553"] ;
1001 -> 1002 ;
1003 [label="avg_pickup_weekday_hour_manhattan_speed <= 14.667\nmse = 0.1669\nsamples = 571\nvalue = 6.6935"] ;
1002 -> 1003 ;
1004 [label="mse = 0.1916\nsamples = 282\nvalue = 6.7662"] ;
1003 -> 1004 ;
1005 [label="mse = 0.1302\nsamples = 289\nvalue = 6.6183"] ;
1003 -> 1005 ;
1006 [label="haversine_distance <= 2.3148\nmse = 0.1223\nsamples = 2339\nvalue = 6.5215"] ;
1002 -> 1006 ;
1007 [label="mse = 0.1289\nsamples = 1253\nvalue = 6.4688"] ;
1006 -> 1007 ;
1008 [label="mse = 0.1076\nsamples = 1086\nvalue = 6.5826"] ;
1006 -> 1008 ;
1009 [label="haversine_distance <= 2.1901\nmse = 0.1238\nsamples = 1747\nvalue = 6.3807"] ;
1001 -> 1009 ;
1010 [label="pickup_longitude <= -74.0084\nmse = 0.1028\nsamples = 373\nvalue = 6.2781"] ;
1009 -> 1010 ;
1011 [label="mse = 0.0577\nsamples = 14\nvalue = 5.9922"] ;
1010 -> 1011 ;
1012 [label="mse = 0.1011\nsamples = 359\nvalue = 6.2899"] ;
1010 -> 1012 ;
1013 [label="passthru_latitude <= 40.7508\nmse = 0.1259\nsamples = 1374\nvalue = 6.4089"] ;
1009 -> 1013 ;
1014 [label="mse = 0.1579\nsamples = 647\nvalue = 6.4638"] ;
1013 -> 1014 ;
1015 [label="mse = 0.0932\nsamples = 727\nvalue = 6.3612"] ;
1013 -> 1015 ;
1016 [label="avg_pickup_weekday_hour_manhattan_speed <= 15.6622\nmse = 0.1272\nsamples = 6048\nvalue = 6.6834"] ;
1000 -> 1016 ;
1017 [label="avg_dropoff_cluster_pickup_hour_haversine_speed <= 11.2949\nmse = 0.1108\nsamples = 2885\nvalue = 6.7788"] ;
1016 -> 1017 ;
1018 [label="avg_pickup_weekday_hour_haversine_speed <= 10.8407\nmse = 0.1007\nsamples = 947\nvalue = 6.8701"] ;
1017 -> 1018 ;
1019 [label="mse = 0.094\nsamples = 214\nvalue = 6.9809"] ;
1018 -> 1019 ;
1020 [label="mse = 0.0979\nsamples = 733\nvalue = 6.8365"] ;
1018 -> 1020 ;
1021 [label="haversine_distance <= 2.8067\nmse = 0.1097\nsamples = 1938\nvalue = 6.7342"] ;
1017 -> 1021 ;
1022 [label="mse = 0.1045\nsamples = 1044\nvalue = 6.6867"] ;
1021 -> 1022 ;
1023 [label="mse = 0.11\nsamples = 894\nvalue = 6.7892"] ;
1021 -> 1023 ;
1024 [label="haversine_distance <= 2.8605\nmse = 0.1262\nsamples = 3163\nvalue = 6.5964"] ;
1016 -> 1024 ;
1025 [label="passthru_longitude <= -73.98\nmse = 0.0976\nsamples = 1924\nvalue = 6.5495"] ;
1024 -> 1025 ;
1026 [label="mse = 0.1083\nsamples = 958\nvalue = 6.5975"] ;
1025 -> 1026 ;
1027 [label="mse = 0.0829\nsamples = 966\nvalue = 6.503"] ;
1025 -> 1027 ;
1028 [label="passthru_longitude <= -73.9788\nmse = 0.1608\nsamples = 1239\nvalue = 6.6666"] ;
1024 -> 1028 ;
1029 [label="mse = 0.223\nsamples = 659\nvalue = 6.7253"] ;
1028 -> 1029 ;
1030 [label="mse = 0.0814\nsamples = 580\nvalue = 6.5995"] ;
1028 -> 1030 ;
1031 [label="haversine_distance <= 2.54\nmse = 0.1512\nsamples = 8852\nvalue = 6.3637"] ;
999 -> 1031 ;
1032 [label="avg_dropoff_cluster_pickup_hour_manhattan_speed <= 19.2473\nmse = 0.1492\nsamples = 4306\nvalue = 6.2725"] ;
1031 -> 1032 ;
1033 [label="avg_pickup_weekday_hour_haversine_speed <= 12.0088\nmse = 0.1535\nsamples = 2861\nvalue = 6.3401"] ;
1032 -> 1033 ;
1034 [label="avg_pickup_cluster_pickup_hour_manhattan_speed <= 16.613\nmse = 0.1302\nsamples = 1418\nvalue = 6.4278"] ;
1033 -> 1034 ;
1035 [label="mse = 0.1256\nsamples = 928\nvalue = 6.4754"] ;
1034 -> 1035 ;
1036 [label="mse = 0.1258\nsamples = 490\nvalue = 6.3337"] ;
1034 -> 1036 ;
1037 [label="avg_pickup_cluster_dropoff_cluster_manhattan_speed <= 27.3499\nmse = 0.1615\nsamples = 1443\nvalue = 6.2537"] ;
1033 -> 1037 ;
1038 [label="mse = 0.1598\nsamples = 1262\nvalue = 6.2817"] ;
1037 -> 1038 ;
1039 [label="mse = 0.1279\nsamples = 181\nvalue = 6.052"] ;
1037 -> 1039 ;
1040 [label="avg_pickup_cluster_pickup_hour_manhattan_speed <= 18.0146\nmse = 0.1133\nsamples = 1445\nvalue = 6.1381"] ;
1032 -> 1040 ;
1041 [label="pickup_weekday_hour <= 135.5\nmse = 0.1067\nsamples = 722\nvalue = 6.2282"] ;
1040 -> 1041 ;
1042 [label="mse = 0.1031\nsamples = 643\nvalue = 6.2556"] ;
1041 -> 1042 ;
1043 [label="mse = 0.0721\nsamples = 79\nvalue = 5.9823"] ;
1041 -> 1043 ;
1044 [label="avg_pickup_cluster_haversine_speed <= 16.0094\nmse = 0.1038\nsamples = 723\nvalue = 6.0486"] ;
1040 -> 1044 ;
1045 [label="mse = 0.0867\nsamples = 447\nvalue = 5.9622"] ;
1044 -> 1045 ;
1046 [label="mse = 0.0994\nsamples = 276\nvalue = 6.1914"] ;
1044 -> 1046 ;
1047 [label="avg_pickup_cluster_dropoff_cluster_haversine_speed <= 19.9166\nmse = 0.1381\nsamples = 4546\nvalue = 6.4491"] ;
1031 -> 1047 ;
1048 [label="avg_pickup_weekday_hour_manhattan_speed <= 15.3919\nmse = 0.132\nsamples = 3146\nvalue = 6.5104"] ;
1047 -> 1048 ;
