digraph Tree {
node [shape=box] ;
0 [label="haversine_distance <= 2.1812\nmse = 0.6142\nsamples = 643217\nvalue = 6.4722"] ;
1 [label="haversine_distance <= 1.0229\nmse = 0.4514\nsamples = 333472\nvalue = 6.004"] ;
0 -> 1 [labeldistance=2.5, labelangle=45, headlabel="True"] ;
2 [label="haversine_distance <= 0.0167\nmse = 0.5568\nsamples = 111530\nvalue = 5.58"] ;
1 -> 2 ;
3 [label="haversine_distance <= 0.0062\nmse = 2.5531\nsamples = 1585\nvalue = 3.4585"] ;
2 -> 3 ;
4 [label="passenger_count <= 1.5\nmse = 1.8501\nsamples = 1038\nvalue = 3.1412"] ;
3 -> 4 ;
5 [label="dropoff_longitude <= -73.7764\nmse = 1.7787\nsamples = 832\nvalue = 3.0486"] ;
4 -> 5 ;
6 [label="avg_pickup_cluster_manhattan_speed <= 35.3014\nmse = 1.6317\nsamples = 804\nvalue = 3.0079"] ;
5 -> 6 ;
7 [label="pickup_longitude <= -73.9511\nmse = 1.6344\nsamples = 718\nvalue = 3.0889"] ;
6 -> 7 ;
8 [label="haversine_distance <= 0.0053\nmse = 1.4715\nsamples = 509\nvalue = 2.9536"] ;
7 -> 8 ;
9 [label="avg_dropoff_cluster_pickup_hour_haversine_speed <= 8.8563\nmse = 1.3527\nsamples = 478\nvalue = 2.8964"] ;
8 -> 9 ;
10 [label="mse = 7.2446\nsamples = 2\nvalue = 5.7606"] ;
9 -> 10 ;
11 [label="mse = 1.2782\nsamples = 476\nvalue = 2.8813"] ;
9 -> 11 ;
12 [label="avg_pickup_weekday_hour_haversine_speed <= 15.7082\nmse = 2.4838\nsamples = 31\nvalue = 3.882"] ;
8 -> 12 ;
13 [label="mse = 2.2143\nsamples = 23\nvalue = 3.4402"] ;
12 -> 13 ;
14 [label="mse = 1.3435\nsamples = 8\nvalue = 5.0373"] ;
12 -> 14 ;
15 [label="pickup_longitude <= -73.9479\nmse = 1.8753\nsamples = 209\nvalue = 3.4122"] ;
7 -> 15 ;
16 [label="avg_pickup_hour_manhattan_speed <= 18.5885\nmse = 1.8785\nsamples = 11\nvalue = 4.4956"] ;
15 -> 16 ;
17 [label="mse = 0.3457\nsamples = 5\nvalue = 3.2975"] ;
16 -> 17 ;
18 [label="mse = 1.1043\nsamples = 6\nvalue = 5.4171"] ;
16 -> 18 ;
19 [label="passthru_longitude <= -73.8115\nmse = 1.7834\nsamples = 198\nvalue = 3.3334"] ;
15 -> 19 ;
20 [label="mse = 1.7406\nsamples = 194\nvalue = 3.2906"] ;
19 -> 20 ;
21 [label="mse = 0.6528\nsamples = 4\nvalue = 4.979"] ;
19 -> 21 ;
22 [label="avg_pickup_hour_manhattan_speed <= 21.1968\nmse = 1.1207\nsamples = 86\nvalue = 2.3478"] ;
6 -> 22 ;
23 [label="avg_pickup_weekday_hour_manhattan_speed <= 18.7053\nmse = 1.0665\nsamples = 77\nvalue = 2.2496"] ;
22 -> 23 ;
24 [label="pickup_longitude <= -73.7817\nmse = 1.26\nsamples = 53\nvalue = 2.4605"] ;
23 -> 24 ;
25 [label="mse = 1.3526\nsamples = 45\nvalue = 2.5754"] ;
24 -> 25 ;
26 [label="mse = 0.2101\nsamples = 8\nvalue = 1.798"] ;
24 -> 26 ;
27 [label="avg_pickup_weekday_hour_manhattan_speed <= 20.7578\nmse = 0.2768\nsamples = 24\nvalue = 1.7612"] ;
23 -> 27 ;
28 [label="mse = 0.2842\nsamples = 15\nvalue = 1.4999"] ;
27 -> 28 ;
29 [label="mse = 0.1084\nsamples = 9\nvalue = 2.0515"] ;
27 -> 29 ;
30 [label="pickup_hour <= 0.5\nmse = 0.8145\nsamples = 9\nvalue = 3.173"] ;
22 -> 30 ;
31 [label="mse = 0.0\nsamples = 1\nvalue = 5.2983"] ;
30 -> 31 ;
32 [label="avg_pickup_weekday_hour_haversine_speed <= 23.9839\nmse = 0.527\nsamples = 8\nvalue = 3.0212"] ;
30 -> 32 ;
33 [label="mse = 0.365\nsamples = 7\nvalue = 2.9009"] ;
32 -> 33 ;
34 [label="mse = 0.0\nsamples = 1\nvalue = 4.585"] ;
32 -> 34 ;
35 [label="avg_dropoff_cluster_pickup_hour_haversine_speed <= 20.3632\nmse = 4.552\nsamples = 28\nvalue = 4.1898"] ;
5 -> 35 ;
36 [label="mse = 0.0\nsamples = 1\nvalue = 11.361"] ;
35 -> 36 ;
37 [label="avg_pickup_hour_haversine_speed <= 23.2214\nmse = 1.0315\nsamples = 27\nvalue = 3.6895"] ;
35 -> 37 ;
38 [label="dropoff_longitude <= -73.6852\nmse = 0.76\nsamples = 26\nvalue = 3.8455"] ;
37 -> 38 ;
39 [label="dropoff_longitude <= -73.7637\nmse = 0.323\nsamples = 11\nvalue = 4.2926"] ;
38 -> 39 ;
40 [label="mse = 0.0468\nsamples = 2\nvalue = 3.3945"] ;
39 -> 40 ;
41 [label="mse = 0.1241\nsamples = 9\nvalue = 4.5322"] ;
39 -> 41 ;
42 [label="passthru_latitude <= 40.7235\nmse = 0.8108\nsamples = 15\nvalue = 3.4409"] ;
38 -> 42 ;
43 [label="mse = 1.0759\nsamples = 3\nvalue = 2.3131"] ;
42 -> 43 ;
44 [label="mse = 0.5193\nsamples = 12\nvalue = 3.6288"] ;
42 -> 44 ;
45 [label="mse = -0.0\nsamples = 1\nvalue = 1.6094"] ;
37 -> 45 ;
46 [label="pickup_weekday_hour <= 166.0\nmse = 1.9648\nsamples = 206\nvalue = 3.5041"] ;
4 -> 46 ;
47 [label="avg_pickup_cluster_haversine_speed <= 26.569\nmse = 1.8125\nsamples = 204\nvalue = 3.4587"] ;
46 -> 47 ;
48 [label="avg_pickup_cluster_manhattan_speed <= 21.1723\nmse = 1.9153\nsamples = 168\nvalue = 3.5818"] ;
47 -> 48 ;
49 [label="avg_dropoff_cluster_manhattan_speed <= 15.5214\nmse = 1.6966\nsamples = 135\nvalue = 3.3959"] ;
48 -> 49 ;
50 [label="pickup_latitude <= 40.7204\nmse = 2.8761\nsamples = 18\nvalue = 4.3638"] ;
49 -> 50 ;
51 [label="mse = 1.9315\nsamples = 4\nvalue = 6.3969"] ;
50 -> 51 ;
52 [label="mse = 0.9954\nsamples = 14\nvalue = 3.5683"] ;
50 -> 52 ;
53 [label="avg_pickup_cluster_dropoff_cluster_manhattan_speed <= 7.3934\nmse = 1.3378\nsamples = 117\nvalue = 3.2426"] ;
49 -> 53 ;
54 [label="mse = 2.8747\nsamples = 3\nvalue = 4.7474"] ;
53 -> 54 ;
55 [label="mse = 1.1772\nsamples = 114\nvalue = 3.1805"] ;
53 -> 55 ;
56 [label="pickup_latitude <= 40.7456\nmse = 2.0555\nsamples = 33\nvalue = 4.4023"] ;
48 -> 56 ;
57 [label="avg_pickup_cluster_pickup_hour_manhattan_speed <= 23.7882\nmse = 4.2649\nsamples = 7\nvalue = 5.3452"] ;
56 -> 57 ;
58 [label="mse = 3.7605\nsamples = 2\nvalue = 8.4529"] ;
57 -> 58 ;
59 [label="mse = 0.6497\nsamples = 5\nvalue = 4.4129"] ;
57 -> 59 ;
60 [label="avg_pickup_cluster_dropoff_cluster_haversine_speed <= 13.0863\nmse = 0.9546\nsamples = 26\nvalue = 4.0959"] ;
56 -> 60 ;
61 [label="mse = 0.6946\nsamples = 23\nvalue = 4.246"] ;
60 -> 61 ;
62 [label="mse = 0.4547\nsamples = 3\nvalue = 2.2445"] ;
60 -> 62 ;
63 [label="avg_pickup_weekday_haversine_speed <= 13.6158\nmse = 0.6367\nsamples = 36\nvalue = 2.7525"] ;
47 -> 63 ;
64 [label="avg_pickup_hour_manhattan_speed <= 16.392\nmse = 0.4467\nsamples = 8\nvalue = 1.9815"] ;
63 -> 64 ;
65 [label="avg_pickup_weekday_manhattan_speed <= 17.4119\nmse = 0.0547\nsamples = 4\nvalue = 2.5742"] ;
64 -> 65 ;
66 [label="mse = 0.0121\nsamples = 3\nvalue = 2.4508"] ;
65 -> 66 ;
67 [label="mse = -0.0\nsamples = 1\nvalue = 2.9444"] ;
65 -> 67 ;
68 [label="avg_dropoff_cluster_pickup_hour_haversine_speed <= 26.64\nmse = 0.3177\nsamples = 4\nvalue = 1.5864"] ;
64 -> 68 ;
69 [label="mse = 0.1595\nsamples = 2\nvalue = 2.0742"] ;
68 -> 69 ;
70 [label="mse = 0.0\nsamples = 2\nvalue = 1.0986"] ;
68 -> 70 ;
71 [label="avg_pickup_cluster_pickup_hour_haversine_speed <= 27.5652\nmse = 0.4985\nsamples = 28\nvalue = 2.9452"] ;
63 -> 71 ;
72 [label="avg_pickup_cluster_pickup_hour_manhattan_speed <= 36.2735\nmse = 0.3976\nsamples = 21\nvalue = 2.7179"] ;
71 -> 72 ;
73 [label="mse = 0.2919\nsamples = 19\nvalue = 2.8154"] ;
72 -> 73 ;
74 [label="mse = 0.5395\nsamples = 2\nvalue = 1.9057"] ;
72 -> 74 ;
75 [label="avg_pickup_weekday_hour_manhattan_speed <= 23.8675\nmse = 0.3322\nsamples = 7\nvalue = 3.4755"] ;
71 -> 75 ;
76 [label="mse = 0.1091\nsamples = 4\nvalue = 3.1241"] ;
75 -> 76 ;
77 [label="mse = 0.0378\nsamples = 3\nvalue = 4.1782"] ;
75 -> 77 ;
78 [label="avg_dropoff_cluster_haversine_speed <= 16.965\nmse = 0.0004\nsamples = 2\nvalue = 7.3273"] ;
46 -> 78 ;
79 [label="mse = 0.0\nsamples = 1\nvalue = 7.3085"] ;
78 -> 79 ;
80 [label="mse = 0.0\nsamples = 1\nvalue = 7.346"] ;
78 -> 80 ;
81 [label="avg_pickup_cluster_haversine_speed <= 21.5895\nmse = 3.3502\nsamples = 547\nvalue = 4.0851"] ;
3 -> 81 ;
82 [label="avg_dropoff_cluster_manhattan_speed <= 16.4298\nmse = 3.3754\nsamples = 495\nvalue = 4.2031"] ;
81 -> 82 ;
83 [label="passthru_latitude <= 40.7218\nmse = 2.6356\nsamples = 156\nvalue = 3.6335"] ;
82 -> 83 ;
84 [label="avg_dropoff_cluster_pickup_hour_haversine_speed <= 12.3341\nmse = 3.4996\nsamples = 15\nvalue = 4.9661"] ;
83 -> 84 ;
85 [label="pickup_weekday_hour <= 85.5\nmse = 1.6466\nsamples = 6\nvalue = 3.4764"] ;
84 -> 85 ;
86 [label="pickup_weekday_hour <= 50.0\nmse = 0.5273\nsamples = 2\nvalue = 1.6121"] ;
85 -> 86 ;
87 [label="mse = 0.0\nsamples = 1\nvalue = 2.6391"] ;
86 -> 87 ;
88 [label="mse = 0.0\nsamples = 1\nvalue = 1.0986"] ;
86 -> 88 ;
89 [label="manhattan_distance <= 0.0199\nmse = 0.475\nsamples = 4\nvalue = 4.0978"] ;
85 -> 89 ;
90 [label="mse = 0.0462\nsamples = 3\nvalue = 3.7436"] ;
89 -> 90 ;
91 [label="mse = -0.0\nsamples = 1\nvalue = 5.3375"] ;
89 -> 91 ;
92 [label="avg_dropoff_cluster_pickup_hour_manhattan_speed <= 16.3508\nmse = 1.7862\nsamples = 9\nvalue = 6.1579"] ;
84 -> 92 ;
93 [label="passenger_count <= 3.0\nmse = 0.0836\nsamples = 3\nvalue = 7.3967"] ;
92 -> 93 ;
94 [label="mse = 0.007\nsamples = 2\nvalue = 7.5214"] ;
93 -> 94 ;
95 [label="mse = -0.0\nsamples = 1\nvalue = 6.7731"] ;
93 -> 95 ;
96 [label="haversine_distance <= 0.0121\nmse = 1.2161\nsamples = 6\nvalue = 5.3321"] ;
92 -> 96 ;
97 [label="mse = 0.7238\nsamples = 4\nvalue = 5.758"] ;
96 -> 97 ;
98 [label="mse = 0.0817\nsamples = 2\nvalue = 3.8412"] ;
96 -> 98 ;
99 [label="avg_pickup_weekday_hour_manhattan_speed <= 31.4604\nmse = 2.249\nsamples = 141\nvalue = 3.4545"] ;
83 -> 99 ;
100 [label="pickup_cluster <= 26.0\nmse = 2.0924\nsamples = 139\nvalue = 3.4019"] ;
99 -> 100 ;
101 [label="pickup_weekday_hour <= 11.5\nmse = 0.9586\nsamples = 35\nvalue = 2.7695"] ;
100 -> 101 ;
102 [label="mse = 0.0\nsamples = 1\nvalue = 6.2005"] ;
101 -> 102 ;
103 [label="mse = 0.7543\nsamples = 34\nvalue = 2.7059"] ;
101 -> 103 ;
104 [label="pickup_hour <= 2.5\nmse = 2.3155\nsamples = 104\nvalue = 3.6451"] ;
100 -> 104 ;
105 [label="mse = 1.4347\nsamples = 10\nvalue = 2.6568"] ;
104 -> 105 ;
106 [label="mse = 2.2909\nsamples = 94\nvalue = 3.7609"] ;
104 -> 106 ;
107 [label="passenger_count <= 1.5\nmse = 0.3177\nsamples = 2\nvalue = 6.9305"] ;
99 -> 107 ;
108 [label="mse = 0.0\nsamples = 1\nvalue = 6.1334"] ;
107 -> 108 ;
109 [label="mse = 0.0\nsamples = 1\nvalue = 7.3291"] ;
107 -> 109 ;
110 [label="manhattan_distance <= 0.0143\nmse = 3.493\nsamples = 339\nvalue = 4.444"] ;
82 -> 110 ;
111 [label="avg_dropoff_cluster_pickup_hour_manhattan_speed <= 14.7368\nmse = 3.2533\nsamples = 187\nvalue = 4.1471"] ;
110 -> 111 ;
112 [label="avg_pickup_weekday_hour_manhattan_speed <= 14.6755\nmse = 0.2419\nsamples = 9\nvalue = 2.57"] ;
111 -> 112 ;
113 [label="haversine_distance <= 0.0098\nmse = 0.0897\nsamples = 5\nvalue = 2.2596"] ;
112 -> 113 ;
114 [label="mse = 0.0107\nsamples = 3\nvalue = 2.5402"] ;
113 -> 114 ;
115 [label="mse = 0.0395\nsamples = 2\nvalue = 2.035"] ;
113 -> 115 ;
116 [label="passthru_latitude <= 40.7527\nmse = 0.0301\nsamples = 4\nvalue = 3.1289"] ;
112 -> 116 ;
117 [label="mse = 0.0123\nsamples = 3\nvalue = 3.2519"] ;
116 -> 117 ;
118 [label="mse = -0.0\nsamples = 1\nvalue = 2.9444"] ;
116 -> 118 ;
119 [label="avg_pickup_cluster_pickup_hour_manhattan_speed <= 14.0118\nmse = 3.2736\nsamples = 178\nvalue = 4.2277"] ;
111 -> 119 ;
120 [label="avg_pickup_cluster_pickup_hour_manhattan_speed <= 13.2759\nmse = 1.6607\nsamples = 3\nvalue = 6.7223"] ;
119 -> 120 ;
121 [label="mse = 0.0\nsamples = 1\nvalue = 3.8712"] ;
120 -> 121 ;
122 [label="mse = 0.0419\nsamples = 2\nvalue = 7.2925"] ;
120 -> 122 ;
123 [label="avg_pickup_weekday_hour_manhattan_speed <= 30.3239\nmse = 3.1673\nsamples = 175\nvalue = 4.1719"] ;
119 -> 123 ;
124 [label="mse = 3.1384\nsamples = 171\nvalue = 4.2382"] ;
123 -> 124 ;
125 [label="mse = 0.2261\nsamples = 4\nvalue = 2.263"] ;
123 -> 125 ;
126 [label="haversine_distance <= 0.0159\nmse = 3.551\nsamples = 152\nvalue = 4.7847"] ;
110 -> 126 ;
127 [label="avg_pickup_cluster_dropoff_cluster_haversine_speed <= 12.963\nmse = 3.5293\nsamples = 132\nvalue = 4.9474"] ;
126 -> 127 ;
128 [label="avg_dropoff_cluster_haversine_speed <= 13.2841\nmse = 3.3942\nsamples = 117\nvalue = 4.7869"] ;
127 -> 128 ;
129 [label="mse = 3.1618\nsamples = 25\nvalue = 5.7648"] ;
128 -> 129 ;
130 [label="mse = 3.0497\nsamples = 92\nvalue = 4.4631"] ;
128 -> 130 ;
131 [label="pickup_hour <= 4.5\nmse = 2.7911\nsamples = 15\nvalue = 6.2121"] ;
127 -> 131 ;
132 [label="mse = 0.4499\nsamples = 4\nvalue = 3.4855"] ;
131 -> 132 ;
133 [label="mse = 0.4412\nsamples = 11\nvalue = 7.0732"] ;
131 -> 133 ;
134 [label="pickup_cluster <= 31.5\nmse = 1.9632\nsamples = 20\nvalue = 3.5393"] ;
126 -> 134 ;
135 [label="avg_pickup_hour_haversine_speed <= 16.3375\nmse = 0.3166\nsamples = 11\nvalue = 2.6744"] ;
134 -> 135 ;
136 [label="mse = 0.1615\nsamples = 8\nvalue = 2.504"] ;
135 -> 136 ;
137 [label="mse = 0.2721\nsamples = 3\nvalue = 3.4699"] ;
135 -> 137 ;
138 [label="pickup_weekday <= 4.5\nmse = 1.735\nsamples = 9\nvalue = 4.7646"] ;
134 -> 138 ;
139 [label="mse = 1.0036\nsamples = 6\nvalue = 4.0704"] ;
138 -> 139 ;
140 [label="mse = 0.3065\nsamples = 3\nvalue = 6.153"] ;
138 -> 140 ;
141 [label="passthru_latitude <= 40.6179\nmse = 1.7664\nsamples = 52\nvalue = 2.9816"] ;
81 -> 141 ;
142 [label="mse = 0.0\nsamples = 1\nvalue = 8.2664"] ;
141 -> 142 ;
143 [label="pickup_weekday_hour <= 161.0\nmse = 1.4391\nsamples = 51\nvalue = 2.9163"] ;
141 -> 143 ;
144 [label="pickup_hour <= 21.5\nmse = 1.2022\nsamples = 48\nvalue = 2.8109"] ;
143 -> 144 ;
145 [label="pickup_latitude <= 40.6488\nmse = 1.1103\nsamples = 46\nvalue = 2.9021"] ;
144 -> 145 ;
146 [label="avg_dropoff_cluster_pickup_hour_manhattan_speed <= 56.8377\nmse = 0.7677\nsamples = 37\nvalue = 2.6478"] ;
145 -> 146 ;
147 [label="mse = 0.6246\nsamples = 35\nvalue = 2.5492"] ;
146 -> 147 ;
148 [label="mse = 0.2921\nsamples = 2\nvalue = 4.2907"] ;
146 -> 148 ;
149 [label="avg_pickup_cluster_pickup_hour_manhattan_speed <= 27.4579\nmse = 1.3826\nsamples = 9\nvalue = 3.6114"] ;
145 -> 149 ;
150 [label="mse = 0.527\nsamples = 4\nvalue = 2.7286"] ;
149 -> 150 ;
151 [label="mse = 0.8198\nsamples = 5\nvalue = 4.4059"] ;
149 -> 151 ;
152 [label="dropoff_latitude <= 40.6521\nmse = 0.0155\nsamples = 2\nvalue = 1.1705"] ;
144 -> 152 ;
153 [label="mse = 0.0\nsamples = 1\nvalue = 1.3863"] ;
152 -> 153 ;
154 [label="mse = 0.0\nsamples = 1\nvalue = 1.0986"] ;
152 -> 154 ;
155 [label="dropoff_latitude <= 40.6459\nmse = 2.3049\nsamples = 3\nvalue = 4.5183"] ;
143 -> 155 ;
156 [label="avg_pickup_cluster_pickup_hour_manhattan_speed <= 39.9596\nmse = 0.0578\nsamples = 2\nvalue = 3.7668"] ;
155 -> 156 ;
157 [label="mse = 0.0\nsamples = 1\nvalue = 4.0073"] ;
156 -> 157 ;
158 [label="mse = 0.0\nsamples = 1\nvalue = 3.5264"] ;
156 -> 158 ;
159 [label="mse = 0.0\nsamples = 1\nvalue = 7.524"] ;
155 -> 159 ;
160 [label="haversine_distance <= 0.6548\nmse = 0.4615\nsamples = 109945\nvalue = 5.6109"] ;
2 -> 160 ;
161 [label="avg_dropoff_cluster_pickup_hour_manhattan_speed <= 16.8638\nmse = 0.6721\nsamples = 36264\nvalue = 5.3531"] ;
160 -> 161 ;
162 [label="haversine_distance <= 0.2171\nmse = 0.6151\nsamples = 19890\nvalue = 5.495"] ;
161 -> 162 ;
163 [label="haversine_distance <= 0.0656\nmse = 2.1378\nsamples = 1770\nvalue = 5.0896"] ;
162 -> 163 ;
164 [label="pickup_longitude <= -73.9709\nmse = 3.1502\nsamples = 524\nvalue = 4.8156"] ;
163 -> 164 ;
165 [label="haversine_distance <= 0.0333\nmse = 3.1091\nsamples = 434\nvalue = 4.6523"] ;
164 -> 165 ;
166 [label="pickup_longitude <= -73.9757\nmse = 3.1275\nsamples = 172\nvalue = 4.3676"] ;
165 -> 166 ;
167 [label="mse = 3.1067\nsamples = 158\nvalue = 4.475"] ;
166 -> 167 ;
168 [label="mse = 1.3148\nsamples = 14\nvalue = 2.9774"] ;
166 -> 168 ;
169 [label="passthru_latitude <= 40.7792\nmse = 3.0119\nsamples = 262\nvalue = 4.8349"] ;
165 -> 169 ;
170 [label="mse = 2.9526\nsamples = 253\nvalue = 4.7764"] ;
169 -> 170 ;
171 [label="mse = 1.063\nsamples = 9\nvalue = 6.7889"] ;
169 -> 171 ;
172 [label="manhattan_distance <= 0.0541\nmse = 2.6768\nsamples = 90\nvalue = 5.5492"] ;
164 -> 172 ;
173 [label="avg_pickup_cluster_haversine_speed <= 15.2458\nmse = 1.4775\nsamples = 48\nvalue = 6.3052"] ;
172 -> 173 ;
174 [label="mse = 0.9451\nsamples = 42\nvalue = 6.5951"] ;
173 -> 174 ;
175 [label="mse = 0.4264\nsamples = 6\nvalue = 4.2474"] ;
173 -> 175 ;
176 [label="avg_pickup_cluster_pickup_hour_haversine_speed <= 12.5553\nmse = 2.638\nsamples = 42\nvalue = 4.6744"] ;
172 -> 176 ;
177 [label="mse = 2.1528\nsamples = 32\nvalue = 4.3769"] ;
176 -> 177 ;
178 [label="mse = 2.6762\nsamples = 10\nvalue = 5.9786"] ;
176 -> 178 ;
179 [label="dropoff_longitude <= -73.9814\nmse = 1.6658\nsamples = 1246\nvalue = 5.2052"] ;
163 -> 179 ;
180 [label="manhattan_distance <= 0.094\nmse = 1.5262\nsamples = 771\nvalue = 5.0838"] ;
179 -> 180 ;
181 [label="dropoff_cluster <= 56.0\nmse = 2.0791\nsamples = 46\nvalue = 5.9316"] ;
180 -> 181 ;
182 [label="mse = 0.8902\nsamples = 25\nvalue = 5.2685"] ;
181 -> 182 ;
183 [label="mse = 2.3794\nsamples = 21\nvalue = 6.6337"] ;
181 -> 183 ;
184 [label="passthru_latitude <= 40.6915\nmse = 1.4459\nsamples = 725\nvalue = 5.0321"] ;
180 -> 184 ;
185 [label="mse = 0.3846\nsamples = 2\nvalue = 7.9227"] ;
184 -> 185 ;
186 [label="mse = 1.4138\nsamples = 723\nvalue = 5.0195"] ;
184 -> 186 ;
187 [label="passenger_count <= 3.5\nmse = 1.83\nsamples = 475\nvalue = 5.4023"] ;
179 -> 187 ;
188 [label="avg_dropoff_cluster_pickup_hour_haversine_speed <= 12.7504\nmse = 1.7615\nsamples = 425\nvalue = 5.3415"] ;
187 -> 188 ;
189 [label="mse = 1.6164\nsamples = 393\nvalue = 5.2848"] ;
188 -> 189 ;
190 [label="mse = 3.0109\nsamples = 32\nvalue = 6.0329"] ;
188 -> 190 ;
191 [label="pickup_cluster <= 36.5\nmse = 2.1136\nsamples = 50\nvalue = 5.9329"] ;
187 -> 191 ;
192 [label="mse = 1.8289\nsamples = 25\nvalue = 6.5641"] ;
191 -> 192 ;
193 [label="mse = 1.6244\nsamples = 25\nvalue = 5.3178"] ;
191 -> 193 ;
194 [label="avg_dropoff_cluster_pickup_hour_manhattan_speed <= 13.8814\nmse = 0.4488\nsamples = 18120\nvalue = 5.5346"] ;
162 -> 194 ;
195 [label="avg_pickup_cluster_dropoff_cluster_manhattan_speed <= 11.1695\nmse = 0.4412\nsamples = 5979\nvalue = 5.7114"] ;
194 -> 195 ;
196 [label="avg_dropoff_cluster_pickup_hour_manhattan_speed <= 12.847\nmse = 0.4342\nsamples = 3592\nvalue = 5.7965"] ;
195 -> 196 ;
197 [label="avg_pickup_weekday_hour_haversine_speed <= 13.3131\nmse = 0.4274\nsamples = 1967\nvalue = 5.8998"] ;
196 -> 197 ;
198 [label="mse = 0.3884\nsamples = 1571\nvalue = 5.9553"] ;
197 -> 198 ;
199 [label="mse = 0.5212\nsamples = 396\nvalue = 5.6817"] ;
197 -> 199 ;
200 [label="haversine_distance <= 0.4371\nmse = 0.4142\nsamples = 1625\nvalue = 5.6723"] ;
196 -> 200 ;
201 [label="mse = 0.6104\nsamples = 564\nvalue = 5.5279"] ;
200 -> 201 ;
202 [label="mse = 0.2883\nsamples = 1061\nvalue = 5.7519"] ;
200 -> 202 ;
203 [label="haversine_distance <= 0.5667\nmse = 0.4246\nsamples = 2387\nvalue = 5.5842"] ;
195 -> 203 ;
204 [label="avg_pickup_weekday_hour_manhattan_speed <= 15.0063\nmse = 0.4723\nsamples = 1352\nvalue = 5.4922"] ;
203 -> 204 ;
205 [label="mse = 0.538\nsamples = 591\nvalue = 5.5969"] ;
204 -> 205 ;
206 [label="mse = 0.4063\nsamples = 761\nvalue = 5.411"] ;
204 -> 206 ;
207 [label="avg_pickup_weekday_hour_manhattan_speed <= 16.1723\nmse = 0.3353\nsamples = 1035\nvalue = 5.7061"] ;
203 -> 207 ;
208 [label="mse = 0.372\nsamples = 671\nvalue = 5.7887"] ;
207 -> 208 ;
209 [label="mse = 0.2356\nsamples = 364\nvalue = 5.5581"] ;
207 -> 209 ;
210 [label="avg_pickup_cluster_dropoff_cluster_haversine_speed <= 11.2656\nmse = 0.4294\nsamples = 12141\nvalue = 5.447"] ;
194 -> 210 ;
211 [label="haversine_distance <= 0.498\nmse = 0.4308\nsamples = 9173\nvalue = 5.4996"] ;
210 -> 211 ;
212 [label="dropoff_latitude <= 40.7667\nmse = 0.5006\nsamples = 4018\nvalue = 5.3836"] ;
211 -> 212 ;
213 [label="mse = 0.5241\nsamples = 3101\nvalue = 5.4274"] ;
212 -> 213 ;
214 [label="mse = 0.3926\nsamples = 917\nvalue = 5.2354"] ;
212 -> 214 ;
215 [label="avg_pickup_cluster_dropoff_cluster_haversine_speed <= 9.3373\nmse = 0.3591\nsamples = 5155\nvalue = 5.5887"] ;
211 -> 215 ;
216 [label="mse = 0.3659\nsamples = 2165\nvalue = 5.6704"] ;
215 -> 216 ;
217 [label="mse = 0.3458\nsamples = 2990\nvalue = 5.5294"] ;
215 -> 217 ;
218 [label="haversine_distance <= 0.5288\nmse = 0.3902\nsamples = 2968\nvalue = 5.2846"] ;
210 -> 218 ;
219 [label="manhattan_distance <= 0.2535\nmse = 0.4664\nsamples = 1201\nvalue = 5.1751"] ;
218 -> 219 ;
220 [label="mse = 1.4683\nsamples = 4\nvalue = 6.4886"] ;
219 -> 220 ;
221 [label="mse = 0.4508\nsamples = 1197\nvalue = 5.1676"] ;
219 -> 221 ;
222 [label="avg_pickup_weekday_hour_haversine_speed <= 11.3417\nmse = 0.3219\nsamples = 1767\nvalue = 5.3619"] ;
218 -> 222 ;
223 [label="mse = 0.3527\nsamples = 606\nvalue = 5.48"] ;
222 -> 223 ;
224 [label="mse = 0.2947\nsamples = 1161\nvalue = 5.3004"] ;
222 -> 224 ;
225 [label="passthru_latitude <= 40.658\nmse = 0.6871\nsamples = 16374\nvalue = 5.1814"] ;
161 -> 225 ;
226 [label="haversine_distance <= 0.2374\nmse = 2.8717\nsamples = 247\nvalue = 4.1966"] ;
225 -> 226 ;
227 [label="avg_dropoff_cluster_manhattan_speed <= 24.213\nmse = 2.4308\nsamples = 156\nvalue = 3.5989"] ;
226 -> 227 ;
228 [label="avg_pickup_weekday_haversine_speed <= 15.2205\nmse = 0.0458\nsamples = 2\nvalue = 8.1068"] ;
227 -> 228 ;
229 [label="mse = 0.0\nsamples = 1\nvalue = 7.8928"] ;
228 -> 229 ;
230 [label="mse = 0.0\nsamples = 1\nvalue = 8.3207"] ;
228 -> 230 ;
231 [label="avg_pickup_weekday_hour_haversine_speed <= 25.3368\nmse = 2.1287\nsamples = 154\nvalue = 3.5244"] ;
227 -> 231 ;
232 [label="haversine_distance <= 0.06\nmse = 1.9697\nsamples = 150\nvalue = 3.4757"] ;
231 -> 232 ;
233 [label="mse = 1.912\nsamples = 58\nvalue = 3.0826"] ;
232 -> 233 ;
234 [label="mse = 1.8268\nsamples = 92\nvalue = 3.75"] ;
232 -> 234 ;
235 [label="dropoff_latitude <= 40.6448\nmse = 4.6163\nsamples = 4\nvalue = 5.4413"] ;
231 -> 235 ;
236 [label="mse = 0.0\nsamples = 1\nvalue = 7.5848"] ;
235 -> 236 ;
237 [label="mse = 0.0435\nsamples = 3\nvalue = 3.2978"] ;
235 -> 237 ;
238 [label="passthru_latitude <= 40.6454\nmse = 1.9723\nsamples = 91\nvalue = 5.2176"] ;
226 -> 238 ;
239 [label="avg_dropoff_cluster_pickup_hour_haversine_speed <= 22.5245\nmse = 1.8546\nsamples = 50\nvalue = 5.687"] ;
238 -> 239 ;
240 [label="pickup_longitude <= -73.79\nmse = 2.2779\nsamples = 15\nvalue = 6.4533"] ;
239 -> 240 ;
241 [label="mse = 0.4189\nsamples = 8\nvalue = 5.4378"] ;
240 -> 241 ;
242 [label="mse = 1.7017\nsamples = 7\nvalue = 7.7226"] ;
240 -> 242 ;
243 [label="avg_pickup_cluster_haversine_speed <= 27.7855\nmse = 1.1874\nsamples = 35\nvalue = 5.2966"] ;
239 -> 243 ;
244 [label="mse = 0.9047\nsamples = 23\nvalue = 4.8262"] ;
243 -> 244 ;
245 [label="mse = 0.4703\nsamples = 12\nvalue = 6.2112"] ;
243 -> 245 ;
246 [label="haversine_distance <= 0.4178\nmse = 1.4998\nsamples = 41\nvalue = 4.6309"] ;
238 -> 246 ;
247 [label="passenger_count <= 4.0\nmse = 1.0108\nsamples = 24\nvalue = 4.1214"] ;
246 -> 247 ;
248 [label="mse = 0.2373\nsamples = 23\nvalue = 3.9763"] ;
247 -> 248 ;
249 [label="mse = 0.0\nsamples = 1\nvalue = 9.4926"] ;
247 -> 249 ;
250 [label="passthru_longitude <= -73.7901\nmse = 1.2808\nsamples = 17\nvalue = 5.3755"] ;
246 -> 250 ;
251 [label="mse = 0.3417\nsamples = 5\nvalue = 4.1286"] ;
250 -> 251 ;
252 [label="mse = 0.8429\nsamples = 12\nvalue = 5.8349"] ;
250 -> 252 ;
253 [label="haversine_distance <= 0.4571\nmse = 0.6388\nsamples = 16127\nvalue = 5.1964"] ;
225 -> 253 ;
254 [label="avg_pickup_weekday_hour_manhattan_speed <= 21.4118\nmse = 1.0992\nsamples = 6340\nvalue = 5.0748"] ;
253 -> 254 ;
255 [label="haversine_distance <= 0.0444\nmse = 1.1271\nsamples = 4056\nvalue = 5.1472"] ;
254 -> 255 ;
256 [label="manhattan_distance <= 0.0304\nmse = 3.9372\nsamples = 262\nvalue = 4.7444"] ;
255 -> 256 ;
257 [label="mse = 4.4817\nsamples = 74\nvalue = 5.3904"] ;
256 -> 257 ;
258 [label="mse = 3.473\nsamples = 188\nvalue = 4.4797"] ;
256 -> 258 ;
259 [label="avg_pickup_cluster_dropoff_cluster_manhattan_speed <= 13.9339\nmse = 0.9287\nsamples = 3794\nvalue = 5.174"] ;
255 -> 259 ;
260 [label="mse = 0.9325\nsamples = 2476\nvalue = 5.2449"] ;
259 -> 260 ;
261 [label="mse = 0.8954\nsamples = 1318\nvalue = 5.0436"] ;
259 -> 261 ;
262 [label="haversine_distance <= 0.2869\nmse = 1.0225\nsamples = 2284\nvalue = 4.9442"] ;
254 -> 262 ;
263 [label="pickup_longitude <= -74.0063\nmse = 1.6556\nsamples = 975\nvalue = 4.8087"] ;
262 -> 263 ;
264 [label="mse = 1.412\nsamples = 49\nvalue = 4.1095"] ;
263 -> 264 ;
265 [label="mse = 1.6419\nsamples = 926\nvalue = 4.8442"] ;
263 -> 265 ;
266 [label="avg_dropoff_cluster_manhattan_speed <= 15.7269\nmse = 0.5342\nsamples = 1309\nvalue = 5.0438"] ;
262 -> 266 ;
267 [label="mse = 0.5213\nsamples = 327\nvalue = 5.2167"] ;
266 -> 267 ;
268 [label="mse = 0.5253\nsamples = 982\nvalue = 4.9867"] ;
266 -> 268 ;
269 [label="avg_pickup_cluster_dropoff_cluster_manhattan_speed <= 13.3632\nmse = 0.3219\nsamples = 9787\nvalue = 5.2758"] ;
253 -> 269 ;
270 [label="avg_pickup_weekday_hour_haversine_speed <= 17.5526\nmse = 0.3025\nsamples = 4381\nvalue = 5.3957"] ;
269 -> 270 ;
271 [label="passthru_longitude <= -74.0059\nmse = 0.3099\nsamples = 3161\nvalue = 5.4619"] ;
270 -> 271 ;
272 [label="mse = 0.2996\nsamples = 422\nvalue = 5.6696"] ;
271 -> 272 ;
273 [label="mse = 0.3039\nsamples = 2739\nvalue = 5.4299"] ;
271 -> 273 ;
274 [label="avg_dropoff_cluster_pickup_hour_manhattan_speed <= 19.908\nmse = 0.2412\nsamples = 1220\nvalue = 5.2215"] ;
270 -> 274 ;
275 [label="mse = 0.2066\nsamples = 458\nvalue = 5.354"] ;
274 -> 275 ;
276 [label="mse = 0.2452\nsamples = 762\nvalue = 5.1454"] ;
274 -> 276 ;
277 [label="avg_pickup_weekday_hour_manhattan_speed <= 22.5512\nmse = 0.3166\nsamples = 5406\nvalue = 5.1795"] ;
269 -> 277 ;
278 [label="avg_pickup_cluster_dropoff_cluster_manhattan_speed <= 16.3681\nmse = 0.3161\nsamples = 4277\nvalue = 5.2274"] ;
277 -> 278 ;
279 [label="mse = 0.3167\nsamples = 2109\nvalue = 5.3041"] ;
278 -> 279 ;
280 [label="mse = 0.3043\nsamples = 2168\nvalue = 5.1534"] ;
278 -> 280 ;
281 [label="avg_pickup_cluster_dropoff_cluster_haversine_speed <= 13.3742\nmse = 0.2765\nsamples = 1129\nvalue = 4.9969"] ;
277 -> 281 ;
282 [label="mse = 0.2735\nsamples = 755\nvalue = 5.0681"] ;
281 -> 282 ;
283 [label="mse = 0.2507\nsamples = 374\nvalue = 4.8499"] ;
281 -> 283 ;
284 [label="avg_pickup_cluster_dropoff_cluster_haversine_speed <= 11.0624\nmse = 0.3088\nsamples = 73681\nvalue = 5.7379"] ;
160 -> 284 ;
285 [label="avg_pickup_weekday_hour_manhattan_speed <= 18.907\nmse = 0.2781\nsamples = 42366\nvalue = 5.8894"] ;
284 -> 285 ;
286 [label="avg_pickup_cluster_dropoff_cluster_haversine_speed <= 9.262\nmse = 0.2715\nsamples = 27530\nvalue = 6.0014"] ;
285 -> 286 ;
287 [label="avg_dropoff_cluster_pickup_hour_haversine_speed <= 10.4804\nmse = 0.2762\nsamples = 11329\nvalue = 6.1423"] ;
286 -> 287 ;
288 [label="haversine_distance <= 0.8182\nmse = 0.2901\nsamples = 5856\nvalue = 6.2483"] ;
287 -> 288 ;
289 [label="avg_pickup_cluster_dropoff_cluster_haversine_speed <= 8.1261\nmse = 0.3226\nsamples = 2413\nvalue = 6.1228"] ;
288 -> 289 ;
290 [label="mse = 0.3284\nsamples = 1365\nvalue = 6.2023"] ;
289 -> 290 ;
291 [label="mse = 0.2944\nsamples = 1048\nvalue = 6.0147"] ;
289 -> 291 ;
292 [label="avg_pickup_weekday_hour_manhattan_speed <= 17.0964\nmse = 0.247\nsamples = 3443\nvalue = 6.3389"] ;
288 -> 292 ;
293 [label="mse = 0.2238\nsamples = 2935\nvalue = 6.3728"] ;
292 -> 293 ;
294 [label="mse = 0.3363\nsamples = 508\nvalue = 6.1399"] ;
292 -> 294 ;
295 [label="haversine_distance <= 0.7916\nmse = 0.2366\nsamples = 5473\nvalue = 6.0292"] ;
287 -> 295 ;
296 [label="passthru_longitude <= -73.956\nmse = 0.2311\nsamples = 2007\nvalue = 5.8909"] ;
295 -> 296 ;
297 [label="mse = 0.2276\nsamples = 1963\nvalue = 5.9011"] ;
296 -> 297 ;
298 [label="mse = 0.1881\nsamples = 44\nvalue = 5.4557"] ;
296 -> 298 ;
299 [label="avg_pickup_weekday_hour_manhattan_speed <= 14.6914\nmse = 0.2225\nsamples = 3466\nvalue = 6.1088"] ;
295 -> 299 ;
300 [label="mse = 0.1784\nsamples = 779\nvalue = 6.2279"] ;
299 -> 300 ;
301 [label="mse = 0.2299\nsamples = 2687\nvalue = 6.0748"] ;
299 -> 301 ;
302 [label="haversine_distance <= 0.8485\nmse = 0.2445\nsamples = 16201\nvalue = 5.9025"] ;
286 -> 302 ;
303 [label="avg_dropoff_cluster_pickup_hour_haversine_speed <= 11.1454\nmse = 0.257\nsamples = 7832\nvalue = 5.7967"] ;
302 -> 303 ;
304 [label="avg_pickup_weekday_hour_manhattan_speed <= 14.8479\nmse = 0.3062\nsamples = 2905\nvalue = 5.8952"] ;
303 -> 304 ;
305 [label="mse = 0.3077\nsamples = 1411\nvalue = 5.9755"] ;
304 -> 305 ;
306 [label="mse = 0.2931\nsamples = 1494\nvalue = 5.82"] ;
304 -> 306 ;
307 [label="avg_pickup_weekday_hour_haversine_speed <= 11.5483\nmse = 0.2182\nsamples = 4927\nvalue = 5.7376"] ;
303 -> 307 ;
308 [label="mse = 0.2008\nsamples = 1685\nvalue = 5.8185"] ;
307 -> 308 ;
309 [label="mse = 0.222\nsamples = 3242\nvalue = 5.6952"] ;
307 -> 309 ;
310 [label="avg_pickup_weekday_hour_haversine_speed <= 11.7801\nmse = 0.2133\nsamples = 8369\nvalue = 5.9995"] ;
302 -> 310 ;
311 [label="avg_dropoff_cluster_pickup_hour_haversine_speed <= 10.9721\nmse = 0.2079\nsamples = 3988\nvalue = 6.0701"] ;
310 -> 311 ;
312 [label="mse = 0.2063\nsamples = 1736\nvalue = 6.1421"] ;
311 -> 312 ;
313 [label="mse = 0.2022\nsamples = 2252\nvalue = 6.0151"] ;
311 -> 313 ;
314 [label="passthru_latitude <= 40.7672\nmse = 0.2093\nsamples = 4381\nvalue = 5.9336"] ;
310 -> 314 ;
315 [label="mse = 0.2193\nsamples = 3731\nvalue = 5.9591"] ;
314 -> 315 ;
316 [label="mse = 0.1292\nsamples = 650\nvalue = 5.7906"] ;
314 -> 316 ;
317 [label="avg_pickup_weekday_hour_haversine_speed <= 17.8406\nmse = 0.2245\nsamples = 14836\nvalue = 5.6827"] ;
285 -> 317 ;
318 [label="haversine_distance <= 0.8141\nmse = 0.217\nsamples = 10411\nvalue = 5.7515"] ;
317 -> 318 ;
319 [label="passthru_latitude <= 40.7655\nmse = 0.2424\nsamples = 4047\nvalue = 5.6297"] ;
318 -> 319 ;
320 [label="avg_pickup_cluster_dropoff_cluster_haversine_speed <= 9.7431\nmse = 0.25\nsamples = 3475\nvalue = 5.6621"] ;
319 -> 320 ;
321 [label="mse = 0.2614\nsamples = 2199\nvalue = 5.7109"] ;
320 -> 321 ;
322 [label="mse = 0.219\nsamples = 1276\nvalue = 5.5776"] ;
320 -> 322 ;
323 [label="avg_pickup_cluster_dropoff_cluster_haversine_speed <= 10.0262\nmse = 0.1465\nsamples = 572\nvalue = 5.4265"] ;
319 -> 323 ;
324 [label="mse = 0.1508\nsamples = 288\nvalue = 5.5101"] ;
323 -> 324 ;
325 [label="mse = 0.1264\nsamples = 284\nvalue = 5.3371"] ;
323 -> 325 ;
326 [label="avg_pickup_cluster_dropoff_cluster_haversine_speed <= 9.4141\nmse = 0.185\nsamples = 6364\nvalue = 5.8298"] ;
318 -> 326 ;
327 [label="manhattan_distance <= 0.8407\nmse = 0.1842\nsamples = 2884\nvalue = 5.9266"] ;
326 -> 327 ;
328 [label="mse = 5.1311\nsamples = 7\nvalue = 7.2475"] ;
327 -> 328 ;
329 [label="mse = 0.1648\nsamples = 2877\nvalue = 5.9228"] ;
327 -> 329 ;
330 [label="haversine_distance <= 0.9232\nmse = 0.1716\nsamples = 3480\nvalue = 5.7505"] ;
326 -> 330 ;
331 [label="mse = 0.1822\nsamples = 1729\nvalue = 5.6927"] ;
330 -> 331 ;
332 [label="mse = 0.1549\nsamples = 1751\nvalue = 5.8067"] ;
330 -> 332 ;
333 [label="haversine_distance <= 0.8467\nmse = 0.2052\nsamples = 4425\nvalue = 5.5224"] ;
317 -> 333 ;
334 [label="avg_dropoff_cluster_pickup_hour_manhattan_speed <= 24.9471\nmse = 0.2238\nsamples = 2176\nvalue = 5.4321"] ;
333 -> 334 ;
335 [label="avg_dropoff_cluster_pickup_hour_manhattan_speed <= 24.8384\nmse = 0.2291\nsamples = 1789\nvalue = 5.4714"] ;
334 -> 335 ;
336 [label="mse = 0.2053\nsamples = 1784\nvalue = 5.4674"] ;
335 -> 336 ;
337 [label="mse = 6.095\nsamples = 5\nvalue = 6.7421"] ;
335 -> 337 ;
338 [label="pickup_cluster <= 10.0\nmse = 0.1614\nsamples = 387\nvalue = 5.2543"] ;
334 -> 338 ;
339 [label="mse = 0.1174\nsamples = 32\nvalue = 5.5025"] ;
338 -> 339 ;
340 [label="mse = 0.159\nsamples = 355\nvalue = 5.229"] ;
338 -> 340 ;
341 [label="avg_pickup_cluster_dropoff_cluster_manhattan_speed <= 15.1736\nmse = 0.1717\nsamples = 2249\nvalue = 5.6096"] ;
333 -> 341 ;
342 [label="avg_dropoff_cluster_pickup_hour_haversine_speed <= 15.5476\nmse = 0.1489\nsamples = 2246\nvalue = 5.6053"] ;
341 -> 342 ;
343 [label="mse = 0.1596\nsamples = 1106\nvalue = 5.6856"] ;
342 -> 343 ;
344 [label="mse = 0.1259\nsamples = 1140\nvalue = 5.5266"] ;
342 -> 344 ;
345 [label="haversine_distance <= 0.9182\nmse = 6.8343\nsamples = 3\nvalue = 8.7272"] ;
341 -> 345 ;
346 [label="mse = -0.0\nsamples = 1\nvalue = 10.8618"] ;
345 -> 346 ;
347 [label="mse = 0.0\nsamples = 2\nvalue = 5.5254"] ;
345 -> 347 ;
348 [label="avg_pickup_weekday_hour_manhattan_speed <= 17.3532\nmse = 0.2776\nsamples = 31315\nvalue = 5.5338"] ;
284 -> 348 ;
349 [label="avg_pickup_cluster_dropoff_cluster_haversine_speed <= 13.6605\nmse = 0.2772\nsamples = 16403\nvalue = 5.6457"] ;
348 -> 349 ;
350 [label="haversine_distance <= 0.8826\nmse = 0.2567\nsamples = 9600\nvalue = 5.7531"] ;
349 -> 350 ;
351 [label="avg_dropoff_cluster_pickup_hour_manhattan_speed <= 14.7751\nmse = 0.2623\nsamples = 5622\nvalue = 5.6703"] ;
350 -> 351 ;
352 [label="haversine_distance <= 0.7835\nmse = 0.3018\nsamples = 1648\nvalue = 5.7979"] ;
351 -> 352 ;
353 [label="mse = 0.2418\nsamples = 827\nvalue = 5.7204"] ;
352 -> 353 ;
354 [label="mse = 0.3492\nsamples = 821\nvalue = 5.8741"] ;
352 -> 354 ;
355 [label="avg_pickup_weekday_hour_manhattan_speed <= 14.9145\nmse = 0.2354\nsamples = 3974\nvalue = 5.6156"] ;
351 -> 355 ;
356 [label="mse = 0.2502\nsamples = 1819\nvalue = 5.6717"] ;
355 -> 356 ;
357 [label="mse = 0.2182\nsamples = 2155\nvalue = 5.5687"] ;
355 -> 357 ;
358 [label="avg_dropoff_cluster_pickup_hour_manhattan_speed <= 15.3273\nmse = 0.2256\nsamples = 3978\nvalue = 5.8694"] ;
350 -> 358 ;
359 [label="avg_pickup_weekday_hour_haversine_speed <= 11.6312\nmse = 0.2422\nsamples = 1822\nvalue = 5.9568"] ;
358 -> 359 ;
360 [label="mse = 0.2741\nsamples = 1100\nvalue = 6.0325"] ;
359 -> 360 ;
361 [label="mse = 0.1706\nsamples = 722\nvalue = 5.84"] ;
359 -> 361 ;
362 [label="dropoff_latitude <= 40.8563\nmse = 0.2002\nsamples = 2156\nvalue = 5.797"] ;
358 -> 362 ;
363 [label="mse = 0.1823\nsamples = 2151\nvalue = 5.7935"] ;
362 -> 363 ;
364 [label="mse = 6.1031\nsamples = 5\nvalue = 7.505"] ;
362 -> 364 ;
365 [label="haversine_distance <= 0.8362\nmse = 0.2669\nsamples = 6803\nvalue = 5.4944"] ;
349 -> 365 ;
366 [label="avg_dropoff_cluster_pickup_hour_haversine_speed <= 12.0555\nmse = 0.2496\nsamples = 2712\nvalue = 5.3839"] ;
365 -> 366 ;
367 [label="dropoff_latitude <= 40.7445\nmse = 0.2758\nsamples = 759\nvalue = 5.5165"] ;
366 -> 367 ;
368 [label="mse = 0.246\nsamples = 139\nvalue = 5.328"] ;
367 -> 368 ;
369 [label="mse = 0.2726\nsamples = 620\nvalue = 5.5604"] ;
367 -> 369 ;
370 [label="manhattan_distance <= 0.885\nmse = 0.2302\nsamples = 1953\nvalue = 5.3329"] ;
366 -> 370 ;
371 [label="mse = 0.2337\nsamples = 369\nvalue = 5.4993"] ;
370 -> 371 ;
372 [label="mse = 0.2213\nsamples = 1584\nvalue = 5.2937"] ;
370 -> 372 ;
373 [label="avg_pickup_cluster_dropoff_cluster_haversine_speed <= 15.9858\nmse = 0.2648\nsamples = 4091\nvalue = 5.5681"] ;
365 -> 373 ;
374 [label="manhattan_distance <= 1.1009\nmse = 0.2443\nsamples = 2673\nvalue = 5.6391"] ;
373 -> 374 ;
375 [label="mse = 0.2689\nsamples = 541\nvalue = 5.7684"] ;
374 -> 375 ;
376 [label="mse = 0.2329\nsamples = 2132\nvalue = 5.6065"] ;
374 -> 376 ;
377 [label="avg_pickup_cluster_pickup_hour_haversine_speed <= 13.2782\nmse = 0.2759\nsamples = 1418\nvalue = 5.4349"] ;
373 -> 377 ;
378 [label="mse = 0.3108\nsamples = 907\nvalue = 5.4986"] ;
377 -> 378 ;
379 [label="mse = 0.1941\nsamples = 511\nvalue = 5.3222"] ;
377 -> 379 ;
380 [label="avg_pickup_cluster_dropoff_cluster_haversine_speed <= 14.3814\nmse = 0.2495\nsamples = 14912\nvalue = 5.4116"] ;
348 -> 380 ;
381 [label="avg_pickup_weekday_hour_manhattan_speed <= 22.5146\nmse = 0.2294\nsamples = 10398\nvalue = 5.4754"] ;
380 -> 381 ;
382 [label="haversine_distance <= 0.8703\nmse = 0.2201\nsamples = 7497\nvalue = 5.5302"] ;
381 -> 382 ;
383 [label="haversine_distance <= 0.7452\nmse = 0.2232\nsamples = 4069\nvalue = 5.4559"] ;
382 -> 383 ;
384 [label="mse = 0.2433\nsamples = 1582\nvalue = 5.3828"] ;
383 -> 384 ;
385 [label="mse = 0.2046\nsamples = 2487\nvalue = 5.503"] ;
383 -> 385 ;
386 [label="avg_pickup_cluster_dropoff_cluster_haversine_speed <= 11.6894\nmse = 0.202\nsamples = 3428\nvalue = 5.619"] ;
382 -> 386 ;
387 [label="mse = 0.2513\nsamples = 935\nvalue = 5.7225"] ;
386 -> 387 ;
388 [label="mse = 0.1776\nsamples = 2493\nvalue = 5.5795"] ;
386 -> 388 ;
389 [label="haversine_distance <= 0.7779\nmse = 0.2261\nsamples = 2901\nvalue = 5.3363"] ;
381 -> 389 ;
390 [label="manhattan_distance <= 0.7982\nmse = 0.2191\nsamples = 846\nvalue = 5.1972"] ;
389 -> 390 ;
391 [label="mse = 0.1911\nsamples = 112\nvalue = 5.3797"] ;
390 -> 391 ;
392 [label="mse = 0.2174\nsamples = 734\nvalue = 5.1672"] ;
390 -> 392 ;
393 [label="avg_pickup_cluster_pickup_hour_manhattan_speed <= 25.6721\nmse = 0.2181\nsamples = 2055\nvalue = 5.3918"] ;
389 -> 393 ;
394 [label="mse = 0.2007\nsamples = 1507\nvalue = 5.4395"] ;
393 -> 394 ;
395 [label="mse = 0.2424\nsamples = 548\nvalue = 5.2634"] ;
393 -> 395 ;
396 [label="haversine_distance <= 0.8082\nmse = 0.2649\nsamples = 4514\nvalue = 5.2668"] ;
380 -> 396 ;
397 [label="avg_dropoff_cluster_pickup_hour_manhattan_speed <= 44.9493\nmse = 0.3155\nsamples = 1537\nvalue = 5.155"] ;
396 -> 397 ;
398 [label="manhattan_distance <= 0.8912\nmse = 0.3056\nsamples = 1536\nvalue = 5.1503"] ;
397 -> 398 ;
399 [label="mse = 0.3216\nsamples = 310\nvalue = 5.341"] ;
398 -> 399 ;
400 [label="mse = 0.29\nsamples = 1226\nvalue = 5.1018"] ;
398 -> 400 ;
401 [label="mse = -0.0\nsamples = 1\nvalue = 7.4128"] ;
397 -> 401 ;
402 [label="avg_pickup_cluster_dropoff_cluster_manhattan_speed <= 21.105\nmse = 0.2298\nsamples = 2977\nvalue = 5.3232"] ;
396 -> 402 ;
403 [label="avg_dropoff_cluster_pickup_hour_haversine_speed <= 10.8832\nmse = 0.2523\nsamples = 1781\nvalue = 5.3896"] ;
402 -> 403 ;
404 [label="mse = 0.9498\nsamples = 65\nvalue = 5.7531"] ;
403 -> 404 ;
405 [label="mse = 0.2189\nsamples = 1716\nvalue = 5.3751"] ;
403 -> 405 ;
406 [label="avg_pickup_weekday_hour_manhattan_speed <= 20.1387\nmse = 0.1786\nsamples = 1196\nvalue = 5.2218"] ;
402 -> 406 ;
407 [label="mse = 0.188\nsamples = 644\nvalue = 5.2885"] ;
406 -> 407 ;
408 [label="mse = 0.1564\nsamples = 552\nvalue = 5.1444"] ;
406 -> 408 ;
409 [label="avg_pickup_cluster_dropoff_cluster_haversine_speed <= 12.8924\nmse = 0.2626\nsamples = 221942\nvalue = 6.2173"] ;
1 -> 409 ;
410 [label="avg_pickup_weekday_hour_manhattan_speed <= 18.907\nmse = 0.2255\nsamples = 149837\nvalue = 6.3349"] ;
409 -> 410 ;
411 [label="haversine_distance <= 1.4612\nmse = 0.2095\nsamples = 94225\nvalue = 6.4571"] ;
410 -> 411 ;
412 [label="avg_pickup_cluster_dropoff_cluster_haversine_speed <= 9.5954\nmse = 0.206\nsamples = 43832\nvalue = 6.2885"] ;
411 -> 412 ;
413 [label="avg_dropoff_cluster_pickup_hour_haversine_speed <= 10.4804\nmse = 0.1954\nsamples = 14943\nvalue = 6.4583"] ;
412 -> 413 ;
414 [label="avg_pickup_weekday_hour_haversine_speed <= 11.6544\nmse = 0.2126\nsamples = 7037\nvalue = 6.5651"] ;
413 -> 414 ;
415 [label="haversine_distance <= 1.1281\nmse = 0.2007\nsamples = 3707\nvalue = 6.6537"] ;
414 -> 415 ;
416 [label="avg_pickup_cluster_dropoff_cluster_haversine_speed <= 7.6484\nmse = 0.1725\nsamples = 1007\nvalue = 6.5413"] ;
415 -> 416 ;
417 [label="mse = 0.1271\nsamples = 174\nvalue = 6.6795"] ;
416 -> 417 ;
418 [label="mse = 0.1772\nsamples = 833\nvalue = 6.512"] ;
416 -> 418 ;
419 [label="avg_pickup_cluster_dropoff_cluster_haversine_speed <= 8.1482\nmse = 0.2047\nsamples = 2700\nvalue = 6.6954"] ;
415 -> 419 ;
420 [label="mse = 0.196\nsamples = 892\nvalue = 6.7696"] ;
419 -> 420 ;
421 [label="mse = 0.205\nsamples = 1808\nvalue = 6.6583"] ;
419 -> 421 ;
422 [label="avg_pickup_weekday_hour_haversine_speed <= 12.9522\nmse = 0.2075\nsamples = 3330\nvalue = 6.4674"] ;
414 -> 422 ;
423 [label="haversine_distance <= 1.2693\nmse = 0.1871\nsamples = 1921\nvalue = 6.5229"] ;
422 -> 423 ;
424 [label="mse = 0.215\nsamples = 1197\nvalue = 6.4721"] ;
423 -> 424 ;
425 [label="mse = 0.1304\nsamples = 724\nvalue = 6.6058"] ;
423 -> 425 ;
426 [label="dropoff_longitude <= -73.9842\nmse = 0.2254\nsamples = 1409\nvalue = 6.3927"] ;
422 -> 426 ;
427 [label="mse = 0.2085\nsamples = 910\nvalue = 6.4478"] ;
426 -> 427 ;
428 [label="mse = 0.2407\nsamples = 499\nvalue = 6.2873"] ;
426 -> 428 ;
429 [label="haversine_distance <= 1.2546\nmse = 0.1615\nsamples = 7906\nvalue = 6.3645"] ;
413 -> 429 ;
430 [label="avg_pickup_weekday_hour_manhattan_speed <= 15.0322\nmse = 0.1715\nsamples = 4559\nvalue = 6.2932"] ;
429 -> 430 ;
431 [label="passthru_latitude <= 40.7432\nmse = 0.1461\nsamples = 1611\nvalue = 6.3918"] ;
430 -> 431 ;
432 [label="mse = 0.1227\nsamples = 576\nvalue = 6.2753"] ;
431 -> 432 ;
433 [label="mse = 0.1474\nsamples = 1035\nvalue = 6.4561"] ;
431 -> 433 ;
434 [label="haversine_distance <= 1.1486\nmse = 0.1771\nsamples = 2948\nvalue = 6.2404"] ;
430 -> 434 ;
435 [label="mse = 0.1665\nsamples = 1623\nvalue = 6.1901"] ;
434 -> 435 ;
436 [label="mse = 0.1831\nsamples = 1325\nvalue = 6.3012"] ;
434 -> 436 ;
437 [label="avg_pickup_weekday_hour_haversine_speed <= 11.6312\nmse = 0.1317\nsamples = 3347\nvalue = 6.4614"] ;
429 -> 437 ;
438 [label="dropoff_latitude <= 40.7439\nmse = 0.1108\nsamples = 1133\nvalue = 6.5787"] ;
437 -> 438 ;
439 [label="mse = 0.091\nsamples = 375\nvalue = 6.44"] ;
438 -> 439 ;
440 [label="mse = 0.1068\nsamples = 758\nvalue = 6.6437"] ;
438 -> 440 ;
441 [label="avg_dropoff_cluster_pickup_hour_manhattan_speed <= 16.1056\nmse = 0.1318\nsamples = 2214\nvalue = 6.4026"] ;
437 -> 441 ;
442 [label="mse = 0.1204\nsamples = 1537\nvalue = 6.4427"] ;
441 -> 442 ;
443 [label="mse = 0.1458\nsamples = 677\nvalue = 6.3109"] ;
441 -> 443 ;
444 [label="haversine_distance <= 1.2165\nmse = 0.1889\nsamples = 28889\nvalue = 6.201"] ;
412 -> 444 ;
445 [label="avg_dropoff_cluster_pickup_hour_haversine_speed <= 11.5736\nmse = 0.1902\nsamples = 13078\nvalue = 6.108"] ;
444 -> 445 ;
446 [label="avg_pickup_weekday_hour_manhattan_speed <= 15.2049\nmse = 0.1988\nsamples = 6106\nvalue = 6.1932"] ;
445 -> 446 ;
447 [label="avg_pickup_cluster_dropoff_cluster_haversine_speed <= 10.8606\nmse = 0.1935\nsamples = 3411\nvalue = 6.2651"] ;
446 -> 447 ;
448 [label="mse = 0.1907\nsamples = 2036\nvalue = 6.3192"] ;
447 -> 448 ;
449 [label="mse = 0.187\nsamples = 1375\nvalue = 6.1853"] ;
447 -> 449 ;
450 [label="avg_pickup_cluster_dropoff_cluster_haversine_speed <= 10.8606\nmse = 0.1904\nsamples = 2695\nvalue = 6.1002"] ;
446 -> 450 ;
451 [label="mse = 0.1949\nsamples = 1617\nvalue = 6.1696"] ;
450 -> 451 ;
452 [label="mse = 0.1663\nsamples = 1078\nvalue = 5.9985"] ;
450 -> 452 ;
453 [label="avg_pickup_cluster_dropoff_cluster_haversine_speed <= 10.7444\nmse = 0.1709\nsamples = 6972\nvalue = 6.0339"] ;
445 -> 453 ;
454 [label="haversine_distance <= 1.1286\nmse = 0.1597\nsamples = 3065\nvalue = 6.1131"] ;
453 -> 454 ;
455 [label="mse = 0.1703\nsamples = 1684\nvalue = 6.0697"] ;
454 -> 455 ;
456 [label="mse = 0.1422\nsamples = 1381\nvalue = 6.1649"] ;
454 -> 456 ;
457 [label="avg_pickup_weekday_hour_haversine_speed <= 12.6994\nmse = 0.1709\nsamples = 3907\nvalue = 5.973"] ;
453 -> 457 ;
458 [label="mse = 0.1686\nsamples = 2297\nvalue = 6.0179"] ;
457 -> 458 ;
459 [label="mse = 0.1671\nsamples = 1610\nvalue = 5.9077"] ;
457 -> 459 ;
460 [label="avg_pickup_weekday_hour_manhattan_speed <= 16.3812\nmse = 0.1749\nsamples = 15811\nvalue = 6.2778"] ;
444 -> 460 ;
461 [label="avg_dropoff_cluster_pickup_hour_haversine_speed <= 11.6856\nmse = 0.1756\nsamples = 9739\nvalue = 6.3399"] ;
460 -> 461 ;
462 [label="avg_pickup_cluster_dropoff_cluster_haversine_speed <= 11.1871\nmse = 0.1621\nsamples = 5587\nvalue = 6.4076"] ;
461 -> 462 ;
463 [label="mse = 0.1486\nsamples = 3768\nvalue = 6.4599"] ;
462 -> 463 ;
464 [label="mse = 0.1727\nsamples = 1819\nvalue = 6.2979"] ;
462 -> 464 ;
465 [label="avg_pickup_cluster_dropoff_cluster_haversine_speed <= 11.6356\nmse = 0.1794\nsamples = 4152\nvalue = 6.2494"] ;
461 -> 465 ;
466 [label="mse = 0.1881\nsamples = 2949\nvalue = 6.2899"] ;
465 -> 466 ;
467 [label="mse = 0.1431\nsamples = 1203\nvalue = 6.1481"] ;
465 -> 467 ;
468 [label="avg_pickup_cluster_dropoff_cluster_haversine_speed <= 11.3922\nmse = 0.1577\nsamples = 6072\nvalue = 6.1786"] ;
460 -> 468 ;
469 [label="passthru_longitude <= -73.9832\nmse = 0.1546\nsamples = 4244\nvalue = 6.23"] ;
468 -> 469 ;
470 [label="mse = 0.1598\nsamples = 2715\nvalue = 6.2771"] ;
469 -> 470 ;
471 [label="mse = 0.1351\nsamples = 1529\nvalue = 6.148"] ;
469 -> 471 ;
472 [label="avg_pickup_cluster_pickup_hour_haversine_speed <= 15.9963\nmse = 0.1444\nsamples = 1828\nvalue = 6.0595"] ;
468 -> 472 ;
473 [label="mse = 0.1454\nsamples = 1723\nvalue = 6.0735"] ;
472 -> 473 ;
474 [label="mse = 0.0679\nsamples = 105\nvalue = 5.8209"] ;
472 -> 474 ;
475 [label="avg_pickup_cluster_dropoff_cluster_haversine_speed <= 10.4122\nmse = 0.1664\nsamples = 50393\nvalue = 6.6035"] ;
411 -> 475 ;
476 [label="avg_pickup_weekday_hour_manhattan_speed <= 16.4713\nmse = 0.1535\nsamples = 21386\nvalue = 6.7121"] ;
475 -> 476 ;
477 [label="haversine_distance <= 1.7648\nmse = 0.1535\nsamples = 13015\nvalue = 6.7918"] ;
476 -> 477 ;
478 [label="avg_pickup_cluster_dropoff_cluster_haversine_speed <= 9.1767\nmse = 0.1532\nsamples = 7030\nvalue = 6.7109"] ;
477 -> 478 ;
479 [label="avg_pickup_weekday_hour_manhattan_speed <= 14.8351\nmse = 0.148\nsamples = 2509\nvalue = 6.8212"] ;
478 -> 479 ;
480 [label="mse = 0.1388\nsamples = 1356\nvalue = 6.8813"] ;
479 -> 480 ;
481 [label="mse = 0.1496\nsamples = 1153\nvalue = 6.749"] ;
479 -> 481 ;
482 [label="avg_dropoff_cluster_pickup_hour_haversine_speed <= 11.5136\nmse = 0.1456\nsamples = 4521\nvalue = 6.6504"] ;
478 -> 482 ;
483 [label="mse = 0.1345\nsamples = 2966\nvalue = 6.6959"] ;
482 -> 483 ;
484 [label="mse = 0.1555\nsamples = 1555\nvalue = 6.5618"] ;
482 -> 484 ;
485 [label="passthru_latitude <= 40.7419\nmse = 0.1375\nsamples = 5985\nvalue = 6.8858"] ;
477 -> 485 ;
486 [label="haversine_distance <= 2.0339\nmse = 0.081\nsamples = 972\nvalue = 6.7207"] ;
485 -> 486 ;
487 [label="mse = 0.0821\nsamples = 726\nvalue = 6.6893"] ;
486 -> 487 ;
488 [label="mse = 0.0647\nsamples = 246\nvalue = 6.8192"] ;
486 -> 488 ;
489 [label="avg_pickup_weekday_hour_manhattan_speed <= 14.6418\nmse = 0.1421\nsamples = 5013\nvalue = 6.9173"] ;
485 -> 489 ;
490 [label="mse = 0.1533\nsamples = 2135\nvalue = 6.9955"] ;
489 -> 490 ;
491 [label="mse = 0.1261\nsamples = 2878\nvalue = 6.8597"] ;
489 -> 491 ;
492 [label="haversine_distance <= 1.78\nmse = 0.1279\nsamples = 8371\nvalue = 6.587"] ;
476 -> 492 ;
493 [label="avg_pickup_cluster_dropoff_cluster_haversine_speed <= 9.4892\nmse = 0.1147\nsamples = 4700\nvalue = 6.5095"] ;
492 -> 493 ;
494 [label="dropoff_longitude <= -73.9848\nmse = 0.1122\nsamples = 2194\nvalue = 6.5685"] ;
493 -> 494 ;
495 [label="mse = 0.0992\nsamples = 1182\nvalue = 6.6183"] ;
494 -> 495 ;
496 [label="mse = 0.1211\nsamples = 1012\nvalue = 6.5097"] ;
494 -> 496 ;
497 [label="haversine_distance <= 1.6217\nmse = 0.1112\nsamples = 2506\nvalue = 6.4575"] ;
493 -> 497 ;
498 [label="mse = 0.11\nsamples = 1255\nvalue = 6.4014"] ;
497 -> 498 ;
499 [label="mse = 0.1061\nsamples = 1251\nvalue = 6.513"] ;
497 -> 499 ;
500 [label="passthru_longitude <= -73.9767\nmse = 0.1273\nsamples = 3671\nvalue = 6.6863"] ;
492 -> 500 ;
501 [label="haversine_distance <= 2.01\nmse = 0.1286\nsamples = 2966\nvalue = 6.7117"] ;
500 -> 501 ;
502 [label="mse = 0.1325\nsamples = 1966\nvalue = 6.684"] ;
501 -> 502 ;
503 [label="mse = 0.1165\nsamples = 1000\nvalue = 6.7655"] ;
501 -> 503 ;
504 [label="pickup_hour <= 19.5\nmse = 0.1067\nsamples = 705\nvalue = 6.5766"] ;
500 -> 504 ;
505 [label="mse = 0.1009\nsamples = 563\nvalue = 6.6229"] ;
504 -> 505 ;
506 [label="mse = 0.0864\nsamples = 142\nvalue = 6.3903"] ;
504 -> 506 ;
507 [label="haversine_distance <= 1.7804\nmse = 0.1609\nsamples = 29007\nvalue = 6.5238"] ;
475 -> 507 ;
508 [label="avg_pickup_weekday_hour_manhattan_speed <= 16.4713\nmse = 0.1664\nsamples = 13484\nvalue = 6.4267"] ;
507 -> 508 ;
509 [label="avg_dropoff_cluster_pickup_hour_haversine_speed <= 11.0907\nmse = 0.1746\nsamples = 8554\nvalue = 6.4908"] ;
508 -> 509 ;
510 [label="avg_pickup_weekday_hour_manhattan_speed <= 14.667\nmse = 0.1676\nsamples = 3609\nvalue = 6.5716"] ;
509 -> 510 ;
511 [label="mse = 0.1604\nsamples = 1922\nvalue = 6.6251"] ;
510 -> 511 ;
512 [label="mse = 0.1688\nsamples = 1687\nvalue = 6.5093"] ;
510 -> 512 ;
513 [label="avg_pickup_cluster_dropoff_cluster_haversine_speed <= 11.6026\nmse = 0.1714\nsamples = 4945\nvalue = 6.4313"] ;
509 -> 513 ;
514 [label="mse = 0.156\nsamples = 2617\nvalue = 6.4784"] ;
513 -> 514 ;
515 [label="mse = 0.1836\nsamples = 2328\nvalue = 6.3776"] ;
513 -> 515 ;
516 [label="avg_pickup_cluster_dropoff_cluster_haversine_speed <= 11.4407\nmse = 0.1325\nsamples = 4930\nvalue = 6.3154"] ;
508 -> 516 ;
517 [label="passthru_longitude <= -73.979\nmse = 0.1204\nsamples = 2611\nvalue = 6.3769"] ;
516 -> 517 ;
518 [label="mse = 0.1196\nsamples = 1857\nvalue = 6.414"] ;
517 -> 518 ;
519 [label="mse = 0.1101\nsamples = 754\nvalue = 6.2824"] ;
517 -> 519 ;
520 [label="dropoff_longitude <= -73.9813\nmse = 0.1371\nsamples = 2319\nvalue = 6.2429"] ;
516 -> 520 ;
521 [label="mse = 0.1567\nsamples = 1254\nvalue = 6.2893"] ;
520 -> 521 ;
522 [label="mse = 0.1087\nsamples = 1065\nvalue = 6.1885"] ;
520 -> 522 ;
523 [label="avg_pickup_weekday_hour_haversine_speed <= 12.0088\nmse = 0.1408\nsamples = 15523\nvalue = 6.6082"] ;
507 -> 523 ;
524 [label="avg_dropoff_cluster_pickup_hour_haversine_speed <= 12.1546\nmse = 0.1399\nsamples = 7553\nvalue = 6.6988"] ;
523 -> 524 ;
525 [label="avg_pickup_cluster_dropoff_cluster_haversine_speed <= 11.1798\nmse = 0.1406\nsamples = 5050\nvalue = 6.7409"] ;
524 -> 525 ;
526 [label="mse = 0.1258\nsamples = 2101\nvalue = 6.8125"] ;
525 -> 526 ;
527 [label="mse = 0.1449\nsamples = 2949\nvalue = 6.69"] ;
525 -> 527 ;
528 [label="passthru_latitude <= 40.8198\nmse = 0.1275\nsamples = 2503\nvalue = 6.6136"] ;
524 -> 528 ;
529 [label="mse = 0.1162\nsamples = 2501\nvalue = 6.6115"] ;
528 -> 529 ;
530 [label="mse = 6.9575\nsamples = 2\nvalue = 9.4955"] ;
528 -> 530 ;
531 [label="avg_pickup_cluster_dropoff_cluster_haversine_speed <= 11.4848\nmse = 0.1262\nsamples = 7970\nvalue = 6.5211"] ;
523 -> 531 ;
532 [label="passthru_longitude <= -73.976\nmse = 0.1246\nsamples = 3807\nvalue = 6.5868"] ;
531 -> 532 ;
533 [label="mse = 0.1332\nsamples = 2713\nvalue = 6.6212"] ;
532 -> 533 ;
534 [label="mse = 0.0936\nsamples = 1094\nvalue = 6.5027"] ;
532 -> 534 ;
535 [label="avg_pickup_weekday_hour_haversine_speed <= 13.0597\nmse = 0.1201\nsamples = 4163\nvalue = 6.4616"] ;
531 -> 535 ;
536 [label="mse = 0.1226\nsamples = 1897\nvalue = 6.5244"] ;
535 -> 536 ;
537 [label="mse = 0.112\nsamples = 2266\nvalue = 6.409"] ;
535 -> 537 ;
538 [label="haversine_distance <= 1.4857\nmse = 0.1844\nsamples = 55612\nvalue = 6.1275"] ;
410 -> 538 ;
539 [label="avg_pickup_weekday_hour_manhattan_speed <= 23.3767\nmse = 0.1743\nsamples = 25909\nvalue = 5.9619"] ;
538 -> 539 ;
540 [label="avg_pickup_cluster_dropoff_cluster_haversine_speed <= 10.2672\nmse = 0.1601\nsamples = 18804\nvalue = 6.0277"] ;
539 -> 540 ;
541 [label="haversine_distance <= 1.2291\nmse = 0.1439\nsamples = 10479\nvalue = 6.1108"] ;
540 -> 541 ;
542 [label="pickup_latitude <= 40.6921\nmse = 0.1501\nsamples = 5039\nvalue = 6.0259"] ;
541 -> 542 ;
543 [label="passenger_count <= 1.5\nmse = 5.677\nsamples = 4\nvalue = 8.7898"] ;
542 -> 543 ;
544 [label="mse = 1.0546\nsamples = 2\nvalue = 10.6236"] ;
543 -> 544 ;
545 [label="mse = 0.0\nsamples = 2\nvalue = 6.0391"] ;
543 -> 545 ;
546 [label="avg_pickup_cluster_dropoff_cluster_haversine_speed <= 9.2416\nmse = 0.1418\nsamples = 5035\nvalue = 6.0242"] ;
542 -> 546 ;
547 [label="mse = 0.1335\nsamples = 2501\nvalue = 6.0832"] ;
546 -> 547 ;
548 [label="mse = 0.1432\nsamples = 2534\nvalue = 5.9651"] ;
546 -> 548 ;
549 [label="avg_pickup_weekday_hour_manhattan_speed <= 20.4217\nmse = 0.1252\nsamples = 5440\nvalue = 6.1897"] ;
541 -> 549 ;
550 [label="avg_dropoff_cluster_pickup_hour_manhattan_speed <= 19.6266\nmse = 0.1172\nsamples = 3014\nvalue = 6.2472"] ;
549 -> 550 ;
551 [label="mse = 0.1173\nsamples = 2717\nvalue = 6.2637"] ;
550 -> 551 ;
552 [label="mse = 0.0906\nsamples = 297\nvalue = 6.0949"] ;
550 -> 552 ;
553 [label="haversine_distance <= 1.2292\nmse = 0.1259\nsamples = 2426\nvalue = 6.1178"] ;
549 -> 553 ;
554 [label="mse = 0.0\nsamples = 1\nvalue = 11.366"] ;
553 -> 554 ;
555 [label="mse = 0.1187\nsamples = 2425\nvalue = 6.1164"] ;
553 -> 555 ;
556 [label="haversine_distance <= 1.2289\nmse = 0.1608\nsamples = 8325\nvalue = 5.9232"] ;
540 -> 556 ;
557 [label="avg_pickup_cluster_dropoff_cluster_haversine_speed <= 11.5941\nmse = 0.1921\nsamples = 3689\nvalue = 5.831"] ;
556 -> 557 ;
558 [label="haversine_distance <= 1.1344\nmse = 0.1962\nsamples = 2466\nvalue = 5.8813"] ;
557 -> 558 ;
559 [label="mse = 0.1555\nsamples = 1311\nvalue = 5.8287"] ;
558 -> 559 ;
560 [label="mse = 0.2366\nsamples = 1155\nvalue = 5.9425"] ;
558 -> 560 ;
561 [label="manhattan_distance <= 1.0937\nmse = 0.1691\nsamples = 1223\nvalue = 5.7318"] ;
557 -> 561 ;
562 [label="mse = 2.9211\nsamples = 13\nvalue = 6.496"] ;
561 -> 562 ;
563 [label="mse = 0.1365\nsamples = 1210\nvalue = 5.7243"] ;
561 -> 563 ;
564 [label="avg_pickup_cluster_dropoff_cluster_haversine_speed <= 11.0828\nmse = 0.1238\nsamples = 4636\nvalue = 5.9964"] ;
556 -> 564 ;
565 [label="avg_pickup_weekday_hour_manhattan_speed <= 21.4118\nmse = 0.1198\nsamples = 2290\nvalue = 6.0566"] ;
564 -> 565 ;
566 [label="mse = 0.126\nsamples = 1665\nvalue = 6.0901"] ;
565 -> 566 ;
567 [label="mse = 0.0907\nsamples = 625\nvalue = 5.9639"] ;
565 -> 567 ;
568 [label="haversine_distance <= 1.3419\nmse = 0.1208\nsamples = 2346\nvalue = 5.9379"] ;
564 -> 568 ;
569 [label="mse = 0.1319\nsamples = 987\nvalue = 5.8781"] ;
568 -> 569 ;
570 [label="mse = 0.1081\nsamples = 1359\nvalue = 5.9819"] ;
568 -> 570 ;
571 [label="haversine_distance <= 1.2365\nmse = 0.1702\nsamples = 7105\nvalue = 5.7884"] ;
539 -> 571 ;
572 [label="avg_pickup_cluster_dropoff_cluster_haversine_speed <= 10.8592\nmse = 0.1599\nsamples = 3459\nvalue = 5.6985"] ;
571 -> 572 ;
573 [label="avg_pickup_cluster_pickup_hour_haversine_speed <= 19.201\nmse = 0.1376\nsamples = 2468\nvalue = 5.7521"] ;
572 -> 573 ;
574 [label="avg_pickup_weekday_hour_manhattan_speed <= 25.4373\nmse = 0.1172\nsamples = 1631\nvalue = 5.8031"] ;
573 -> 574 ;
575 [label="mse = 0.1286\nsamples = 898\nvalue = 5.8519"] ;
574 -> 575 ;
576 [label="mse = 0.0968\nsamples = 733\nvalue = 5.7434"] ;
574 -> 576 ;
577 [label="haversine_distance <= 1.1547\nmse = 0.1626\nsamples = 837\nvalue = 5.6509"] ;
573 -> 577 ;
578 [label="mse = 0.1097\nsamples = 492\nvalue = 5.5862"] ;
577 -> 578 ;
579 [label="mse = 0.2265\nsamples = 345\nvalue = 5.7482"] ;
577 -> 579 ;
580 [label="dropoff_latitude <= 40.8147\nmse = 0.1906\nsamples = 991\nvalue = 5.5645"] ;
572 -> 580 ;
581 [label="avg_pickup_weekday_hour_manhattan_speed <= 26.0014\nmse = 0.1264\nsamples = 975\nvalue = 5.553"] ;
580 -> 581 ;
582 [label="mse = 0.1175\nsamples = 518\nvalue = 5.6162"] ;
581 -> 582 ;
583 [label="mse = 0.1267\nsamples = 457\nvalue = 5.4792"] ;
581 -> 583 ;
584 [label="dropoff_latitude <= 40.8157\nmse = 3.523\nsamples = 16\nvalue = 6.2455"] ;
580 -> 584 ;
585 [label="mse = 0.0\nsamples = 1\nvalue = 11.3645"] ;
584 -> 585 ;
586 [label="mse = 0.1187\nsamples = 15\nvalue = 5.5778"] ;
584 -> 586 ;
587 [label="avg_pickup_cluster_dropoff_cluster_haversine_speed <= 10.2778\nmse = 0.165\nsamples = 3646\nvalue = 5.8734"] ;
571 -> 587 ;
588 [label="avg_pickup_cluster_pickup_hour_manhattan_speed <= 27.4493\nmse = 0.1322\nsamples = 2047\nvalue = 5.9431"] ;
587 -> 588 ;
589 [label="avg_pickup_cluster_pickup_hour_haversine_speed <= 21.331\nmse = 0.1318\nsamples = 1776\nvalue = 5.9694"] ;
588 -> 589 ;
590 [label="mse = 0.1011\nsamples = 1761\nvalue = 5.9641"] ;
589 -> 590 ;
591 [label="mse = 3.3163\nsamples = 15\nvalue = 6.5867"] ;
589 -> 591 ;
592 [label="avg_dropoff_cluster_haversine_speed <= 11.2903\nmse = 0.1014\nsamples = 271\nvalue = 5.7739"] ;
588 -> 592 ;
593 [label="mse = 0.1105\nsamples = 59\nvalue = 5.6252"] ;
592 -> 593 ;
594 [label="mse = 0.0923\nsamples = 212\nvalue = 5.811"] ;
592 -> 594 ;
595 [label="avg_pickup_weekday_hour_manhattan_speed <= 29.1962\nmse = 0.1927\nsamples = 1599\nvalue = 5.7846"] ;
587 -> 595 ;
596 [label="avg_pickup_cluster_dropoff_cluster_haversine_speed <= 11.5166\nmse = 0.1929\nsamples = 1361\nvalue = 5.8179"] ;
595 -> 596 ;
597 [label="mse = 0.2013\nsamples = 857\nvalue = 5.8727"] ;
596 -> 597 ;
598 [label="mse = 0.1642\nsamples = 504\nvalue = 5.723"] ;
596 -> 598 ;
599 [label="avg_pickup_cluster_dropoff_cluster_manhattan_speed <= 17.5131\nmse = 0.1463\nsamples = 238\nvalue = 5.5876"] ;
595 -> 599 ;
600 [label="mse = 0.1266\nsamples = 227\nvalue = 5.6161"] ;
599 -> 600 ;
601 [label="mse = 0.2063\nsamples = 11\nvalue = 5.0319"] ;
599 -> 601 ;
602 [label="avg_pickup_weekday_hour_haversine_speed <= 17.5526\nmse = 0.1482\nsamples = 29703\nvalue = 6.2725"] ;
538 -> 602 ;
603 [label="avg_pickup_cluster_dropoff_cluster_haversine_speed <= 10.8982\nmse = 0.1379\nsamples = 19886\nvalue = 6.3527"] ;
602 -> 603 ;
604 [label="haversine_distance <= 1.6804\nmse = 0.1295\nsamples = 11487\nvalue = 6.4178"] ;
603 -> 604 ;
605 [label="avg_pickup_weekday_hour_manhattan_speed <= 20.4409\nmse = 0.1323\nsamples = 4116\nvalue = 6.3096"] ;
604 -> 605 ;
606 [label="avg_pickup_cluster_dropoff_cluster_haversine_speed <= 10.2755\nmse = 0.1098\nsamples = 2517\nvalue = 6.3546"] ;
605 -> 606 ;
607 [label="mse = 0.114\nsamples = 1848\nvalue = 6.3858"] ;
606 -> 607 ;
608 [label="mse = 0.089\nsamples = 669\nvalue = 6.2714"] ;
606 -> 608 ;
609 [label="avg_pickup_cluster_dropoff_cluster_haversine_speed <= 9.1672\nmse = 0.1591\nsamples = 1599\nvalue = 6.24"] ;
605 -> 609 ;
610 [label="mse = 0.1711\nsamples = 360\nvalue = 6.3453"] ;
609 -> 610 ;
611 [label="mse = 0.1515\nsamples = 1239\nvalue = 6.2097"] ;
609 -> 611 ;
612 [label="avg_pickup_cluster_dropoff_cluster_haversine_speed <= 9.4854\nmse = 0.1178\nsamples = 7371\nvalue = 6.4783"] ;
604 -> 612 ;
613 [label="manhattan_distance <= 1.7233\nmse = 0.1225\nsamples = 2125\nvalue = 6.5526"] ;
612 -> 613 ;
614 [label="mse = 5.0546\nsamples = 4\nvalue = 8.1848"] ;
613 -> 614 ;
615 [label="mse = 0.1086\nsamples = 2121\nvalue = 6.5496"] ;
613 -> 615 ;
616 [label="haversine_distance <= 1.9336\nmse = 0.1128\nsamples = 5246\nvalue = 6.4488"] ;
612 -> 616 ;
617 [label="mse = 0.1139\nsamples = 2888\nvalue = 6.3966"] ;
616 -> 617 ;
618 [label="mse = 0.1041\nsamples = 2358\nvalue = 6.5128"] ;
616 -> 618 ;
619 [label="haversine_distance <= 1.8564\nmse = 0.1356\nsamples = 8399\nvalue = 6.2637"] ;
603 -> 619 ;
620 [label="haversine_distance <= 1.7162\nmse = 0.1466\nsamples = 4408\nvalue = 6.1763"] ;
619 -> 620 ;
621 [label="avg_pickup_weekday_hour_haversine_speed <= 15.7273\nmse = 0.147\nsamples = 2699\nvalue = 6.1354"] ;
620 -> 621 ;
622 [label="mse = 0.1674\nsamples = 1641\nvalue = 6.1772"] ;
621 -> 622 ;
623 [label="mse = 0.1065\nsamples = 1058\nvalue = 6.068"] ;
621 -> 623 ;
624 [label="dropoff_latitude <= 40.8244\nmse = 0.1394\nsamples = 1709\nvalue = 6.2401"] ;
620 -> 624 ;
625 [label="mse = 0.1255\nsamples = 1707\nvalue = 6.2369"] ;
624 -> 625 ;
626 [label="mse = 4.4975\nsamples = 2\nvalue = 8.0082"] ;
624 -> 626 ;
627 [label="avg_pickup_cluster_dropoff_cluster_haversine_speed <= 11.83\nmse = 0.1063\nsamples = 3991\nvalue = 6.3583"] ;
619 -> 627 ;
628 [label="avg_pickup_weekday_hour_manhattan_speed <= 20.6068\nmse = 0.0761\nsamples = 1882\nvalue = 6.4117"] ;
627 -> 628 ;
629 [label="mse = 0.0783\nsamples = 1210\nvalue = 6.4444"] ;
628 -> 629 ;
630 [label="mse = 0.0659\nsamples = 672\nvalue = 6.3488"] ;
628 -> 630 ;
631 [label="haversine_distance <= 1.9514\nmse = 0.1289\nsamples = 2109\nvalue = 6.3096"] ;
627 -> 631 ;
632 [label="mse = 0.075\nsamples = 651\nvalue = 6.2405"] ;
631 -> 632 ;
633 [label="mse = 0.1502\nsamples = 1458\nvalue = 6.3409"] ;
631 -> 633 ;
634 [label="haversine_distance <= 1.8179\nmse = 0.1299\nsamples = 9817\nvalue = 6.1104"] ;
602 -> 634 ;
635 [label="avg_pickup_cluster_dropoff_cluster_haversine_speed <= 11.5964\nmse = 0.1359\nsamples = 5329\nvalue = 6.0434"] ;
634 -> 635 ;
636 [label="avg_pickup_weekday_hour_manhattan_speed <= 25.4373\nmse = 0.1325\nsamples = 4280\nvalue = 6.0854"] ;
635 -> 636 ;
637 [label="avg_pickup_cluster_dropoff_cluster_manhattan_speed <= 13.3312\nmse = 0.1314\nsamples = 2331\nvalue = 6.1502"] ;
636 -> 637 ;
638 [label="mse = 0.141\nsamples = 1422\nvalue = 6.1944"] ;
637 -> 638 ;
639 [label="mse = 0.1082\nsamples = 909\nvalue = 6.08"] ;
637 -> 639 ;
640 [label="avg_dropoff_cluster_haversine_speed <= 12.3496\nmse = 0.1226\nsamples = 1949\nvalue = 6.007"] ;
636 -> 640 ;
641 [label="mse = 0.0975\nsamples = 894\nvalue = 5.9386"] ;
640 -> 641 ;
642 [label="mse = 0.1364\nsamples = 1055\nvalue = 6.0639"] ;
640 -> 642 ;
643 [label="avg_pickup_cluster_pickup_hour_manhattan_speed <= 27.0511\nmse = 0.1119\nsamples = 1049\nvalue = 5.8687"] ;
635 -> 643 ;
644 [label="haversine_distance <= 1.6447\nmse = 0.1005\nsamples = 814\nvalue = 5.9117"] ;
643 -> 644 ;
645 [label="mse = 0.0881\nsamples = 372\nvalue = 5.8315"] ;
644 -> 645 ;
646 [label="mse = 0.1012\nsamples = 442\nvalue = 5.9762"] ;
644 -> 646 ;
647 [label="avg_dropoff_cluster_haversine_speed <= 13.5942\nmse = 0.1228\nsamples = 235\nvalue = 5.7228"] ;
643 -> 647 ;
648 [label="mse = 0.0967\nsamples = 152\nvalue = 5.6005"] ;
647 -> 648 ;
649 [label="mse = 0.1012\nsamples = 83\nvalue = 5.9221"] ;
647 -> 649 ;
650 [label="avg_pickup_weekday_hour_manhattan_speed <= 26.0014\nmse = 0.1114\nsamples = 4488\nvalue = 6.1895"] ;
634 -> 650 ;
651 [label="avg_pickup_cluster_dropoff_cluster_haversine_speed <= 11.5316\nmse = 0.1056\nsamples = 2765\nvalue = 6.2479"] ;
650 -> 651 ;
652 [label="avg_dropoff_cluster_pickup_hour_haversine_speed <= 16.8533\nmse = 0.0951\nsamples = 1976\nvalue = 6.2884"] ;
651 -> 652 ;
653 [label="mse = 0.1019\nsamples = 1437\nvalue = 6.3241"] ;
652 -> 653 ;
654 [label="mse = 0.0665\nsamples = 539\nvalue = 6.1981"] ;
652 -> 654 ;
655 [label="avg_dropoff_cluster_haversine_speed <= 14.7228\nmse = 0.1176\nsamples = 789\nvalue = 6.1491"] ;
651 -> 655 ;
656 [label="mse = 0.087\nsamples = 611\nvalue = 6.1058"] ;
655 -> 656 ;
657 [label="mse = 0.1925\nsamples = 178\nvalue = 6.2934"] ;
655 -> 657 ;
658 [label="avg_pickup_cluster_dropoff_cluster_haversine_speed <= 10.6647\nmse = 0.1069\nsamples = 1723\nvalue = 6.0989"] ;
650 -> 658 ;
659 [label="avg_dropoff_cluster_haversine_speed <= 12.1484\nmse = 0.075\nsamples = 824\nvalue = 6.1644"] ;
658 -> 659 ;
660 [label="mse = 0.0733\nsamples = 257\nvalue = 6.0715"] ;
659 -> 660 ;
661 [label="mse = 0.0702\nsamples = 567\nvalue = 6.2062"] ;
659 -> 661 ;
662 [label="avg_dropoff_cluster_haversine_speed <= 13.4677\nmse = 0.1288\nsamples = 899\nvalue = 6.0381"] ;
658 -> 662 ;
663 [label="mse = 0.1259\nsamples = 532\nvalue = 5.9725"] ;
662 -> 663 ;
664 [label="mse = 0.1165\nsamples = 367\nvalue = 6.1381"] ;
662 -> 664 ;
665 [label="haversine_distance <= 1.5339\nmse = 0.2508\nsamples = 72105\nvalue = 5.9723"] ;
409 -> 665 ;
666 [label="avg_pickup_weekday_hour_manhattan_speed <= 17.0964\nmse = 0.2445\nsamples = 33251\nvalue = 5.7903"] ;
665 -> 666 ;
667 [label="haversine_distance <= 1.2806\nmse = 0.2162\nsamples = 15993\nvalue = 5.9178"] ;
666 -> 667 ;
668 [label="avg_pickup_cluster_dropoff_cluster_haversine_speed <= 15.7088\nmse = 0.2175\nsamples = 8126\nvalue = 5.8162"] ;
667 -> 668 ;
669 [label="avg_dropoff_cluster_pickup_hour_haversine_speed <= 12.157\nmse = 0.1986\nsamples = 5319\nvalue = 5.8933"] ;
668 -> 669 ;
670 [label="avg_dropoff_cluster_pickup_hour_manhattan_speed <= 12.8391\nmse = 0.246\nsamples = 2464\nvalue = 5.9841"] ;
669 -> 670 ;
671 [label="avg_pickup_cluster_pickup_hour_manhattan_speed <= 13.2936\nmse = 0.3484\nsamples = 224\nvalue = 6.2334"] ;
670 -> 671 ;
672 [label="mse = 4.806\nsamples = 4\nvalue = 7.3529"] ;
671 -> 672 ;
673 [label="mse = 0.2041\nsamples = 220\nvalue = 6.2052"] ;
671 -> 673 ;
674 [label="avg_pickup_weekday_hour_manhattan_speed <= 14.6914\nmse = 0.2282\nsamples = 2240\nvalue = 5.9582"] ;
670 -> 674 ;
675 [label="mse = 0.1904\nsamples = 1067\nvalue = 6.0285"] ;
674 -> 675 ;
676 [label="mse = 0.2537\nsamples = 1173\nvalue = 5.8952"] ;
674 -> 676 ;
677 [label="haversine_distance <= 1.1994\nmse = 0.1436\nsamples = 2855\nvalue = 5.8139"] ;
669 -> 677 ;
678 [label="manhattan_distance <= 1.3809\nmse = 0.1466\nsamples = 2010\nvalue = 5.7817"] ;
677 -> 678 ;
679 [label="mse = 0.1176\nsamples = 633\nvalue = 5.8613"] ;
678 -> 679 ;
680 [label="mse = 0.1556\nsamples = 1377\nvalue = 5.7453"] ;
678 -> 680 ;
681 [label="avg_pickup_weekday_hour_manhattan_speed <= 14.4957\nmse = 0.1285\nsamples = 845\nvalue = 5.8896"] ;
677 -> 681 ;
682 [label="mse = 0.151\nsamples = 203\nvalue = 6.0059"] ;
681 -> 682 ;
683 [label="mse = 0.116\nsamples = 642\nvalue = 5.8534"] ;
681 -> 683 ;
684 [label="avg_pickup_cluster_dropoff_cluster_haversine_speed <= 17.4388\nmse = 0.2209\nsamples = 2807\nvalue = 5.6719"] ;
668 -> 684 ;
685 [label="avg_pickup_weekday_hour_haversine_speed <= 11.7042\nmse = 0.2343\nsamples = 1616\nvalue = 5.7455"] ;
684 -> 685 ;
686 [label="avg_pickup_cluster_dropoff_cluster_haversine_speed <= 16.9326\nmse = 0.2433\nsamples = 982\nvalue = 5.8059"] ;
685 -> 686 ;
687 [label="mse = 0.164\nsamples = 709\nvalue = 5.7532"] ;
686 -> 687 ;
688 [label="mse = 0.4117\nsamples = 273\nvalue = 5.9331"] ;
686 -> 688 ;
689 [label="haversine_distance <= 1.0754\nmse = 0.2047\nsamples = 634\nvalue = 5.6486"] ;
685 -> 689 ;
690 [label="mse = 0.1599\nsamples = 113\nvalue = 5.5129"] ;
689 -> 690 ;
691 [label="mse = 0.2096\nsamples = 521\nvalue = 5.6784"] ;
689 -> 691 ;
692 [label="haversine_distance <= 1.0901\nmse = 0.1856\nsamples = 1191\nvalue = 5.5723"] ;
684 -> 692 ;
693 [label="avg_pickup_cluster_pickup_hour_manhattan_speed <= 16.4314\nmse = 0.2014\nsamples = 270\nvalue = 5.4569"] ;
692 -> 693 ;
694 [label="mse = 0.2076\nsamples = 108\nvalue = 5.6047"] ;
693 -> 694 ;
695 [label="mse = 0.178\nsamples = 162\nvalue = 5.3719"] ;
693 -> 695 ;
696 [label="manhattan_distance <= 1.4313\nmse = 0.1759\nsamples = 921\nvalue = 5.606"] ;
692 -> 696 ;
697 [label="mse = 0.3618\nsamples = 86\nvalue = 5.776"] ;
696 -> 697 ;
698 [label="mse = 0.1539\nsamples = 835\nvalue = 5.5888"] ;
696 -> 698 ;
699 [label="avg_pickup_cluster_dropoff_cluster_haversine_speed <= 15.1214\nmse = 0.1931\nsamples = 7867\nvalue = 6.023"] ;
667 -> 699 ;
700 [label="avg_dropoff_cluster_pickup_hour_haversine_speed <= 11.5136\nmse = 0.1651\nsamples = 3993\nvalue = 6.1345"] ;
699 -> 700 ;
701 [label="avg_pickup_weekday_hour_haversine_speed <= 12.0088\nmse = 0.1841\nsamples = 1528\nvalue = 6.2338"] ;
700 -> 701 ;
702 [label="haversine_distance <= 1.3337\nmse = 0.1767\nsamples = 1071\nvalue = 6.2757"] ;
701 -> 702 ;
703 [label="mse = 0.1487\nsamples = 231\nvalue = 6.1439"] ;
702 -> 703 ;
704 [label="mse = 0.1783\nsamples = 840\nvalue = 6.3121"] ;
702 -> 704 ;
705 [label="dropoff_cluster <= 54.0\nmse = 0.1877\nsamples = 457\nvalue = 6.1374"] ;
701 -> 705 ;
706 [label="mse = 0.1878\nsamples = 335\nvalue = 6.0958"] ;
705 -> 706 ;
707 [label="mse = 0.1726\nsamples = 122\nvalue = 6.241"] ;
705 -> 707 ;
708 [label="haversine_distance <= 1.3779\nmse = 0.1435\nsamples = 2465\nvalue = 6.0729"] ;
700 -> 708 ;
709 [label="avg_pickup_cluster_pickup_hour_manhattan_speed <= 15.9996\nmse = 0.1372\nsamples = 1075\nvalue = 6.0075"] ;
708 -> 709 ;
710 [label="mse = 0.1348\nsamples = 471\nvalue = 6.08"] ;
709 -> 710 ;
711 [label="mse = 0.1318\nsamples = 604\nvalue = 5.9512"] ;
709 -> 711 ;
712 [label="dropoff_latitude <= 40.7932\nmse = 0.1426\nsamples = 1390\nvalue = 6.1221"] ;
708 -> 712 ;
713 [label="mse = 0.1431\nsamples = 1310\nvalue = 6.1329"] ;
712 -> 713 ;
714 [label="mse = 0.0994\nsamples = 80\nvalue = 5.9412"] ;
712 -> 714 ;
715 [label="avg_pickup_cluster_dropoff_cluster_haversine_speed <= 18.0552\nmse = 0.1959\nsamples = 3874\nvalue = 5.9083"] ;
699 -> 715 ;
716 [label="avg_pickup_weekday_hour_manhattan_speed <= 14.6914\nmse = 0.1973\nsamples = 2867\nvalue = 5.9549"] ;
715 -> 716 ;
717 [label="avg_pickup_cluster_pickup_hour_haversine_speed <= 13.9636\nmse = 0.1831\nsamples = 1102\nvalue = 6.0416"] ;
716 -> 717 ;
718 [label="mse = 0.1831\nsamples = 946\nvalue = 6.0686"] ;
717 -> 718 ;
719 [label="mse = 0.1506\nsamples = 156\nvalue = 5.874"] ;
717 -> 719 ;
720 [label="avg_dropoff_cluster_manhattan_speed <= 15.5417\nmse = 0.1985\nsamples = 1765\nvalue = 5.8993"] ;
716 -> 720 ;
721 [label="mse = 4.6698\nsamples = 6\nvalue = 7.3564"] ;
720 -> 721 ;
722 [label="mse = 0.1767\nsamples = 1759\nvalue = 5.8944"] ;
720 -> 722 ;
723 [label="manhattan_distance <= 2.0922\nmse = 0.1695\nsamples = 1007\nvalue = 5.7803"] ;
715 -> 723 ;
724 [label="avg_dropoff_cluster_pickup_hour_manhattan_speed <= 17.404\nmse = 0.1714\nsamples = 945\nvalue = 5.7625"] ;
723 -> 724 ;
725 [label="mse = 0.1981\nsamples = 249\nvalue = 5.8695"] ;
724 -> 725 ;
726 [label="mse = 0.1551\nsamples = 696\nvalue = 5.7214"] ;
724 -> 726 ;
727 [label="pickup_latitude <= 40.7647\nmse = 0.07\nsamples = 62\nvalue = 6.0386"] ;
723 -> 727 ;
728 [label="mse = 0.0634\nsamples = 18\nvalue = 6.1997"] ;
727 -> 728 ;
729 [label="mse = 0.0565\nsamples = 44\nvalue = 5.9679"] ;
727 -> 729 ;
730 [label="avg_pickup_cluster_dropoff_cluster_manhattan_speed <= 22.1658\nmse = 0.2418\nsamples = 17258\nvalue = 5.672"] ;
666 -> 730 ;
731 [label="haversine_distance <= 1.2471\nmse = 0.2276\nsamples = 13385\nvalue = 5.7216"] ;
730 -> 731 ;
732 [label="avg_pickup_weekday_hour_manhattan_speed <= 21.798\nmse = 0.2306\nsamples = 5841\nvalue = 5.6119"] ;
731 -> 732 ;
733 [label="avg_pickup_cluster_dropoff_cluster_haversine_speed <= 14.0974\nmse = 0.2277\nsamples = 4033\nvalue = 5.674"] ;
732 -> 733 ;
734 [label="avg_pickup_cluster_pickup_hour_manhattan_speed <= 21.4769\nmse = 0.2033\nsamples = 1816\nvalue = 5.7571"] ;
733 -> 734 ;
735 [label="mse = 0.2165\nsamples = 1485\nvalue = 5.7915"] ;
734 -> 735 ;
736 [label="mse = 0.1152\nsamples = 331\nvalue = 5.6031"] ;
734 -> 736 ;
737 [label="dropoff_latitude <= 40.7671\nmse = 0.2374\nsamples = 2217\nvalue = 5.6064"] ;
733 -> 737 ;
738 [label="mse = 0.2786\nsamples = 1120\nvalue = 5.6772"] ;
737 -> 738 ;
739 [label="mse = 0.1844\nsamples = 1097\nvalue = 5.5335"] ;
737 -> 739 ;
740 [label="passthru_latitude <= 40.7337\nmse = 0.2092\nsamples = 1808\nvalue = 5.4737"] ;
732 -> 740 ;
741 [label="haversine_distance <= 1.2432\nmse = 0.1908\nsamples = 383\nvalue = 5.6437"] ;
740 -> 741 ;
742 [label="mse = 0.1382\nsamples = 377\nvalue = 5.632"] ;
741 -> 742 ;
743 [label="mse = 4.1311\nsamples = 6\nvalue = 6.8299"] ;
741 -> 743 ;
744 [label="avg_pickup_cluster_haversine_speed <= 16.0094\nmse = 0.2041\nsamples = 1425\nvalue = 5.4269"] ;
740 -> 744 ;
745 [label="mse = 0.1726\nsamples = 1173\nvalue = 5.3865"] ;
744 -> 745 ;
746 [label="mse = 0.3093\nsamples = 252\nvalue = 5.6193"] ;
744 -> 746 ;
747 [label="avg_pickup_weekday_hour_manhattan_speed <= 21.798\nmse = 0.2088\nsamples = 7544\nvalue = 5.8067"] ;
731 -> 747 ;
748 [label="avg_pickup_cluster_dropoff_cluster_haversine_speed <= 14.1776\nmse = 0.1969\nsamples = 5273\nvalue = 5.867"] ;
747 -> 748 ;
749 [label="haversine_distance <= 1.2477\nmse = 0.2062\nsamples = 2454\nvalue = 5.9311"] ;
748 -> 749 ;
750 [label="mse = 7.0226\nsamples = 2\nvalue = 8.7091"] ;
749 -> 750 ;
751 [label="mse = 0.1912\nsamples = 2452\nvalue = 5.9283"] ;
749 -> 751 ;
752 [label="dropoff_latitude <= 40.7692\nmse = 0.1818\nsamples = 2819\nvalue = 5.8104"] ;
748 -> 752 ;
753 [label="mse = 0.1869\nsamples = 1643\nvalue = 5.8589"] ;
752 -> 753 ;
754 [label="mse = 0.1669\nsamples = 1176\nvalue = 5.7428"] ;
752 -> 754 ;
755 [label="passthru_latitude <= 40.7273\nmse = 0.2084\nsamples = 2271\nvalue = 5.6666"] ;
747 -> 755 ;
756 [label="pickup_latitude <= 40.7335\nmse = 0.4845\nsamples = 325\nvalue = 5.8925"] ;
755 -> 756 ;
757 [label="mse = 0.3173\nsamples = 323\nvalue = 5.8614"] ;
756 -> 757 ;
758 [label="mse = 5.5006\nsamples = 2\nvalue = 10.0103"] ;
756 -> 758 ;
759 [label="avg_pickup_weekday_hour_manhattan_speed <= 24.1575\nmse = 0.1497\nsamples = 1946\nvalue = 5.6272"] ;
755 -> 759 ;
760 [label="mse = 0.1458\nsamples = 823\nvalue = 5.7133"] ;
759 -> 760 ;
761 [label="mse = 0.1431\nsamples = 1123\nvalue = 5.5641"] ;
759 -> 761 ;
762 [label="haversine_distance <= 1.242\nmse = 0.2529\nsamples = 3873\nvalue = 5.5009"] ;
730 -> 762 ;
763 [label="avg_pickup_cluster_dropoff_cluster_haversine_speed <= 18.0248\nmse = 0.2946\nsamples = 1450\nvalue = 5.3761"] ;
762 -> 763 ;
764 [label="pickup_weekday_hour <= 0.5\nmse = 0.3386\nsamples = 665\nvalue = 5.4722"] ;
763 -> 764 ;
765 [label="avg_pickup_cluster_dropoff_cluster_manhattan_speed <= 23.9693\nmse = 7.1875\nsamples = 4\nvalue = 7.1208"] ;
764 -> 765 ;
766 [label="mse = 0.0057\nsamples = 3\nvalue = 5.4257"] ;
765 -> 766 ;
767 [label="mse = 0.0\nsamples = 1\nvalue = 11.3586"] ;
765 -> 767 ;
768 [label="manhattan_distance <= 1.3541\nmse = 0.2725\nsamples = 661\nvalue = 5.4608"] ;
764 -> 768 ;
769 [label="mse = 0.9024\nsamples = 50\nvalue = 5.9219"] ;
768 -> 769 ;
770 [label="mse = 0.2028\nsamples = 611\nvalue = 5.4235"] ;
768 -> 770 ;
771 [label="pickup_longitude <= -73.8038\nmse = 0.2438\nsamples = 785\nvalue = 5.2959"] ;
763 -> 771 ;
772 [label="avg_pickup_weekday_hour_haversine_speed <= 15.3053\nmse = 0.2226\nsamples = 781\nvalue = 5.2872"] ;
771 -> 772 ;
773 [label="mse = 0.2618\nsamples = 407\nvalue = 5.3764"] ;
772 -> 773 ;
774 [label="mse = 0.1636\nsamples = 374\nvalue = 5.1923"] ;
772 -> 774 ;
775 [label="passenger_count <= 1.5\nmse = 1.3437\nsamples = 4\nvalue = 7.0818"] ;
771 -> 775 ;
776 [label="mse = 0.0002\nsamples = 2\nvalue = 5.9286"] ;
775 -> 776 ;
777 [label="mse = 0.0275\nsamples = 2\nvalue = 8.235"] ;
775 -> 777 ;
778 [label="avg_pickup_weekday_hour_manhattan_speed <= 21.7388\nmse = 0.2145\nsamples = 2423\nvalue = 5.5732"] ;
762 -> 778 ;
779 [label="dropoff_longitude <= -73.7946\nmse = 0.2239\nsamples = 1702\nvalue = 5.6309"] ;
778 -> 779 ;
780 [label="avg_dropoff_cluster_pickup_hour_haversine_speed <= 15.6217\nmse = 0.2089\nsamples = 1697\nvalue = 5.6249"] ;
779 -> 780 ;
781 [label="mse = 0.1938\nsamples = 1022\nvalue = 5.6762"] ;
780 -> 781 ;
782 [label="mse = 0.2219\nsamples = 675\nvalue = 5.5443"] ;
780 -> 782 ;
783 [label="dropoff_longitude <= -73.7919\nmse = 1.7207\nsamples = 5\nvalue = 7.1145"] ;
779 -> 783 ;
784 [label="mse = 0.0362\nsamples = 2\nvalue = 8.099"] ;
783 -> 784 ;
785 [label="mse = 0.0041\nsamples = 3\nvalue = 5.3916"] ;
783 -> 785 ;
786 [label="manhattan_distance <= 1.5956\nmse = 0.1658\nsamples = 721\nvalue = 5.437"] ;
778 -> 786 ;
787 [label="avg_pickup_cluster_dropoff_cluster_manhattan_speed <= 22.8682\nmse = 0.07\nsamples = 40\nvalue = 5.7055"] ;
786 -> 787 ;
788 [label="mse = 0.0637\nsamples = 7\nvalue = 6.0361"] ;
787 -> 788 ;
789 [label="mse = 0.0409\nsamples = 33\nvalue = 5.63"] ;
787 -> 789 ;
790 [label="manhattan_distance <= 2.079\nmse = 0.1671\nsamples = 681\nvalue = 5.4197"] ;
786 -> 790 ;
791 [label="mse = 0.163\nsamples = 625\nvalue = 5.3989"] ;
790 -> 791 ;
792 [label="mse = 0.1458\nsamples = 56\nvalue = 5.6771"] ;
790 -> 792 ;
793 [label="avg_pickup_weekday_hour_haversine_speed <= 13.3224\nmse = 0.2036\nsamples = 38854\nvalue = 6.1281"] ;
665 -> 793 ;
794 [label="avg_pickup_cluster_dropoff_cluster_haversine_speed <= 15.7124\nmse = 0.19\nsamples = 18107\nvalue = 6.2749"] ;
793 -> 794 ;
795 [label="haversine_distance <= 1.8614\nmse = 0.1598\nsamples = 10255\nvalue = 6.3766"] ;
794 -> 795 ;
796 [label="avg_dropoff_cluster_pickup_hour_haversine_speed <= 11.5382\nmse = 0.1685\nsamples = 5494\nvalue = 6.2999"] ;
795 -> 796 ;
797 [label="avg_pickup_weekday_hour_manhattan_speed <= 15.5442\nmse = 0.1478\nsamples = 2064\nvalue = 6.3842"] ;
796 -> 797 ;
798 [label="avg_dropoff_cluster_pickup_hour_haversine_speed <= 10.1157\nmse = 0.1491\nsamples = 1411\nvalue = 6.4343"] ;
797 -> 798 ;
799 [label="mse = 0.1301\nsamples = 213\nvalue = 6.5899"] ;
798 -> 799 ;
800 [label="mse = 0.1475\nsamples = 1198\nvalue = 6.4071"] ;
798 -> 800 ;
801 [label="avg_dropoff_cluster_pickup_hour_manhattan_speed <= 13.1939\nmse = 0.1288\nsamples = 653\nvalue = 6.2791"] ;
797 -> 801 ;
802 [label="mse = 0.149\nsamples = 114\nvalue = 6.4268"] ;
801 -> 802 ;
803 [label="mse = 0.1189\nsamples = 539\nvalue = 6.2479"] ;
801 -> 803 ;
804 [label="avg_pickup_cluster_dropoff_cluster_manhattan_speed <= 21.1171\nmse = 0.1741\nsamples = 3430\nvalue = 6.2504"] ;
796 -> 804 ;
805 [label="haversine_distance <= 1.6584\nmse = 0.1477\nsamples = 3383\nvalue = 6.2431"] ;
804 -> 805 ;
806 [label="mse = 0.1632\nsamples = 1332\nvalue = 6.171"] ;
805 -> 806 ;
807 [label="mse = 0.1323\nsamples = 2051\nvalue = 6.2894"] ;
805 -> 807 ;
808 [label="avg_pickup_weekday_hour_haversine_speed <= 10.9436\nmse = 1.8121\nsamples = 47\nvalue = 6.7785"] ;
804 -> 808 ;
809 [label="mse = 4.5718\nsamples = 12\nvalue = 7.864"] ;
808 -> 809 ;
810 [label="mse = 0.192\nsamples = 35\nvalue = 6.3764"] ;
808 -> 810 ;
811 [label="avg_dropoff_cluster_pickup_hour_haversine_speed <= 10.9664\nmse = 0.1349\nsamples = 4761\nvalue = 6.4653"] ;
795 -> 811 ;
812 [label="manhattan_distance <= 2.9219\nmse = 0.195\nsamples = 1161\nvalue = 6.606"] ;
811 -> 812 ;
813 [label="avg_pickup_weekday_hour_haversine_speed <= 12.5513\nmse = 0.1736\nsamples = 1012\nvalue = 6.5747"] ;
812 -> 813 ;
814 [label="mse = 0.1774\nsamples = 829\nvalue = 6.6071"] ;
813 -> 814 ;
815 [label="mse = 0.1277\nsamples = 183\nvalue = 6.4225"] ;
813 -> 815 ;
816 [label="dropoff_latitude <= 40.7687\nmse = 0.2884\nsamples = 149\nvalue = 6.8172"] ;
812 -> 816 ;
817 [label="mse = 0.1128\nsamples = 147\nvalue = 6.7758"] ;
816 -> 817 ;
818 [label="mse = 3.3738\nsamples = 2\nvalue = 10.0627"] ;
816 -> 818 ;
819 [label="avg_pickup_cluster_dropoff_cluster_haversine_speed <= 14.4193\nmse = 0.1068\nsamples = 3600\nvalue = 6.4195"] ;
811 -> 819 ;
820 [label="avg_pickup_weekday_hour_manhattan_speed <= 14.667\nmse = 0.1068\nsamples = 2250\nvalue = 6.4644"] ;
819 -> 820 ;
821 [label="mse = 0.0862\nsamples = 700\nvalue = 6.5376"] ;
820 -> 821 ;
822 [label="mse = 0.1127\nsamples = 1550\nvalue = 6.4308"] ;
820 -> 822 ;
823 [label="avg_pickup_weekday_hour_manhattan_speed <= 16.0583\nmse = 0.0975\nsamples = 1350\nvalue = 6.3429"] ;
819 -> 823 ;
824 [label="mse = 0.0946\nsamples = 950\nvalue = 6.3816"] ;
823 -> 824 ;
825 [label="mse = 0.0917\nsamples = 400\nvalue = 6.2458"] ;
823 -> 825 ;
826 [label="haversine_distance <= 1.8616\nmse = 0.1982\nsamples = 7852\nvalue = 6.1412"] ;
794 -> 826 ;
827 [label="avg_dropoff_cluster_pickup_hour_manhattan_speed <= 17.7734\nmse = 0.1861\nsamples = 4122\nvalue = 6.0494"] ;
826 -> 827 ;
828 [label="avg_pickup_weekday_hour_haversine_speed <= 11.6067\nmse = 0.1561\nsamples = 2413\nvalue = 6.1059"] ;
827 -> 828 ;
829 [label="avg_pickup_cluster_pickup_hour_manhattan_speed <= 14.227\nmse = 0.1339\nsamples = 1281\nvalue = 6.1645"] ;
828 -> 829 ;
830 [label="mse = 0.1667\nsamples = 111\nvalue = 6.3537"] ;
829 -> 830 ;
831 [label="mse = 0.1272\nsamples = 1170\nvalue = 6.147"] ;
829 -> 831 ;
832 [label="avg_pickup_cluster_dropoff_cluster_haversine_speed <= 17.8015\nmse = 0.1731\nsamples = 1132\nvalue = 6.0383"] ;
828 -> 832 ;
833 [label="mse = 0.1511\nsamples = 772\nvalue = 6.0854"] ;
832 -> 833 ;
834 [label="mse = 0.2052\nsamples = 360\nvalue = 5.9384"] ;
832 -> 834 ;
835 [label="dropoff_longitude <= -73.8688\nmse = 0.2178\nsamples = 1709\nvalue = 5.969"] ;
827 -> 835 ;
836 [label="passenger_count <= 5.5\nmse = 0.204\nsamples = 1695\nvalue = 5.9604"] ;
835 -> 836 ;
837 [label="mse = 0.1485\nsamples = 1635\nvalue = 5.9467"] ;
836 -> 837 ;
838 [label="mse = 1.6122\nsamples = 60\nvalue = 6.3464"] ;
836 -> 838 ;
839 [label="passthru_latitude <= 40.6503\nmse = 0.8245\nsamples = 14\nvalue = 6.9444"] ;
835 -> 839 ;
840 [label="mse = 0.0626\nsamples = 3\nvalue = 5.3287"] ;
839 -> 840 ;
841 [label="mse = 0.4884\nsamples = 11\nvalue = 7.1868"] ;
839 -> 841 ;
842 [label="avg_pickup_cluster_dropoff_cluster_manhattan_speed <= 27.3123\nmse = 0.1923\nsamples = 3730\nvalue = 6.2406"] ;
826 -> 842 ;
843 [label="avg_pickup_weekday_hour_manhattan_speed <= 15.0063\nmse = 0.189\nsamples = 3252\nvalue = 6.2731"] ;
842 -> 843 ;
844 [label="avg_dropoff_cluster_pickup_hour_haversine_speed <= 12.052\nmse = 0.1966\nsamples = 1491\nvalue = 6.3525"] ;
843 -> 844 ;
845 [label="mse = 0.2026\nsamples = 434\nvalue = 6.4945"] ;
844 -> 845 ;
846 [label="mse = 0.182\nsamples = 1057\nvalue = 6.2928"] ;
844 -> 846 ;
847 [label="avg_pickup_cluster_dropoff_cluster_haversine_speed <= 17.243\nmse = 0.1727\nsamples = 1761\nvalue = 6.2058"] ;
843 -> 847 ;
848 [label="mse = 0.1164\nsamples = 881\nvalue = 6.2616"] ;
847 -> 848 ;
849 [label="mse = 0.225\nsamples = 880\nvalue = 6.1474"] ;
847 -> 849 ;
850 [label="passthru_longitude <= -73.7957\nmse = 0.1561\nsamples = 478\nvalue = 6.0115"] ;
842 -> 850 ;
851 [label="avg_pickup_cluster_pickup_hour_manhattan_speed <= 19.1003\nmse = 0.1382\nsamples = 476\nvalue = 6.0037"] ;
850 -> 851 ;
852 [label="mse = 0.1301\nsamples = 370\nvalue = 6.0622"] ;
851 -> 852 ;
853 [label="mse = 0.1178\nsamples = 106\nvalue = 5.8162"] ;
851 -> 853 ;
854 [label="pickup_cluster <= 55.5\nmse = 0.8697\nsamples = 2\nvalue = 7.9221"] ;
850 -> 854 ;
855 [label="mse = 0.0\nsamples = 1\nvalue = 9.241"] ;
854 -> 855 ;
856 [label="mse = -0.0\nsamples = 1\nvalue = 7.2626"] ;
854 -> 856 ;
857 [label="avg_pickup_cluster_dropoff_cluster_manhattan_speed <= 21.9145\nmse = 0.1803\nsamples = 20747\nvalue = 6.0005"] ;
793 -> 857 ;
858 [label="avg_pickup_weekday_hour_manhattan_speed <= 22.6593\nmse = 0.1566\nsamples = 14386\nvalue = 6.0697"] ;
857 -> 858 ;
859 [label="haversine_distance <= 1.7434\nmse = 0.151\nsamples = 10785\nvalue = 6.1312"] ;
858 -> 859 ;
860 [label="avg_pickup_weekday_hour_manhattan_speed <= 20.1314\nmse = 0.1434\nsamples = 3680\nvalue = 6.0108"] ;
859 -> 860 ;
861 [label="avg_pickup_cluster_dropoff_cluster_haversine_speed <= 13.8253\nmse = 0.1262\nsamples = 2495\nvalue = 6.0552"] ;
860 -> 861 ;
862 [label="mse = 0.1221\nsamples = 916\nvalue = 6.1263"] ;
861 -> 862 ;
863 [label="mse = 0.1238\nsamples = 1579\nvalue = 6.013"] ;
861 -> 863 ;
864 [label="avg_pickup_cluster_dropoff_cluster_haversine_speed <= 14.2548\nmse = 0.1669\nsamples = 1185\nvalue = 5.9174"] ;
860 -> 864 ;
865 [label="mse = 0.2296\nsamples = 551\nvalue = 6.0073"] ;
864 -> 865 ;
866 [label="mse = 0.1013\nsamples = 634\nvalue = 5.8414"] ;
864 -> 866 ;
867 [label="avg_pickup_weekday_hour_manhattan_speed <= 20.2783\nmse = 0.1435\nsamples = 7105\nvalue = 6.194"] ;
859 -> 867 ;
868 [label="avg_pickup_cluster_dropoff_cluster_haversine_speed <= 14.7623\nmse = 0.1387\nsamples = 4936\nvalue = 6.2334"] ;
867 -> 868 ;
869 [label="mse = 0.1238\nsamples = 2991\nvalue = 6.2798"] ;
868 -> 869 ;
870 [label="mse = 0.1532\nsamples = 1945\nvalue = 6.1622"] ;
868 -> 870 ;
871 [label="avg_pickup_cluster_dropoff_cluster_haversine_speed <= 15.0395\nmse = 0.1429\nsamples = 2169\nvalue = 6.1048"] ;
867 -> 871 ;
872 [label="mse = 0.1534\nsamples = 1430\nvalue = 6.1497"] ;
871 -> 872 ;
873 [label="mse = 0.112\nsamples = 739\nvalue = 6.0196"] ;
871 -> 873 ;
874 [label="haversine_distance <= 1.7938\nmse = 0.1278\nsamples = 3601\nvalue = 5.8846"] ;
858 -> 874 ;
875 [label="avg_pickup_cluster_pickup_hour_haversine_speed <= 19.245\nmse = 0.1245\nsamples = 1476\nvalue = 5.787"] ;
874 -> 875 ;
876 [label="avg_pickup_cluster_dropoff_cluster_haversine_speed <= 13.9752\nmse = 0.1211\nsamples = 952\nvalue = 5.8469"] ;
875 -> 876 ;
877 [label="mse = 0.1109\nsamples = 377\nvalue = 5.9289"] ;
876 -> 877 ;
878 [label="mse = 0.1206\nsamples = 575\nvalue = 5.7943"] ;
876 -> 878 ;
879 [label="avg_pickup_cluster_manhattan_speed <= 21.0677\nmse = 0.1131\nsamples = 524\nvalue = 5.6815"] ;
875 -> 879 ;
880 [label="mse = 0.1026\nsamples = 447\nvalue = 5.6358"] ;
879 -> 880 ;
881 [label="mse = 0.0903\nsamples = 77\nvalue = 5.9511"] ;
879 -> 881 ;
882 [label="avg_dropoff_cluster_haversine_speed <= 14.1277\nmse = 0.1191\nsamples = 2125\nvalue = 5.9512"] ;
874 -> 882 ;
883 [label="avg_pickup_cluster_pickup_hour_manhattan_speed <= 26.1243\nmse = 0.1049\nsamples = 1305\nvalue = 5.8958"] ;
882 -> 883 ;
884 [label="mse = 0.0992\nsamples = 974\nvalue = 5.9435"] ;
883 -> 884 ;
885 [label="mse = 0.0965\nsamples = 331\nvalue = 5.7604"] ;
883 -> 885 ;
886 [label="passthru_latitude <= 40.722\nmse = 0.1289\nsamples = 820\nvalue = 6.0395"] ;
882 -> 886 ;
887 [label="mse = 0.1251\nsamples = 244\nvalue = 6.1428"] ;
886 -> 887 ;
888 [label="mse = 0.1244\nsamples = 576\nvalue = 5.9982"] ;
886 -> 888 ;
889 [label="avg_pickup_weekday_hour_manhattan_speed <= 21.4118\nmse = 0.1985\nsamples = 6361\nvalue = 5.8423"] ;
857 -> 889 ;
890 [label="passthru_latitude <= 40.7668\nmse = 0.1933\nsamples = 4217\nvalue = 5.9108"] ;
889 -> 890 ;
891 [label="haversine_distance <= 2.0107\nmse = 0.2053\nsamples = 1926\nvalue = 6.0036"] ;
890 -> 891 ;
892 [label="pickup_longitude <= -73.782\nmse = 0.2205\nsamples = 1433\nvalue = 5.9582"] ;
891 -> 892 ;
893 [label="mse = 0.212\nsamples = 1430\nvalue = 5.9538"] ;
892 -> 893 ;
894 [label="mse = 0.6908\nsamples = 3\nvalue = 7.5952"] ;
892 -> 894 ;
895 [label="pickup_latitude <= 40.6459\nmse = 0.14\nsamples = 493\nvalue = 6.1321"] ;
891 -> 895 ;
896 [label="mse = 0.0\nsamples = 1\nvalue = 8.3925"] ;
895 -> 896 ;
897 [label="mse = 0.1337\nsamples = 492\nvalue = 6.1292"] ;
895 -> 897 ;
898 [label="haversine_distance <= 1.8582\nmse = 0.1697\nsamples = 2291\nvalue = 5.8323"] ;
890 -> 898 ;
899 [label="pickup_longitude <= -73.9964\nmse = 0.1657\nsamples = 1208\nvalue = 5.7501"] ;
898 -> 899 ;
900 [label="mse = 0.6087\nsamples = 6\nvalue = 6.664"] ;
899 -> 900 ;
901 [label="mse = 0.1582\nsamples = 1202\nvalue = 5.7448"] ;
899 -> 901 ;
902 [label="haversine_distance <= 1.8586\nmse = 0.1581\nsamples = 1083\nvalue = 5.9249"] ;
898 -> 902 ;
903 [label="mse = 0.0\nsamples = 1\nvalue = 11.3649"] ;
902 -> 903 ;
904 [label="mse = 0.123\nsamples = 1082\nvalue = 5.9184"] ;
902 -> 904 ;
905 [label="haversine_distance <= 1.8519\nmse = 0.1818\nsamples = 2144\nvalue = 5.7088"] ;
889 -> 905 ;
906 [label="avg_pickup_weekday_hour_haversine_speed <= 19.0384\nmse = 0.2058\nsamples = 1024\nvalue = 5.6235"] ;
905 -> 906 ;
907 [label="pickup_cluster <= 6.5\nmse = 0.2382\nsamples = 601\nvalue = 5.694"] ;
906 -> 907 ;
908 [label="mse = 1.6269\nsamples = 35\nvalue = 6.0317"] ;
907 -> 908 ;
909 [label="mse = 0.1346\nsamples = 566\nvalue = 5.6709"] ;
907 -> 909 ;
910 [label="avg_pickup_cluster_dropoff_cluster_manhattan_speed <= 25.1588\nmse = 0.1461\nsamples = 423\nvalue = 5.5281"] ;
906 -> 910 ;
911 [label="mse = 0.1413\nsamples = 250\nvalue = 5.5857"] ;
910 -> 911 ;
912 [label="mse = 0.1416\nsamples = 173\nvalue = 5.4464"] ;
910 -> 912 ;
913 [label="dropoff_longitude <= -73.9066\nmse = 0.1467\nsamples = 1120\nvalue = 5.7876"] ;
905 -> 913 ;
914 [label="avg_pickup_cluster_dropoff_cluster_manhattan_speed <= 25.1894\nmse = 0.1223\nsamples = 1097\nvalue = 5.7753"] ;
913 -> 914 ;
915 [label="mse = 0.114\nsamples = 634\nvalue = 5.8457"] ;
914 -> 915 ;
916 [label="mse = 0.1178\nsamples = 463\nvalue = 5.6803"] ;
914 -> 916 ;
917 [label="pickup_weekday_hour <= 2.5\nmse = 0.9822\nsamples = 23\nvalue = 6.4146"] ;
913 -> 917 ;
918 [label="mse = 6.3402\nsamples = 2\nvalue = 8.8279"] ;
917 -> 918 ;
919 [label="mse = 0.2606\nsamples = 21\nvalue = 6.2638"] ;
917 -> 919 ;
920 [label="haversine_distance <= 5.3565\nmse = 0.2988\nsamples = 309745\nvalue = 6.9767"] ;
0 -> 920 [labeldistance=2.5, labelangle=-45, headlabel="False"] ;
921 [label="avg_pickup_weekday_hour_manhattan_speed <= 17.7356\nmse = 0.2041\nsamples = 203856\nvalue = 6.7586"] ;
920 -> 921 ;
922 [label="haversine_distance <= 3.254\nmse = 0.1879\nsamples = 91173\nvalue = 6.9202"] ;
921 -> 922 ;
923 [label="avg_pickup_cluster_dropoff_cluster_haversine_speed <= 14.2686\nmse = 0.171\nsamples = 52493\nvalue = 6.789"] ;
922 -> 923 ;
924 [label="haversine_distance <= 2.6407\nmse = 0.129\nsamples = 34757\nvalue = 6.9014"] ;
923 -> 924 ;
925 [label="avg_pickup_cluster_dropoff_cluster_haversine_speed <= 11.4337\nmse = 0.1315\nsamples = 19606\nvalue = 6.8311"] ;
924 -> 925 ;
926 [label="avg_pickup_weekday_hour_haversine_speed <= 11.8908\nmse = 0.119\nsamples = 8745\nvalue = 6.9391"] ;
925 -> 926 ;
927 [label="passthru_latitude <= 40.7441\nmse = 0.124\nsamples = 4734\nvalue = 7.0192"] ;
926 -> 927 ;
928 [label="avg_pickup_cluster_pickup_hour_haversine_speed <= 11.5844\nmse = 0.0938\nsamples = 928\nvalue = 6.901"] ;
927 -> 928 ;
929 [label="mse = 0.1242\nsamples = 370\nvalue = 6.9671"] ;
928 -> 929 ;
930 [label="mse = 0.0681\nsamples = 558\nvalue = 6.856"] ;
928 -> 930 ;
931 [label="passthru_latitude <= 40.7669\nmse = 0.1272\nsamples = 3806\nvalue = 7.0487"] ;
927 -> 931 ;
932 [label="mse = 0.1113\nsamples = 2719\nvalue = 7.0812"] ;
931 -> 932 ;
933 [label="mse = 0.1577\nsamples = 1087\nvalue = 6.9672"] ;
931 -> 933 ;
934 [label="avg_dropoff_cluster_pickup_hour_manhattan_speed <= 16.0484\nmse = 0.0962\nsamples = 4011\nvalue = 6.8437"] ;
926 -> 934 ;
935 [label="avg_pickup_cluster_dropoff_cluster_haversine_speed <= 10.7423\nmse = 0.1003\nsamples = 3222\nvalue = 6.8699"] ;
934 -> 935 ;
936 [label="mse = 0.1048\nsamples = 2114\nvalue = 6.903"] ;
935 -> 936 ;
937 [label="mse = 0.0857\nsamples = 1108\nvalue = 6.8073"] ;
935 -> 937 ;
938 [label="passthru_latitude <= 40.764\nmse = 0.0661\nsamples = 789\nvalue = 6.7385"] ;
934 -> 938 ;
939 [label="mse = 0.0672\nsamples = 519\nvalue = 6.7863"] ;
938 -> 939 ;
940 [label="mse = 0.0514\nsamples = 270\nvalue = 6.6466"] ;
938 -> 940 ;
941 [label="avg_pickup_weekday_hour_haversine_speed <= 11.7042\nmse = 0.1249\nsamples = 10861\nvalue = 6.7453"] ;
925 -> 941 ;
942 [label="avg_dropoff_cluster_pickup_hour_haversine_speed <= 10.3465\nmse = 0.1316\nsamples = 5612\nvalue = 6.823"] ;
941 -> 942 ;
943 [label="haversine_distance <= 2.3324\nmse = 0.1539\nsamples = 1169\nvalue = 6.9521"] ;
942 -> 943 ;
944 [label="mse = 0.1051\nsamples = 400\nvalue = 6.8446"] ;
943 -> 944 ;
945 [label="mse = 0.1699\nsamples = 769\nvalue = 7.0069"] ;
943 -> 945 ;
946 [label="haversine_distance <= 2.3933\nmse = 0.1202\nsamples = 4443\nvalue = 6.7889"] ;
942 -> 946 ;
947 [label="mse = 0.1426\nsamples = 2181\nvalue = 6.7415"] ;
946 -> 947 ;
948 [label="mse = 0.0943\nsamples = 2262\nvalue = 6.8347"] ;
946 -> 948 ;
949 [label="avg_pickup_cluster_dropoff_cluster_haversine_speed <= 12.2735\nmse = 0.1047\nsamples = 5249\nvalue = 6.6632"] ;
941 -> 949 ;
950 [label="haversine_distance <= 2.3324\nmse = 0.0838\nsamples = 1799\nvalue = 6.7338"] ;
949 -> 950 ;
951 [label="mse = 0.0875\nsamples = 647\nvalue = 6.667"] ;
950 -> 951 ;
952 [label="mse = 0.0778\nsamples = 1152\nvalue = 6.7714"] ;
950 -> 952 ;
953 [label="haversine_distance <= 2.37\nmse = 0.1116\nsamples = 3450\nvalue = 6.6266"] ;
949 -> 953 ;
954 [label="mse = 0.1068\nsamples = 1506\nvalue = 6.5728"] ;
953 -> 954 ;
955 [label="mse = 0.1112\nsamples = 1944\nvalue = 6.669"] ;
953 -> 955 ;
956 [label="avg_pickup_cluster_dropoff_cluster_haversine_speed <= 12.136\nmse = 0.111\nsamples = 15151\nvalue = 6.9924"] ;
924 -> 956 ;
957 [label="avg_pickup_weekday_hour_manhattan_speed <= 15.5442\nmse = 0.0978\nsamples = 7348\nvalue = 7.0754"] ;
956 -> 957 ;
958 [label="avg_dropoff_cluster_pickup_hour_haversine_speed <= 11.6205\nmse = 0.0931\nsamples = 3962\nvalue = 7.1515"] ;
957 -> 958 ;
959 [label="haversine_distance <= 3.0056\nmse = 0.0917\nsamples = 2530\nvalue = 7.1982"] ;
958 -> 959 ;
960 [label="mse = 0.1007\nsamples = 1738\nvalue = 7.1618"] ;
959 -> 960 ;
961 [label="mse = 0.0632\nsamples = 792\nvalue = 7.2766"] ;
959 -> 961 ;
962 [label="avg_pickup_cluster_pickup_hour_manhattan_speed <= 16.4544\nmse = 0.0854\nsamples = 1432\nvalue = 7.0721"] ;
958 -> 962 ;
963 [label="mse = 0.0828\nsamples = 1072\nvalue = 7.1093"] ;
962 -> 963 ;
964 [label="mse = 0.0759\nsamples = 360\nvalue = 6.9573"] ;
962 -> 964 ;
965 [label="haversine_distance <= 2.8944\nmse = 0.0887\nsamples = 3386\nvalue = 6.9864"] ;
957 -> 965 ;
966 [label="avg_pickup_cluster_dropoff_cluster_haversine_speed <= 11.1574\nmse = 0.0809\nsamples = 1759\nvalue = 6.9382"] ;
965 -> 966 ;
967 [label="mse = 0.084\nsamples = 899\nvalue = 6.9986"] ;
966 -> 967 ;
968 [label="mse = 0.0695\nsamples = 860\nvalue = 6.8729"] ;
966 -> 968 ;
969 [label="avg_pickup_cluster_dropoff_cluster_haversine_speed <= 9.7347\nmse = 0.0918\nsamples = 1627\nvalue = 7.0379"] ;
965 -> 969 ;
970 [label="mse = 0.09\nsamples = 85\nvalue = 7.2317"] ;
969 -> 970 ;
971 [label="mse = 0.0897\nsamples = 1542\nvalue = 7.0271"] ;
969 -> 971 ;
972 [label="avg_pickup_weekday_hour_manhattan_speed <= 15.5442\nmse = 0.1108\nsamples = 7803\nvalue = 6.9143"] ;
956 -> 972 ;
973 [label="avg_dropoff_cluster_pickup_hour_haversine_speed <= 10.2716\nmse = 0.1071\nsamples = 4383\nvalue = 6.9827"] ;
972 -> 973 ;
974 [label="passthru_longitude <= -74.0003\nmse = 0.1494\nsamples = 972\nvalue = 7.1101"] ;
973 -> 974 ;
975 [label="mse = 4.844\nsamples = 2\nvalue = 9.1555"] ;
974 -> 975 ;
976 [label="mse = 0.138\nsamples = 970\nvalue = 7.1074"] ;
974 -> 976 ;
977 [label="haversine_distance <= 2.9433\nmse = 0.0889\nsamples = 3411\nvalue = 6.946"] ;
973 -> 977 ;
978 [label="mse = 0.0804\nsamples = 1889\nvalue = 6.8944"] ;
977 -> 978 ;
979 [label="mse = 0.0919\nsamples = 1522\nvalue = 7.0102"] ;
977 -> 979 ;
980 [label="haversine_distance <= 2.9397\nmse = 0.102\nsamples = 3420\nvalue = 6.8272"] ;
972 -> 980 ;
981 [label="haversine_distance <= 2.6412\nmse = 0.0931\nsamples = 1820\nvalue = 6.765"] ;
980 -> 981 ;
982 [label="mse = 5.7111\nsamples = 2\nvalue = 8.976"] ;
981 -> 982 ;
983 [label="mse = 0.0858\nsamples = 1818\nvalue = 6.7635"] ;
981 -> 983 ;
984 [label="avg_dropoff_cluster_pickup_hour_haversine_speed <= 13.0308\nmse = 0.1027\nsamples = 1600\nvalue = 6.8969"] ;
980 -> 984 ;
985 [label="mse = 0.1203\nsamples = 1146\nvalue = 6.9216"] ;
984 -> 985 ;
986 [label="mse = 0.0522\nsamples = 454\nvalue = 6.8337"] ;
984 -> 986 ;
987 [label="avg_pickup_cluster_dropoff_cluster_haversine_speed <= 17.6228\nmse = 0.1797\nsamples = 17736\nvalue = 6.5675"] ;
923 -> 987 ;
988 [label="haversine_distance <= 2.6349\nmse = 0.171\nsamples = 11922\nvalue = 6.6479"] ;
987 -> 988 ;
989 [label="avg_pickup_weekday_hour_haversine_speed <= 11.6067\nmse = 0.1489\nsamples = 5398\nvalue = 6.5297"] ;
988 -> 989 ;
990 [label="avg_dropoff_cluster_pickup_hour_haversine_speed <= 11.8492\nmse = 0.1386\nsamples = 2290\nvalue = 6.625"] ;
989 -> 990 ;
991 [label="avg_dropoff_cluster_pickup_hour_haversine_speed <= 9.8364\nmse = 0.1604\nsamples = 886\nvalue = 6.7187"] ;
990 -> 991 ;
992 [label="mse = 0.1029\nsamples = 93\nvalue = 6.917"] ;
991 -> 992 ;
993 [label="mse = 0.1619\nsamples = 793\nvalue = 6.6967"] ;
991 -> 993 ;
994 [label="haversine_distance <= 2.4394\nmse = 0.1155\nsamples = 1404\nvalue = 6.5652"] ;
990 -> 994 ;
995 [label="mse = 0.1228\nsamples = 841\nvalue = 6.5189"] ;
994 -> 995 ;
996 [label="mse = 0.0961\nsamples = 563\nvalue = 6.6354"] ;
994 -> 996 ;
997 [label="avg_pickup_cluster_dropoff_cluster_haversine_speed <= 15.7714\nmse = 0.145\nsamples = 3108\nvalue = 6.4601"] ;
989 -> 997 ;
998 [label="avg_dropoff_cluster_pickup_hour_haversine_speed <= 11.5274\nmse = 0.1319\nsamples = 1611\nvalue = 6.5163"] ;
997 -> 998 ;
999 [label="mse = 0.1968\nsamples = 498\nvalue = 6.5901"] ;
998 -> 999 ;
1000 [label="mse = 0.0988\nsamples = 1113\nvalue = 6.4828"] ;
998 -> 1000 ;
1001 [label="haversine_distance <= 2.3607\nmse = 0.152\nsamples = 1497\nvalue = 6.4001"] ;
997 -> 1001 ;
1002 [label="mse = 0.1571\nsamples = 617\nvalue = 6.3243"] ;
1001 -> 1002 ;
1003 [label="mse = 0.1415\nsamples = 880\nvalue = 6.4534"] ;
1001 -> 1003 ;
1004 [label="avg_pickup_weekday_hour_manhattan_speed <= 15.3919\nmse = 0.1679\nsamples = 6524\nvalue = 6.7468"] ;
988 -> 1004 ;
1005 [label="passthru_latitude <= 40.7796\nmse = 0.1682\nsamples = 3438\nvalue = 6.8205"] ;
1004 -> 1005 ;
1006 [label="passthru_latitude <= 40.7795\nmse = 0.176\nsamples = 3037\nvalue = 6.843"] ;
1005 -> 1006 ;
1007 [label="mse = 0.1632\nsamples = 3036\nvalue = 6.8401"] ;
1006 -> 1007 ;
1008 [label="mse = 0.0\nsamples = 1\nvalue = 11.3545"] ;
1006 -> 1008 ;
1009 [label="avg_pickup_cluster_dropoff_cluster_manhattan_speed <= 20.5961\nmse = 0.0724\nsamples = 401\nvalue = 6.6451"] ;
1005 -> 1009 ;
1010 [label="mse = 0.0577\nsamples = 209\nvalue = 6.7337"] ;
1009 -> 1010 ;
1011 [label="mse = 0.0706\nsamples = 192\nvalue = 6.5483"] ;
1009 -> 1011 ;
1012 [label="haversine_distance <= 2.9726\nmse = 0.1551\nsamples = 3086\nvalue = 6.6663"] ;
1004 -> 1012 ;
1013 [label="avg_pickup_cluster_dropoff_cluster_manhattan_speed <= 20.7403\nmse = 0.1415\nsamples = 1714\nvalue = 6.6133"] ;
1012 -> 1013 ;
1014 [label="mse = 0.1404\nsamples = 960\nvalue = 6.6641"] ;
1013 -> 1014 ;
1015 [label="mse = 0.1356\nsamples = 754\nvalue = 6.5498"] ;
1013 -> 1015 ;
1016 [label="avg_pickup_cluster_dropoff_cluster_haversine_speed <= 15.181\nmse = 0.1643\nsamples = 1372\nvalue = 6.7327"] ;
1012 -> 1016 ;
1017 [label="mse = 0.2316\nsamples = 478\nvalue = 6.8419"] ;
1016 -> 1017 ;
1018 [label="mse = 0.1208\nsamples = 894\nvalue = 6.6769"] ;
1016 -> 1018 ;
1019 [label="haversine_distance <= 2.6231\nmse = 0.1573\nsamples = 5814\nvalue = 6.4028"] ;
987 -> 1019 ;
1020 [label="avg_pickup_weekday_hour_manhattan_speed <= 15.7269\nmse = 0.1332\nsamples = 2478\nvalue = 6.2784"] ;
1019 -> 1020 ;
1021 [label="avg_dropoff_cluster_pickup_hour_manhattan_speed <= 19.9053\nmse = 0.1332\nsamples = 1493\nvalue = 6.3487"] ;
1020 -> 1021 ;
1022 [label="avg_pickup_cluster_pickup_hour_manhattan_speed <= 16.6418\nmse = 0.1303\nsamples = 1088\nvalue = 6.4033"] ;
1021 -> 1022 ;
1023 [label="mse = 0.1141\nsamples = 683\nvalue = 6.4638"] ;
1022 -> 1023 ;
1024 [label="mse = 0.1411\nsamples = 405\nvalue = 6.3071"] ;
1022 -> 1024 ;
1025 [label="dropoff_latitude <= 40.6566\nmse = 0.1105\nsamples = 405\nvalue = 6.1995"] ;
1021 -> 1025 ;
1026 [label="mse = 0.0002\nsamples = 2\nvalue = 5.1089"] ;
1025 -> 1026 ;
1027 [label="mse = 0.1035\nsamples = 403\nvalue = 6.2064"] ;
1025 -> 1027 ;
1028 [label="avg_pickup_cluster_dropoff_cluster_manhattan_speed <= 28.3442\nmse = 0.1144\nsamples = 985\nvalue = 6.172"] ;
1020 -> 1028 ;
1029 [label="haversine_distance <= 2.2928\nmse = 0.1048\nsamples = 764\nvalue = 6.2166"] ;
1028 -> 1029 ;
1030 [label="mse = 0.1081\nsamples = 218\nvalue = 6.1117"] ;
1029 -> 1030 ;
1031 [label="mse = 0.097\nsamples = 546\nvalue = 6.26"] ;
1029 -> 1031 ;
1032 [label="haversine_distance <= 2.3409\nmse = 0.1171\nsamples = 221\nvalue = 6.0201"] ;
1028 -> 1032 ;
1033 [label="mse = 0.0971\nsamples = 75\nvalue = 5.8527"] ;
1032 -> 1033 ;
1034 [label="mse = 0.1061\nsamples = 146\nvalue = 6.1038"] ;
1032 -> 1034 ;
1035 [label="avg_pickup_cluster_dropoff_cluster_haversine_speed <= 20.1813\nmse = 0.1552\nsamples = 3336\nvalue = 6.4957"] ;
1019 -> 1035 ;
1036 [label="avg_pickup_weekday_hour_haversine_speed <= 12.0088\nmse = 0.1625\nsamples = 2275\nvalue = 6.5521"] ;
1035 -> 1036 ;
1037 [label="manhattan_distance <= 4.0684\nmse = 0.1961\nsamples = 1281\nvalue = 6.625"] ;
1036 -> 1037 ;
1038 [label="mse = 0.1762\nsamples = 897\nvalue = 6.5829"] ;
1037 -> 1038 ;
1039 [label="mse = 0.2289\nsamples = 384\nvalue = 6.7243"] ;
1037 -> 1039 ;
1040 [label="haversine_distance <= 3.0097\nmse = 0.102\nsamples = 994\nvalue = 6.4561"] ;
1036 -> 1040 ;
1041 [label="mse = 0.1016\nsamples = 625\nvalue = 6.4025"] ;
1040 -> 1041 ;
1042 [label="mse = 0.0909\nsamples = 369\nvalue = 6.5403"] ;
1040 -> 1042 ;
1043 [label="haversine_distance <= 3.029\nmse = 0.1175\nsamples = 1061\nvalue = 6.3732"] ;
1035 -> 1043 ;
1044 [label="pickup_longitude <= -73.9991\nmse = 0.1128\nsamples = 677\nvalue = 6.3261"] ;
1043 -> 1044 ;
1045 [label="mse = 0.0416\nsamples = 3\nvalue = 7.1751"] ;
1044 -> 1045 ;
1046 [label="mse = 0.109\nsamples = 674\nvalue = 6.3212"] ;
1044 -> 1046 ;
1047 [label="avg_pickup_weekday_hour_manhattan_speed <= 15.8982\nmse = 0.1151\nsamples = 384\nvalue = 6.4539"] ;
1043 -> 1047 ;
1048 [label="mse = 0.0985\nsamples = 234\nvalue = 6.541"] ;
1047 -> 1048 ;
1049 [label="mse = 0.112\nsamples = 150\nvalue = 6.3258"] ;
1047 -> 1049 ;
