digraph Tree {
node [shape=box] ;
0 [label="haversine_distance <= 2.1073\nmse = 0.615\nsamples = 643004\nvalue = 6.4712"] ;
1 [label="haversine_distance <= 0.9911\nmse = 0.4497\nsamples = 322840\nvalue = 5.9865"] ;
0 -> 1 [labeldistance=2.5, labelangle=45, headlabel="True"] ;
2 [label="haversine_distance <= 0.0457\nmse = 0.562\nsamples = 104647\nvalue = 5.5569"] ;
1 -> 2 ;
3 [label="manhattan_distance <= 0.0153\nmse = 3.1059\nsamples = 2337\nvalue = 3.8192"] ;
2 -> 3 ;
4 [label="haversine_distance <= 0.0051\nmse = 2.187\nsamples = 1332\nvalue = 3.3115"] ;
3 -> 4 ;
5 [label="pickup_latitude <= 40.6575\nmse = 1.8042\nsamples = 906\nvalue = 3.139"] ;
4 -> 5 ;
6 [label="passenger_count <= 0.5\nmse = 1.4914\nsamples = 120\nvalue = 2.6678"] ;
5 -> 6 ;
7 [label="mse = 0.0\nsamples = 1\nvalue = 11.361"] ;
6 -> 7 ;
8 [label="pickup_hour <= 4.5\nmse = 1.1095\nsamples = 119\nvalue = 2.6233"] ;
6 -> 8 ;
9 [label="manhattan_distance <= 0.0023\nmse = 1.9841\nsamples = 12\nvalue = 3.8627"] ;
8 -> 9 ;
10 [label="avg_pickup_cluster_pickup_hour_haversine_speed <= 37.9444\nmse = 0.8417\nsamples = 9\nvalue = 3.1852"] ;
9 -> 10 ;
11 [label="mse = 0.6051\nsamples = 8\nvalue = 3.0035"] ;
10 -> 11 ;
12 [label="mse = 0.0\nsamples = 1\nvalue = 4.8203"] ;
10 -> 12 ;
13 [label="pickup_weekday_hour <= 120.0\nmse = 0.8231\nsamples = 3\nvalue = 5.5566"] ;
9 -> 13 ;
14 [label="mse = 0.1131\nsamples = 2\nvalue = 5.0605"] ;
13 -> 14 ;
15 [label="mse = -0.0\nsamples = 1\nvalue = 7.0449"] ;
13 -> 15 ;
16 [label="passenger_count <= 1.5\nmse = 0.9139\nsamples = 107\nvalue = 2.5274"] ;
8 -> 16 ;
17 [label="passthru_latitude <= 40.6329\nmse = 0.8006\nsamples = 72\nvalue = 2.2754"] ;
16 -> 17 ;
18 [label="mse = 1.3896\nsamples = 9\nvalue = 3.2792"] ;
17 -> 18 ;
19 [label="mse = 0.534\nsamples = 63\nvalue = 2.1225"] ;
17 -> 19 ;
20 [label="passthru_latitude <= 40.6441\nmse = 0.756\nsamples = 35\nvalue = 3.0355"] ;
16 -> 20 ;
21 [label="mse = 0.4987\nsamples = 16\nvalue = 3.5429"] ;
20 -> 21 ;
22 [label="mse = 0.5306\nsamples = 19\nvalue = 2.5609"] ;
20 -> 22 ;
23 [label="dropoff_longitude <= -73.9511\nmse = 1.813\nsamples = 786\nvalue = 3.2131"] ;
5 -> 23 ;
24 [label="passenger_count <= 1.5\nmse = 1.674\nsamples = 557\nvalue = 3.078"] ;
23 -> 24 ;
25 [label="pickup_longitude <= -73.9816\nmse = 1.6552\nsamples = 450\nvalue = 2.9675"] ;
24 -> 25 ;
26 [label="avg_pickup_weekday_hour_haversine_speed <= 12.9522\nmse = 1.7733\nsamples = 293\nvalue = 3.1622"] ;
25 -> 26 ;
27 [label="mse = 1.1055\nsamples = 83\nvalue = 2.6947"] ;
26 -> 27 ;
28 [label="mse = 1.9038\nsamples = 210\nvalue = 3.326"] ;
26 -> 28 ;
29 [label="avg_pickup_cluster_manhattan_speed <= 21.273\nmse = 1.1966\nsamples = 157\nvalue = 2.5812"] ;
25 -> 29 ;
30 [label="mse = 1.0088\nsamples = 151\nvalue = 2.4975"] ;
29 -> 30 ;
31 [label="mse = 2.0948\nsamples = 6\nvalue = 4.1783"] ;
29 -> 31 ;
32 [label="pickup_weekday_hour <= 164.5\nmse = 1.4973\nsamples = 107\nvalue = 3.5293"] ;
24 -> 32 ;
33 [label="avg_pickup_weekday_hour_manhattan_speed <= 13.9507\nmse = 1.3485\nsamples = 106\nvalue = 3.4859"] ;
32 -> 33 ;
34 [label="mse = 3.8501\nsamples = 4\nvalue = 4.9846"] ;
33 -> 34 ;
35 [label="mse = 1.0828\nsamples = 102\nvalue = 3.4042"] ;
33 -> 35 ;
36 [label="mse = -0.0\nsamples = 1\nvalue = 7.3085"] ;
32 -> 36 ;
37 [label="avg_pickup_weekday_hour_haversine_speed <= 12.8741\nmse = 2.002\nsamples = 229\nvalue = 3.5566"] ;
23 -> 37 ;
38 [label="avg_dropoff_cluster_pickup_hour_haversine_speed <= 14.7345\nmse = 2.0194\nsamples = 87\nvalue = 3.9052"] ;
37 -> 38 ;
39 [label="pickup_latitude <= 40.7515\nmse = 0.8785\nsamples = 50\nvalue = 3.4414"] ;
38 -> 39 ;
40 [label="mse = 0.6916\nsamples = 13\nvalue = 2.8225"] ;
39 -> 40 ;
41 [label="mse = 0.7405\nsamples = 37\nvalue = 3.6869"] ;
39 -> 41 ;
42 [label="avg_pickup_cluster_manhattan_speed <= 20.9297\nmse = 2.8619\nsamples = 37\nvalue = 4.5111"] ;
38 -> 42 ;
43 [label="mse = 6.1191\nsamples = 7\nvalue = 6.0577"] ;
42 -> 43 ;
44 [label="mse = 1.0107\nsamples = 30\nvalue = 4.06"] ;
42 -> 44 ;
45 [label="passthru_longitude <= -73.9503\nmse = 1.8501\nsamples = 142\nvalue = 3.3181"] ;
37 -> 45 ;
46 [label="dropoff_latitude <= 40.7755\nmse = 2.8026\nsamples = 4\nvalue = 5.3193"] ;
45 -> 46 ;
47 [label="mse = 0.0\nsamples = 1\nvalue = 1.9459"] ;
46 -> 47 ;
48 [label="mse = 0.6321\nsamples = 3\nvalue = 5.9939"] ;
46 -> 48 ;
49 [label="pickup_hour <= 22.5\nmse = 1.7\nsamples = 138\nvalue = 3.259"] ;
45 -> 49 ;
50 [label="mse = 1.5386\nsamples = 134\nvalue = 3.2061"] ;
49 -> 50 ;
51 [label="mse = 2.6689\nsamples = 4\nvalue = 5.8907"] ;
49 -> 51 ;
52 [label="dropoff_cluster <= 32.5\nmse = 2.8182\nsamples = 426\nvalue = 3.6898"] ;
4 -> 52 ;
53 [label="avg_pickup_cluster_haversine_speed <= 13.1788\nmse = 1.7459\nsamples = 151\nvalue = 3.2611"] ;
52 -> 53 ;
54 [label="manhattan_distance <= 0.0119\nmse = 0.8535\nsamples = 37\nvalue = 2.6124"] ;
53 -> 54 ;
55 [label="pickup_weekday_hour <= 158.5\nmse = 0.3649\nsamples = 21\nvalue = 3.0698"] ;
54 -> 55 ;
56 [label="avg_pickup_hour_haversine_speed <= 12.7124\nmse = 0.2969\nsamples = 20\nvalue = 3.1473"] ;
55 -> 56 ;
57 [label="mse = 0.1852\nsamples = 11\nvalue = 3.4785"] ;
56 -> 57 ;
58 [label="mse = 0.1733\nsamples = 9\nvalue = 2.7925"] ;
56 -> 58 ;
59 [label="mse = 0.0\nsamples = 1\nvalue = 1.9459"] ;
55 -> 59 ;
60 [label="manhattan_distance <= 0.0142\nmse = 0.939\nsamples = 16\nvalue = 2.2185"] ;
54 -> 60 ;
61 [label="pickup_weekday_hour <= 150.0\nmse = 0.5442\nsamples = 15\nvalue = 2.1103"] ;
60 -> 61 ;
62 [label="mse = 0.32\nsamples = 12\nvalue = 2.3887"] ;
61 -> 62 ;
63 [label="mse = 0.156\nsamples = 3\nvalue = 1.1705"] ;
61 -> 63 ;
64 [label="mse = 0.0\nsamples = 1\nvalue = 6.0064"] ;
60 -> 64 ;
65 [label="avg_pickup_cluster_pickup_hour_manhattan_speed <= 29.7286\nmse = 1.8651\nsamples = 114\nvalue = 3.5109"] ;
53 -> 65 ;
66 [label="pickup_weekday_hour <= 21.5\nmse = 1.94\nsamples = 85\nvalue = 3.8367"] ;
65 -> 66 ;
67 [label="avg_pickup_cluster_dropoff_cluster_haversine_speed <= 7.7817\nmse = 1.8699\nsamples = 10\nvalue = 5.5288"] ;
66 -> 67 ;
68 [label="mse = 0.0563\nsamples = 2\nvalue = 7.2593"] ;
67 -> 68 ;
69 [label="mse = 0.8578\nsamples = 8\nvalue = 4.8078"] ;
67 -> 69 ;
70 [label="haversine_distance <= 0.0109\nmse = 1.4399\nsamples = 75\nvalue = 3.5752"] ;
66 -> 70 ;
71 [label="mse = 1.2699\nsamples = 67\nvalue = 3.7999"] ;
70 -> 71 ;
72 [label="mse = 0.3986\nsamples = 8\nvalue = 2.2549"] ;
70 -> 72 ;
73 [label="avg_pickup_weekday_haversine_speed <= 15.0225\nmse = 0.6007\nsamples = 29\nvalue = 2.6305"] ;
65 -> 73 ;
74 [label="dropoff_latitude <= 40.6448\nmse = 0.5003\nsamples = 21\nvalue = 2.8786"] ;
73 -> 74 ;
75 [label="mse = 0.054\nsamples = 4\nvalue = 3.7147"] ;
74 -> 75 ;
76 [label="mse = 0.4359\nsamples = 17\nvalue = 2.7345"] ;
74 -> 76 ;
77 [label="manhattan_distance <= 0.0141\nmse = 0.2812\nsamples = 8\nvalue = 1.9815"] ;
73 -> 77 ;
78 [label="mse = 0.0706\nsamples = 6\nvalue = 1.7846"] ;
77 -> 78 ;
79 [label="mse = 0.0535\nsamples = 2\nvalue = 3.0645"] ;
77 -> 79 ;
80 [label="pickup_latitude <= 40.618\nmse = 3.2703\nsamples = 275\nvalue = 3.9376"] ;
52 -> 80 ;
81 [label="mse = 0.0\nsamples = 1\nvalue = 8.2664"] ;
80 -> 81 ;
82 [label="dropoff_longitude <= -73.7901\nmse = 3.1572\nsamples = 274\nvalue = 3.9062"] ;
80 -> 82 ;
83 [label="avg_dropoff_cluster_pickup_hour_manhattan_speed <= 11.0665\nmse = 3.1359\nsamples = 265\nvalue = 3.9811"] ;
82 -> 83 ;
84 [label="mse = 0.0\nsamples = 1\nvalue = 7.2399"] ;
83 -> 84 ;
85 [label="avg_pickup_weekday_hour_haversine_speed <= 14.5314\nmse = 3.0587\nsamples = 264\nvalue = 3.9479"] ;
83 -> 85 ;
86 [label="mse = 2.1629\nsamples = 142\nvalue = 3.6324"] ;
85 -> 86 ;
87 [label="mse = 3.8085\nsamples = 122\nvalue = 4.292"] ;
85 -> 87 ;
88 [label="pickup_weekday_hour <= 105.5\nmse = 0.4623\nsamples = 9\nvalue = 2.1567"] ;
82 -> 88 ;
89 [label="avg_pickup_cluster_dropoff_cluster_haversine_speed <= 9.0011\nmse = 0.0407\nsamples = 3\nvalue = 1.5539"] ;
88 -> 89 ;
90 [label="mse = 0.0\nsamples = 1\nvalue = 1.9459"] ;
89 -> 90 ;
91 [label="mse = 0.012\nsamples = 2\nvalue = 1.4756"] ;
89 -> 91 ;
92 [label="pickup_longitude <= -73.7896\nmse = 0.386\nsamples = 6\nvalue = 2.4855"] ;
88 -> 92 ;
93 [label="mse = 0.2191\nsamples = 2\nvalue = 1.9916"] ;
92 -> 93 ;
94 [label="mse = 0.1524\nsamples = 4\nvalue = 2.8971"] ;
92 -> 94 ;
95 [label="avg_pickup_cluster_pickup_hour_manhattan_speed <= 28.2614\nmse = 3.5295\nsamples = 1005\nvalue = 4.4871"] ;
3 -> 95 ;
96 [label="passenger_count <= 2.5\nmse = 3.4431\nsamples = 893\nvalue = 4.6515"] ;
95 -> 96 ;
97 [label="pickup_latitude <= 40.7676\nmse = 3.3899\nsamples = 800\nvalue = 4.5339"] ;
96 -> 97 ;
98 [label="haversine_distance <= 0.014\nmse = 3.09\nsamples = 611\nvalue = 4.3767"] ;
97 -> 98 ;
99 [label="pickup_latitude <= 40.7299\nmse = 2.6585\nsamples = 65\nvalue = 3.6965"] ;
98 -> 99 ;
100 [label="manhattan_distance <= 0.0174\nmse = 3.1182\nsamples = 22\nvalue = 4.8895"] ;
99 -> 100 ;
101 [label="mse = 2.4564\nsamples = 14\nvalue = 5.9053"] ;
100 -> 101 ;
102 [label="mse = 0.373\nsamples = 8\nvalue = 3.4048"] ;
100 -> 102 ;
103 [label="haversine_distance <= 0.0139\nmse = 1.5405\nsamples = 43\nvalue = 3.1663"] ;
99 -> 103 ;
104 [label="mse = 1.1516\nsamples = 39\nvalue = 3.5072"] ;
103 -> 104 ;
105 [label="mse = 0.3828\nsamples = 4\nvalue = 1.6187"] ;
103 -> 105 ;
106 [label="dropoff_cluster <= 94.5\nmse = 3.0794\nsamples = 546\nvalue = 4.4593"] ;
98 -> 106 ;
107 [label="avg_pickup_cluster_manhattan_speed <= 16.7416\nmse = 3.0645\nsamples = 500\nvalue = 4.3833"] ;
106 -> 107 ;
108 [label="mse = 2.8948\nsamples = 152\nvalue = 3.9795"] ;
107 -> 108 ;
109 [label="mse = 3.0418\nsamples = 348\nvalue = 4.5428"] ;
107 -> 109 ;
110 [label="avg_dropoff_cluster_pickup_hour_manhattan_speed <= 12.706\nmse = 2.6098\nsamples = 46\nvalue = 5.2069"] ;
106 -> 110 ;
111 [label="mse = 1.2765\nsamples = 7\nvalue = 3.6616"] ;
110 -> 111 ;
112 [label="mse = 2.272\nsamples = 39\nvalue = 5.5397"] ;
110 -> 112 ;
113 [label="dropoff_latitude <= 40.7995\nmse = 4.0185\nsamples = 189\nvalue = 5.0387"] ;
97 -> 113 ;
114 [label="avg_dropoff_cluster_pickup_hour_haversine_speed <= 23.0497\nmse = 4.0762\nsamples = 158\nvalue = 5.2401"] ;
113 -> 114 ;
115 [label="avg_pickup_weekday_hour_haversine_speed <= 19.4054\nmse = 3.7996\nsamples = 157\nvalue = 5.1899"] ;
114 -> 115 ;
116 [label="mse = 3.6271\nsamples = 148\nvalue = 5.2813"] ;
115 -> 116 ;
117 [label="mse = 3.8506\nsamples = 9\nvalue = 3.4228"] ;
115 -> 117 ;
118 [label="mse = 0.0\nsamples = 1\nvalue = 11.3654"] ;
114 -> 118 ;
119 [label="pickup_hour <= 8.5\nmse = 2.688\nsamples = 31\nvalue = 4.1036"] ;
113 -> 119 ;
120 [label="avg_pickup_cluster_haversine_speed <= 17.6124\nmse = 1.5337\nsamples = 4\nvalue = 6.2039"] ;
119 -> 120 ;
121 [label="mse = 0.4254\nsamples = 3\nvalue = 6.6453"] ;
120 -> 121 ;
122 [label="mse = 0.0\nsamples = 1\nvalue = 3.5553"] ;
120 -> 122 ;
123 [label="passthru_latitude <= 40.8069\nmse = 2.0902\nsamples = 27\nvalue = 3.784"] ;
119 -> 123 ;
124 [label="mse = 1.3877\nsamples = 9\nvalue = 2.6723"] ;
123 -> 124 ;
125 [label="mse = 1.4542\nsamples = 18\nvalue = 4.3769"] ;
123 -> 125 ;
126 [label="dropoff_longitude <= -73.9728\nmse = 2.7992\nsamples = 93\nvalue = 5.6388"] ;
96 -> 126 ;
127 [label="haversine_distance <= 0.0399\nmse = 3.2367\nsamples = 58\nvalue = 5.1867"] ;
126 -> 127 ;
128 [label="dropoff_latitude <= 40.7302\nmse = 2.49\nsamples = 52\nvalue = 4.9274"] ;
127 -> 128 ;
129 [label="dropoff_cluster <= 27.0\nmse = 0.3218\nsamples = 9\nvalue = 6.6971"] ;
128 -> 129 ;
130 [label="mse = 0.0594\nsamples = 2\nvalue = 7.5827"] ;
129 -> 130 ;
131 [label="mse = 0.1672\nsamples = 7\nvalue = 6.5004"] ;
129 -> 131 ;
132 [label="pickup_hour <= 20.5\nmse = 2.2474\nsamples = 43\nvalue = 4.6369"] ;
128 -> 132 ;
133 [label="mse = 1.6988\nsamples = 32\nvalue = 4.3182"] ;
132 -> 133 ;
134 [label="mse = 2.5769\nsamples = 11\nvalue = 5.7415"] ;
132 -> 134 ;
135 [label="avg_pickup_weekday_haversine_speed <= 13.4686\nmse = 4.6761\nsamples = 6\nvalue = 7.0248"] ;
127 -> 135 ;
136 [label="mse = 0.0\nsamples = 1\nvalue = 1.6094"] ;
135 -> 136 ;
137 [label="dropoff_longitude <= -73.9883\nmse = 1.9178\nsamples = 5\nvalue = 7.5663"] ;
135 -> 137 ;
138 [label="mse = 0.3595\nsamples = 3\nvalue = 8.8847"] ;
137 -> 138 ;
139 [label="mse = 0.0001\nsamples = 2\nvalue = 6.248"] ;
137 -> 139 ;
140 [label="avg_pickup_cluster_manhattan_speed <= 20.558\nmse = 1.4274\nsamples = 35\nvalue = 6.2985"] ;
126 -> 140 ;
141 [label="avg_dropoff_cluster_pickup_hour_haversine_speed <= 17.7312\nmse = 0.2968\nsamples = 24\nvalue = 6.7783"] ;
140 -> 141 ;
142 [label="haversine_distance <= 0.0294\nmse = 0.2242\nsamples = 23\nvalue = 6.8219"] ;
141 -> 142 ;
143 [label="mse = 0.1351\nsamples = 20\nvalue = 6.7439"] ;
142 -> 143 ;
144 [label="mse = 0.298\nsamples = 3\nvalue = 7.8104"] ;
142 -> 144 ;
145 [label="mse = -0.0\nsamples = 1\nvalue = 4.9904"] ;
141 -> 145 ;
146 [label="avg_pickup_cluster_pickup_hour_haversine_speed <= 14.373\nmse = 2.2928\nsamples = 11\nvalue = 5.2378"] ;
140 -> 146 ;
147 [label="avg_pickup_cluster_pickup_hour_haversine_speed <= 14.0336\nmse = 1.0386\nsamples = 3\nvalue = 6.4122"] ;
146 -> 147 ;
148 [label="mse = 0.0\nsamples = 1\nvalue = 4.0073"] ;
147 -> 148 ;
149 [label="mse = 0.0872\nsamples = 2\nvalue = 6.813"] ;
147 -> 149 ;
150 [label="pickup_hour <= 7.5\nmse = 1.7507\nsamples = 8\nvalue = 4.5528"] ;
146 -> 150 ;
151 [label="mse = 0.0\nsamples = 1\nvalue = 6.6147"] ;
150 -> 151 ;
152 [label="mse = 0.4447\nsamples = 7\nvalue = 3.8655"] ;
150 -> 152 ;
153 [label="pickup_weekday_hour <= 139.5\nmse = 2.4565\nsamples = 112\nvalue = 3.2552"] ;
95 -> 153 ;
154 [label="dropoff_latitude <= 40.774\nmse = 1.8303\nsamples = 92\nvalue = 2.9998"] ;
153 -> 154 ;
155 [label="avg_dropoff_cluster_pickup_hour_haversine_speed <= 23.3761\nmse = 1.3039\nsamples = 80\nvalue = 2.779"] ;
154 -> 155 ;
156 [label="avg_dropoff_cluster_pickup_hour_manhattan_speed <= 21.5675\nmse = 1.0579\nsamples = 39\nvalue = 3.2631"] ;
155 -> 156 ;
157 [label="mse = 0.0\nsamples = 1\nvalue = 6.8814"] ;
156 -> 157 ;
158 [label="avg_pickup_weekday_hour_haversine_speed <= 23.2243\nmse = 0.8502\nsamples = 38\nvalue = 3.2017"] ;
156 -> 158 ;
159 [label="mse = 0.8136\nsamples = 33\nvalue = 3.363"] ;
158 -> 159 ;
160 [label="mse = 0.1066\nsamples = 5\nvalue = 2.3061"] ;
158 -> 160 ;
161 [label="haversine_distance <= 0.0438\nmse = 1.167\nsamples = 41\nvalue = 2.3968"] ;
155 -> 161 ;
162 [label="avg_pickup_hour_manhattan_speed <= 20.4381\nmse = 0.7084\nsamples = 40\nvalue = 2.3178"] ;
161 -> 162 ;
163 [label="mse = 0.6901\nsamples = 24\nvalue = 2.6395"] ;
162 -> 163 ;
164 [label="mse = 0.3476\nsamples = 16\nvalue = 1.8351"] ;
162 -> 164 ;
165 [label="mse = -0.0\nsamples = 1\nvalue = 8.3209"] ;
161 -> 165 ;
166 [label="avg_pickup_cluster_dropoff_cluster_manhattan_speed <= 13.4645\nmse = 2.7493\nsamples = 12\nvalue = 4.5809"] ;
154 -> 166 ;
167 [label="avg_pickup_hour_manhattan_speed <= 22.2456\nmse = 1.0094\nsamples = 7\nvalue = 5.6976"] ;
166 -> 167 ;
168 [label="avg_dropoff_cluster_pickup_hour_manhattan_speed <= 31.3065\nmse = 0.2132\nsamples = 2\nvalue = 6.8376"] ;
167 -> 168 ;
169 [label="mse = 0.0\nsamples = 1\nvalue = 7.1041"] ;
168 -> 169 ;
170 [label="mse = -0.0\nsamples = 1\nvalue = 6.0379"] ;
168 -> 170 ;
171 [label="avg_dropoff_cluster_haversine_speed <= 14.2624\nmse = 0.2974\nsamples = 5\nvalue = 5.0462"] ;
167 -> 171 ;
172 [label="mse = 0.0128\nsamples = 2\nvalue = 4.1908"] ;
171 -> 172 ;
173 [label="mse = 0.0015\nsamples = 3\nvalue = 5.3883"] ;
171 -> 173 ;
174 [label="avg_pickup_cluster_pickup_hour_haversine_speed <= 25.3752\nmse = 1.0696\nsamples = 5\nvalue = 3.0455"] ;
166 -> 174 ;
175 [label="avg_pickup_weekday_haversine_speed <= 15.0225\nmse = 0.2716\nsamples = 3\nvalue = 3.7638"] ;
174 -> 175 ;
176 [label="mse = 0.0173\nsamples = 2\nvalue = 3.5099"] ;
175 -> 176 ;
177 [label="mse = -0.0\nsamples = 1\nvalue = 4.7791"] ;
175 -> 177 ;
178 [label="dropoff_cluster <= 38.5\nmse = 0.1068\nsamples = 2\nvalue = 1.8484"] ;
174 -> 178 ;
179 [label="mse = 0.0\nsamples = 1\nvalue = 1.3863"] ;
178 -> 179 ;
180 [label="mse = 0.0\nsamples = 1\nvalue = 2.0794"] ;
178 -> 180 ;
181 [label="pickup_weekday_hour <= 160.0\nmse = 3.6533\nsamples = 20\nvalue = 4.4544"] ;
153 -> 181 ;
182 [label="passthru_latitude <= 40.6447\nmse = 3.3493\nsamples = 15\nvalue = 4.9895"] ;
181 -> 182 ;
183 [label="dropoff_latitude <= 40.6447\nmse = 1.9236\nsamples = 2\nvalue = 8.5655"] ;
182 -> 183 ;
184 [label="mse = 0.0\nsamples = 1\nvalue = 7.5848"] ;
183 -> 184 ;
185 [label="mse = 0.0\nsamples = 1\nvalue = 10.5269"] ;
183 -> 185 ;
186 [label="dropoff_cluster <= 28.0\nmse = 1.5622\nsamples = 13\nvalue = 4.5019"] ;
182 -> 186 ;
187 [label="avg_pickup_hour_haversine_speed <= 16.4497\nmse = 0.8672\nsamples = 10\nvalue = 4.0775"] ;
186 -> 187 ;
188 [label="mse = 0.409\nsamples = 3\nvalue = 4.7988"] ;
187 -> 188 ;
189 [label="mse = 0.617\nsamples = 7\nvalue = 3.6185"] ;
187 -> 189 ;
190 [label="passthru_latitude <= 40.7211\nmse = 0.232\nsamples = 3\nvalue = 6.4117"] ;
186 -> 190 ;
191 [label="mse = 0.0\nsamples = 1\nvalue = 5.9558"] ;
190 -> 191 ;
192 [label="mse = 0.0484\nsamples = 2\nvalue = 6.8676"] ;
190 -> 192 ;
193 [label="pickup_latitude <= 40.6459\nmse = 0.9114\nsamples = 5\nvalue = 2.782"] ;
181 -> 193 ;
194 [label="pickup_weekday_hour <= 165.5\nmse = 0.2462\nsamples = 3\nvalue = 3.4171"] ;
193 -> 194 ;
195 [label="avg_pickup_weekday_hour_haversine_speed <= 15.6057\nmse = 0.0315\nsamples = 2\nvalue = 3.8063"] ;
194 -> 195 ;
196 [label="mse = 0.0\nsamples = 1\nvalue = 3.5553"] ;
195 -> 196 ;
197 [label="mse = -0.0\nsamples = 1\nvalue = 3.9318"] ;
195 -> 197 ;
198 [label="mse = 0.0\nsamples = 1\nvalue = 2.8332"] ;
194 -> 198 ;
199 [label="passthru_latitude <= 40.7104\nmse = 0.2274\nsamples = 2\nvalue = 1.7235"] ;
193 -> 199 ;
200 [label="mse = 0.0\nsamples = 1\nvalue = 2.3979"] ;
199 -> 200 ;
201 [label="mse = -0.0\nsamples = 1\nvalue = 1.3863"] ;
199 -> 201 ;
202 [label="avg_dropoff_cluster_pickup_hour_manhattan_speed <= 15.0603\nmse = 0.433\nsamples = 102310\nvalue = 5.5967"] ;
2 -> 202 ;
203 [label="haversine_distance <= 0.6354\nmse = 0.4278\nsamples = 33053\nvalue = 5.8445"] ;
202 -> 203 ;
204 [label="haversine_distance <= 0.4966\nmse = 0.5894\nsamples = 10095\nvalue = 5.5846"] ;
203 -> 204 ;
205 [label="manhattan_distance <= 0.1226\nmse = 0.7995\nsamples = 4952\nvalue = 5.4712"] ;
204 -> 205 ;
206 [label="avg_dropoff_cluster_pickup_hour_manhattan_speed <= 14.7192\nmse = 2.4115\nsamples = 262\nvalue = 4.9756"] ;
205 -> 206 ;
207 [label="pickup_hour <= 13.5\nmse = 2.2641\nsamples = 242\nvalue = 4.8844"] ;
206 -> 207 ;
208 [label="manhattan_distance <= 0.1143\nmse = 2.5819\nsamples = 114\nvalue = 5.1938"] ;
207 -> 208 ;
209 [label="mse = 2.5518\nsamples = 104\nvalue = 5.3489"] ;
208 -> 209 ;
210 [label="mse = 0.3217\nsamples = 10\nvalue = 3.6708"] ;
208 -> 210 ;
211 [label="avg_pickup_cluster_dropoff_cluster_manhattan_speed <= 13.1469\nmse = 1.8079\nsamples = 128\nvalue = 4.6025"] ;
207 -> 211 ;
212 [label="mse = 1.6657\nsamples = 124\nvalue = 4.5334"] ;
211 -> 212 ;
213 [label="mse = 1.2078\nsamples = 4\nvalue = 6.8585"] ;
211 -> 213 ;
214 [label="avg_pickup_weekday_hour_haversine_speed <= 11.6455\nmse = 2.8785\nsamples = 20\nvalue = 6.0756"] ;
206 -> 214 ;
215 [label="avg_dropoff_cluster_haversine_speed <= 12.8303\nmse = 3.0833\nsamples = 9\nvalue = 4.74"] ;
214 -> 215 ;
216 [label="mse = 0.4548\nsamples = 5\nvalue = 3.5054"] ;
215 -> 216 ;
217 [label="mse = 0.1332\nsamples = 4\nvalue = 6.9622"] ;
215 -> 217 ;
218 [label="avg_dropoff_cluster_manhattan_speed <= 14.5656\nmse = 0.2526\nsamples = 11\nvalue = 7.1145"] ;
214 -> 218 ;
219 [label="mse = 0.0\nsamples = 1\nvalue = 6.1003"] ;
218 -> 219 ;
220 [label="mse = 0.1395\nsamples = 10\nvalue = 7.2412"] ;
218 -> 220 ;
221 [label="avg_dropoff_cluster_pickup_hour_manhattan_speed <= 12.7219\nmse = 0.6934\nsamples = 4690\nvalue = 5.4993"] ;
205 -> 221 ;
222 [label="avg_pickup_cluster_dropoff_cluster_manhattan_speed <= 11.3532\nmse = 0.6805\nsamples = 1150\nvalue = 5.694"] ;
221 -> 222 ;
223 [label="haversine_distance <= 0.373\nmse = 0.7146\nsamples = 873\nvalue = 5.7676"] ;
222 -> 223 ;
224 [label="mse = 0.8483\nsamples = 426\nvalue = 5.6361"] ;
223 -> 224 ;
225 [label="mse = 0.554\nsamples = 447\nvalue = 5.8937"] ;
223 -> 225 ;
226 [label="avg_dropoff_cluster_pickup_hour_haversine_speed <= 9.0219\nmse = 0.5064\nsamples = 277\nvalue = 5.4661"] ;
222 -> 226 ;
227 [label="mse = 0.3508\nsamples = 45\nvalue = 5.1422"] ;
226 -> 227 ;
228 [label="mse = 0.5125\nsamples = 232\nvalue = 5.535"] ;
226 -> 228 ;
229 [label="avg_pickup_cluster_dropoff_cluster_haversine_speed <= 10.1347\nmse = 0.6814\nsamples = 3540\nvalue = 5.4365"] ;
221 -> 229 ;
230 [label="avg_pickup_weekday_hour_manhattan_speed <= 17.4263\nmse = 0.7043\nsamples = 2798\nvalue = 5.4818"] ;
229 -> 230 ;
231 [label="mse = 0.6891\nsamples = 2246\nvalue = 5.5251"] ;
230 -> 231 ;
232 [label="mse = 0.7276\nsamples = 552\nvalue = 5.3099"] ;
230 -> 232 ;
233 [label="haversine_distance <= 0.1642\nmse = 0.5602\nsamples = 742\nvalue = 5.2678"] ;
229 -> 233 ;
234 [label="mse = 1.3857\nsamples = 12\nvalue = 4.1767"] ;
233 -> 234 ;
235 [label="mse = 0.5251\nsamples = 730\nvalue = 5.2866"] ;
233 -> 235 ;
236 [label="avg_pickup_cluster_dropoff_cluster_haversine_speed <= 8.1261\nmse = 0.3636\nsamples = 5143\nvalue = 5.6936"] ;
204 -> 236 ;
237 [label="avg_pickup_weekday_hour_haversine_speed <= 14.5626\nmse = 0.3274\nsamples = 1397\nvalue = 5.9122"] ;
236 -> 237 ;
238 [label="dropoff_longitude <= -73.9781\nmse = 0.3231\nsamples = 1230\nvalue = 5.9556"] ;
237 -> 238 ;
239 [label="avg_dropoff_cluster_pickup_hour_manhattan_speed <= 12.5419\nmse = 0.3041\nsamples = 856\nvalue = 6.0227"] ;
238 -> 239 ;
240 [label="mse = 0.3399\nsamples = 378\nvalue = 6.1171"] ;
239 -> 240 ;
241 [label="mse = 0.2606\nsamples = 478\nvalue = 5.9441"] ;
239 -> 241 ;
242 [label="pickup_weekday_hour <= 132.5\nmse = 0.333\nsamples = 374\nvalue = 5.8053"] ;
238 -> 242 ;
243 [label="mse = 0.3244\nsamples = 336\nvalue = 5.8445"] ;
242 -> 243 ;
244 [label="mse = 0.2922\nsamples = 38\nvalue = 5.4936"] ;
242 -> 244 ;
245 [label="avg_pickup_weekday_hour_manhattan_speed <= 21.7537\nmse = 0.2472\nsamples = 167\nvalue = 5.6002"] ;
237 -> 245 ;
246 [label="dropoff_latitude <= 40.7584\nmse = 0.2248\nsamples = 132\nvalue = 5.6804"] ;
245 -> 246 ;
247 [label="mse = 0.2236\nsamples = 81\nvalue = 5.8175"] ;
246 -> 247 ;
248 [label="mse = 0.1591\nsamples = 51\nvalue = 5.4803"] ;
246 -> 248 ;
249 [label="dropoff_longitude <= -73.9986\nmse = 0.2066\nsamples = 35\nvalue = 5.2762"] ;
245 -> 249 ;
250 [label="mse = 0.2863\nsamples = 2\nvalue = 4.3402"] ;
249 -> 250 ;
251 [label="mse = 0.1461\nsamples = 33\nvalue = 5.3323"] ;
249 -> 251 ;
252 [label="avg_pickup_weekday_hour_haversine_speed <= 12.5105\nmse = 0.3528\nsamples = 3746\nvalue = 5.6132"] ;
236 -> 252 ;
253 [label="avg_pickup_cluster_dropoff_cluster_haversine_speed <= 9.8332\nmse = 0.338\nsamples = 2295\nvalue = 5.6941"] ;
252 -> 253 ;
254 [label="dropoff_latitude <= 40.7681\nmse = 0.3268\nsamples = 1059\nvalue = 5.7968"] ;
253 -> 254 ;
255 [label="mse = 0.3221\nsamples = 992\nvalue = 5.8224"] ;
254 -> 255 ;
256 [label="mse = 0.2165\nsamples = 67\nvalue = 5.3772"] ;
254 -> 256 ;
257 [label="avg_pickup_cluster_dropoff_cluster_manhattan_speed <= 19.6292\nmse = 0.3308\nsamples = 1236\nvalue = 5.6059"] ;
253 -> 257 ;
258 [label="mse = 0.3294\nsamples = 1185\nvalue = 5.6222"] ;
257 -> 258 ;
259 [label="mse = 0.1912\nsamples = 51\nvalue = 5.1948"] ;
257 -> 259 ;
260 [label="pickup_latitude <= 40.7141\nmse = 0.3499\nsamples = 1451\nvalue = 5.4878"] ;
252 -> 260 ;
261 [label="avg_pickup_cluster_pickup_hour_haversine_speed <= 14.9606\nmse = 6.8007\nsamples = 2\nvalue = 7.6759"] ;
260 -> 261 ;
262 [label="mse = 0.0\nsamples = 1\nvalue = 5.8319"] ;
261 -> 262 ;
263 [label="mse = -0.0\nsamples = 1\nvalue = 11.3639"] ;
261 -> 263 ;
264 [label="avg_pickup_cluster_dropoff_cluster_haversine_speed <= 11.54\nmse = 0.3208\nsamples = 1449\nvalue = 5.4821"] ;
260 -> 264 ;
265 [label="mse = 0.3131\nsamples = 1233\nvalue = 5.5233"] ;
264 -> 265 ;
266 [label="mse = 0.3015\nsamples = 216\nvalue = 5.2524"] ;
264 -> 266 ;
267 [label="avg_pickup_cluster_dropoff_cluster_haversine_speed <= 9.5902\nmse = 0.3141\nsamples = 22958\nvalue = 5.9586"] ;
203 -> 267 ;
268 [label="avg_pickup_weekday_hour_manhattan_speed <= 16.4713\nmse = 0.2759\nsamples = 10459\nvalue = 6.1185"] ;
267 -> 268 ;
269 [label="haversine_distance <= 0.8156\nmse = 0.2585\nsamples = 6630\nvalue = 6.2073"] ;
268 -> 269 ;
270 [label="avg_dropoff_cluster_pickup_hour_manhattan_speed <= 12.7239\nmse = 0.2626\nsamples = 3093\nvalue = 6.0926"] ;
269 -> 270 ;
271 [label="avg_pickup_cluster_dropoff_cluster_haversine_speed <= 8.0893\nmse = 0.2734\nsamples = 1159\nvalue = 6.2436"] ;
270 -> 271 ;
272 [label="mse = 0.2962\nsamples = 687\nvalue = 6.3137"] ;
271 -> 272 ;
273 [label="mse = 0.2236\nsamples = 472\nvalue = 6.1433"] ;
271 -> 273 ;
274 [label="avg_dropoff_cluster_pickup_hour_haversine_speed <= 10.4804\nmse = 0.2347\nsamples = 1934\nvalue = 6.0033"] ;
270 -> 274 ;
275 [label="mse = 0.2432\nsamples = 871\nvalue = 6.0874"] ;
274 -> 275 ;
276 [label="mse = 0.2183\nsamples = 1063\nvalue = 5.9377"] ;
274 -> 276 ;
277 [label="avg_dropoff_cluster_pickup_hour_manhattan_speed <= 13.2301\nmse = 0.2334\nsamples = 3537\nvalue = 6.3077"] ;
269 -> 277 ;
278 [label="avg_pickup_cluster_dropoff_cluster_haversine_speed <= 7.8937\nmse = 0.2293\nsamples = 2028\nvalue = 6.3809"] ;
277 -> 278 ;
279 [label="mse = 0.2236\nsamples = 843\nvalue = 6.4685"] ;
278 -> 279 ;
280 [label="mse = 0.2241\nsamples = 1185\nvalue = 6.3199"] ;
278 -> 280 ;
281 [label="avg_pickup_weekday_hour_manhattan_speed <= 14.9145\nmse = 0.2219\nsamples = 1509\nvalue = 6.2089"] ;
277 -> 281 ;
282 [label="mse = 0.2433\nsamples = 884\nvalue = 6.2604"] ;
281 -> 282 ;
283 [label="mse = 0.1808\nsamples = 625\nvalue = 6.1334"] ;
281 -> 283 ;
284 [label="avg_pickup_weekday_hour_manhattan_speed <= 19.3135\nmse = 0.2684\nsamples = 3829\nvalue = 5.9636"] ;
268 -> 284 ;
285 [label="haversine_distance <= 0.8466\nmse = 0.2763\nsamples = 3013\nvalue = 6.0171"] ;
284 -> 285 ;
286 [label="avg_pickup_cluster_dropoff_cluster_haversine_speed <= 8.7942\nmse = 0.2845\nsamples = 1621\nvalue = 5.929"] ;
285 -> 286 ;
287 [label="mse = 0.3205\nsamples = 1117\nvalue = 5.9897"] ;
286 -> 287 ;
288 [label="mse = 0.1733\nsamples = 504\nvalue = 5.789"] ;
286 -> 288 ;
289 [label="avg_pickup_cluster_dropoff_cluster_haversine_speed <= 8.7489\nmse = 0.2473\nsamples = 1392\nvalue = 6.1191"] ;
285 -> 289 ;
290 [label="mse = 0.2726\nsamples = 859\nvalue = 6.2073"] ;
289 -> 290 ;
291 [label="mse = 0.1792\nsamples = 533\nvalue = 5.9852"] ;
289 -> 291 ;
292 [label="haversine_distance <= 0.7584\nmse = 0.19\nsamples = 816\nvalue = 5.7668"] ;
284 -> 292 ;
293 [label="avg_dropoff_cluster_pickup_hour_haversine_speed <= 9.2284\nmse = 0.1944\nsamples = 254\nvalue = 5.5805"] ;
292 -> 293 ;
294 [label="mse = 0.2422\nsamples = 23\nvalue = 5.9386"] ;
293 -> 294 ;
295 [label="mse = 0.1717\nsamples = 231\nvalue = 5.5381"] ;
293 -> 295 ;
296 [label="avg_pickup_cluster_dropoff_cluster_haversine_speed <= 8.6885\nmse = 0.1645\nsamples = 562\nvalue = 5.8531"] ;
292 -> 296 ;
297 [label="mse = 0.1648\nsamples = 373\nvalue = 5.9194"] ;
296 -> 297 ;
298 [label="mse = 0.1373\nsamples = 189\nvalue = 5.7198"] ;
296 -> 298 ;
299 [label="avg_pickup_weekday_hour_haversine_speed <= 12.5105\nmse = 0.3069\nsamples = 12499\nvalue = 5.8255"] ;
267 -> 299 ;
300 [label="haversine_distance <= 0.8085\nmse = 0.2958\nsamples = 7700\nvalue = 5.9099"] ;
299 -> 300 ;
301 [label="avg_pickup_cluster_dropoff_cluster_haversine_speed <= 13.0121\nmse = 0.2763\nsamples = 3164\nvalue = 5.7934"] ;
300 -> 301 ;
302 [label="avg_dropoff_cluster_pickup_hour_haversine_speed <= 10.2803\nmse = 0.2594\nsamples = 2699\nvalue = 5.8394"] ;
301 -> 302 ;
303 [label="mse = 0.3311\nsamples = 955\nvalue = 5.9152"] ;
302 -> 303 ;
304 [label="mse = 0.2145\nsamples = 1744\nvalue = 5.7972"] ;
302 -> 304 ;
305 [label="dropoff_latitude <= 40.7663\nmse = 0.2913\nsamples = 465\nvalue = 5.5297"] ;
301 -> 305 ;
306 [label="mse = 0.3048\nsamples = 339\nvalue = 5.5944"] ;
305 -> 306 ;
307 [label="mse = 0.2111\nsamples = 126\nvalue = 5.3521"] ;
305 -> 307 ;
308 [label="avg_pickup_cluster_dropoff_cluster_manhattan_speed <= 18.3931\nmse = 0.2934\nsamples = 4536\nvalue = 5.9908"] ;
300 -> 308 ;
309 [label="haversine_distance <= 0.9287\nmse = 0.2669\nsamples = 3983\nvalue = 6.0229"] ;
308 -> 309 ;
310 [label="mse = 0.2417\nsamples = 2577\nvalue = 5.9755"] ;
309 -> 310 ;
311 [label="mse = 0.3002\nsamples = 1406\nvalue = 6.1063"] ;
309 -> 311 ;
312 [label="avg_dropoff_cluster_manhattan_speed <= 17.5481\nmse = 0.4256\nsamples = 553\nvalue = 5.7549"] ;
308 -> 312 ;
313 [label="mse = 0.2464\nsamples = 416\nvalue = 5.6764"] ;
312 -> 313 ;
314 [label="mse = 0.9158\nsamples = 137\nvalue = 6.0056"] ;
312 -> 314 ;
315 [label="avg_pickup_cluster_dropoff_cluster_haversine_speed <= 11.5355\nmse = 0.2952\nsamples = 4799\nvalue = 5.6918"] ;
299 -> 315 ;
316 [label="haversine_distance <= 0.8432\nmse = 0.2789\nsamples = 3322\nvalue = 5.7676"] ;
315 -> 316 ;
317 [label="avg_pickup_weekday_hour_manhattan_speed <= 21.6335\nmse = 0.2791\nsamples = 1700\nvalue = 5.672"] ;
316 -> 317 ;
318 [label="mse = 0.2702\nsamples = 1581\nvalue = 5.6965"] ;
317 -> 318 ;
319 [label="mse = 0.2874\nsamples = 119\nvalue = 5.3574"] ;
317 -> 319 ;
320 [label="avg_pickup_weekday_hour_haversine_speed <= 13.0597\nmse = 0.2585\nsamples = 1622\nvalue = 5.8696"] ;
316 -> 320 ;
321 [label="mse = 0.2484\nsamples = 550\nvalue = 5.9714"] ;
320 -> 321 ;
322 [label="mse = 0.2557\nsamples = 1072\nvalue = 5.818"] ;
320 -> 322 ;
323 [label="avg_pickup_weekday_hour_haversine_speed <= 14.2801\nmse = 0.2895\nsamples = 1477\nvalue = 5.5191"] ;
315 -> 323 ;
324 [label="avg_pickup_cluster_dropoff_cluster_manhattan_speed <= 17.6081\nmse = 0.2641\nsamples = 887\nvalue = 5.5909"] ;
323 -> 324 ;
325 [label="mse = 0.226\nsamples = 509\nvalue = 5.6713"] ;
324 -> 325 ;
326 [label="mse = 0.2943\nsamples = 378\nvalue = 5.4856"] ;
324 -> 326 ;
327 [label="dropoff_longitude <= -73.952\nmse = 0.3084\nsamples = 590\nvalue = 5.4111"] ;
323 -> 327 ;
328 [label="mse = 0.2711\nsamples = 586\nvalue = 5.4051"] ;
327 -> 328 ;
329 [label="mse = 7.0217\nsamples = 4\nvalue = 6.8026"] ;
327 -> 329 ;
330 [label="haversine_distance <= 0.6433\nmse = 0.3923\nsamples = 69257\nvalue = 5.4786"] ;
202 -> 330 ;
331 [label="haversine_distance <= 0.4549\nmse = 0.5644\nsamples = 23615\nvalue = 5.251"] ;
330 -> 331 ;
332 [label="passthru_longitude <= -73.8345\nmse = 0.8699\nsamples = 9201\nvalue = 5.1212"] ;
331 -> 332 ;
333 [label="avg_pickup_cluster_pickup_hour_haversine_speed <= 17.4084\nmse = 0.8201\nsamples = 9033\nvalue = 5.1403"] ;
332 -> 333 ;
334 [label="avg_pickup_cluster_dropoff_cluster_manhattan_speed <= 13.0323\nmse = 0.7896\nsamples = 7445\nvalue = 5.1792"] ;
333 -> 334 ;
335 [label="manhattan_distance <= 0.2018\nmse = 0.8204\nsamples = 4308\nvalue = 5.2511"] ;
334 -> 335 ;
336 [label="mse = 1.9519\nsamples = 706\nvalue = 5.0712"] ;
335 -> 336 ;
337 [label="mse = 0.5963\nsamples = 3602\nvalue = 5.2856"] ;
335 -> 337 ;
338 [label="passthru_longitude <= -74.0091\nmse = 0.7293\nsamples = 3137\nvalue = 5.079"] ;
334 -> 338 ;
339 [label="mse = 0.7351\nsamples = 34\nvalue = 5.7222"] ;
338 -> 339 ;
340 [label="mse = 0.7251\nsamples = 3103\nvalue = 5.0727"] ;
338 -> 340 ;
341 [label="dropoff_longitude <= -73.8728\nmse = 0.9234\nsamples = 1588\nvalue = 4.9574"] ;
333 -> 341 ;
342 [label="avg_pickup_cluster_dropoff_cluster_manhattan_speed <= 17.5274\nmse = 0.8685\nsamples = 1539\nvalue = 4.9283"] ;
341 -> 342 ;
343 [label="mse = 0.8429\nsamples = 1392\nvalue = 4.9656"] ;
342 -> 343 ;
344 [label="mse = 0.971\nsamples = 147\nvalue = 4.5439"] ;
342 -> 344 ;
345 [label="haversine_distance <= 0.111\nmse = 1.7827\nsamples = 49\nvalue = 5.9139"] ;
341 -> 345 ;
346 [label="mse = 1.9451\nsamples = 12\nvalue = 6.9607"] ;
345 -> 346 ;
347 [label="mse = 1.1664\nsamples = 37\nvalue = 5.5261"] ;
345 -> 347 ;
348 [label="haversine_distance <= 0.2124\nmse = 2.5173\nsamples = 168\nvalue = 3.9843"] ;
332 -> 348 ;
349 [label="avg_pickup_hour_haversine_speed <= 12.3448\nmse = 2.241\nsamples = 103\nvalue = 3.5134"] ;
348 -> 349 ;
350 [label="manhattan_distance <= 0.0697\nmse = 3.0183\nsamples = 25\nvalue = 4.2538"] ;
349 -> 350 ;
351 [label="mse = 4.913\nsamples = 3\nvalue = 7.633"] ;
350 -> 351 ;
352 [label="mse = 1.0688\nsamples = 22\nvalue = 3.8092"] ;
350 -> 352 ;
353 [label="haversine_distance <= 0.0771\nmse = 1.6263\nsamples = 78\nvalue = 3.2186"] ;
349 -> 353 ;
354 [label="mse = 0.4322\nsamples = 23\nvalue = 2.302"] ;
353 -> 354 ;
355 [label="mse = 1.651\nsamples = 55\nvalue = 3.5241"] ;
353 -> 355 ;
356 [label="dropoff_latitude <= 40.6448\nmse = 1.9716\nsamples = 65\nvalue = 4.7832"] ;
348 -> 356 ;
357 [label="haversine_distance <= 0.4042\nmse = 2.2999\nsamples = 11\nvalue = 6.2705"] ;
356 -> 357 ;
358 [label="mse = 0.9246\nsamples = 9\nvalue = 5.6462"] ;
357 -> 358 ;
359 [label="mse = 0.0047\nsamples = 2\nvalue = 8.7679"] ;
357 -> 359 ;
360 [label="haversine_distance <= 0.2193\nmse = 1.3658\nsamples = 54\nvalue = 4.4817"] ;
356 -> 360 ;
361 [label="mse = 0.3688\nsamples = 2\nvalue = 6.711"] ;
360 -> 361 ;
362 [label="mse = 1.189\nsamples = 52\nvalue = 4.3875"] ;
360 -> 362 ;
363 [label="avg_pickup_cluster_dropoff_cluster_manhattan_speed <= 14.5055\nmse = 0.3521\nsamples = 14414\nvalue = 5.3337"] ;
331 -> 363 ;
364 [label="avg_pickup_cluster_pickup_hour_haversine_speed <= 15.5484\nmse = 0.3315\nsamples = 9186\nvalue = 5.4163"] ;
363 -> 364 ;
365 [label="avg_pickup_cluster_dropoff_cluster_haversine_speed <= 9.5912\nmse = 0.3301\nsamples = 6612\nvalue = 5.4797"] ;
364 -> 365 ;
366 [label="pickup_latitude <= 40.7641\nmse = 0.3196\nsamples = 3033\nvalue = 5.5705"] ;
365 -> 366 ;
367 [label="mse = 0.3404\nsamples = 2392\nvalue = 5.6097"] ;
366 -> 367 ;
368 [label="mse = 0.2172\nsamples = 641\nvalue = 5.4267"] ;
366 -> 368 ;
369 [label="passthru_latitude <= 40.8915\nmse = 0.3262\nsamples = 3579\nvalue = 5.4028"] ;
365 -> 369 ;
370 [label="mse = 0.3199\nsamples = 3578\nvalue = 5.4018"] ;
369 -> 370 ;
371 [label="mse = 0.0\nsamples = 1\nvalue = 11.3654"] ;
369 -> 371 ;
372 [label="dropoff_latitude <= 40.6416\nmse = 0.2986\nsamples = 2574\nvalue = 5.2548"] ;
364 -> 372 ;
373 [label="dropoff_longitude <= -73.7889\nmse = 0.1757\nsamples = 2\nvalue = 8.78"] ;
372 -> 373 ;
374 [label="mse = -0.0\nsamples = 1\nvalue = 8.4377"] ;
373 -> 374 ;
375 [label="mse = 0.0\nsamples = 1\nvalue = 9.2933"] ;
373 -> 375 ;
376 [label="passthru_latitude <= 40.7252\nmse = 0.2835\nsamples = 2572\nvalue = 5.2505"] ;
372 -> 376 ;
377 [label="mse = 0.2574\nsamples = 425\nvalue = 5.4739"] ;
376 -> 377 ;
378 [label="mse = 0.2769\nsamples = 2147\nvalue = 5.2067"] ;
376 -> 378 ;
379 [label="avg_pickup_weekday_hour_haversine_speed <= 17.5013\nmse = 0.3553\nsamples = 5228\nvalue = 5.1883"] ;
363 -> 379 ;
380 [label="avg_pickup_cluster_dropoff_cluster_manhattan_speed <= 16.9003\nmse = 0.3504\nsamples = 4401\nvalue = 5.2256"] ;
379 -> 380 ;
381 [label="haversine_distance <= 0.4554\nmse = 0.3506\nsamples = 1869\nvalue = 5.3067"] ;
380 -> 381 ;
382 [label="mse = 0.0\nsamples = 1\nvalue = 11.3635"] ;
381 -> 382 ;
383 [label="mse = 0.3257\nsamples = 1868\nvalue = 5.3026"] ;
381 -> 383 ;
384 [label="avg_pickup_cluster_manhattan_speed <= 22.9852\nmse = 0.3418\nsamples = 2532\nvalue = 5.1659"] ;
380 -> 384 ;
385 [label="mse = 0.3276\nsamples = 2462\nvalue = 5.1545"] ;
384 -> 385 ;
386 [label="mse = 0.6851\nsamples = 70\nvalue = 5.5825"] ;
384 -> 386 ;
387 [label="dropoff_latitude <= 40.7275\nmse = 0.337\nsamples = 827\nvalue = 4.9979"] ;
379 -> 387 ;
388 [label="passthru_longitude <= -74.0135\nmse = 0.2986\nsamples = 125\nvalue = 5.2975"] ;
387 -> 388 ;
389 [label="mse = 0.0\nsamples = 1\nvalue = 6.9641"] ;
388 -> 389 ;
390 [label="mse = 0.2602\nsamples = 124\nvalue = 5.2721"] ;
388 -> 390 ;
391 [label="avg_pickup_cluster_haversine_speed <= 12.1662\nmse = 0.3254\nsamples = 702\nvalue = 4.946"] ;
387 -> 391 ;
392 [label="mse = 0.2754\nsamples = 2\nvalue = 6.3145"] ;
391 -> 392 ;
393 [label="mse = 0.3142\nsamples = 700\nvalue = 4.9377"] ;
391 -> 393 ;
394 [label="avg_pickup_cluster_dropoff_cluster_manhattan_speed <= 15.5511\nmse = 0.2625\nsamples = 45642\nvalue = 5.5964"] ;
330 -> 394 ;
395 [label="avg_pickup_weekday_hour_manhattan_speed <= 21.798\nmse = 0.2424\nsamples = 28411\nvalue = 5.7046"] ;
394 -> 395 ;
396 [label="haversine_distance <= 0.8291\nmse = 0.2293\nsamples = 21728\nvalue = 5.7642"] ;
395 -> 396 ;
397 [label="avg_pickup_cluster_dropoff_cluster_haversine_speed <= 9.6171\nmse = 0.2329\nsamples = 10993\nvalue = 5.6699"] ;
396 -> 397 ;
398 [label="dropoff_latitude <= 40.7243\nmse = 0.2043\nsamples = 3841\nvalue = 5.7712"] ;
397 -> 398 ;
399 [label="mse = 0.2029\nsamples = 757\nvalue = 5.9256"] ;
398 -> 399 ;
400 [label="mse = 0.1976\nsamples = 3084\nvalue = 5.7341"] ;
398 -> 400 ;
401 [label="avg_pickup_weekday_hour_haversine_speed <= 12.6994\nmse = 0.2398\nsamples = 7152\nvalue = 5.6158"] ;
397 -> 401 ;
402 [label="mse = 0.2528\nsamples = 2843\nvalue = 5.6956"] ;
401 -> 402 ;
403 [label="mse = 0.2244\nsamples = 4309\nvalue = 5.5637"] ;
401 -> 403 ;
404 [label="avg_pickup_cluster_dropoff_cluster_haversine_speed <= 10.5544\nmse = 0.2073\nsamples = 10735\nvalue = 5.8604"] ;
396 -> 404 ;
405 [label="avg_dropoff_cluster_pickup_hour_haversine_speed <= 13.1185\nmse = 0.1957\nsamples = 6590\nvalue = 5.9238"] ;
404 -> 405 ;
406 [label="mse = 0.2237\nsamples = 3332\nvalue = 5.9876"] ;
405 -> 406 ;
407 [label="mse = 0.1591\nsamples = 3258\nvalue = 5.8595"] ;
405 -> 407 ;
408 [label="avg_pickup_weekday_hour_manhattan_speed <= 17.4854\nmse = 0.209\nsamples = 4145\nvalue = 5.758"] ;
404 -> 408 ;
409 [label="mse = 0.1907\nsamples = 2288\nvalue = 5.829"] ;
408 -> 409 ;
410 [label="mse = 0.2177\nsamples = 1857\nvalue = 5.6702"] ;
408 -> 410 ;
411 [label="avg_dropoff_cluster_pickup_hour_haversine_speed <= 16.4484\nmse = 0.2358\nsamples = 6683\nvalue = 5.5093"] ;
395 -> 411 ;
412 [label="avg_pickup_cluster_dropoff_cluster_haversine_speed <= 9.8512\nmse = 0.2415\nsamples = 4087\nvalue = 5.5814"] ;
411 -> 412 ;
413 [label="haversine_distance <= 0.8355\nmse = 0.2053\nsamples = 2053\nvalue = 5.6662"] ;
412 -> 413 ;
414 [label="mse = 0.1983\nsamples = 1127\nvalue = 5.5896"] ;
413 -> 414 ;
415 [label="mse = 0.1981\nsamples = 926\nvalue = 5.7589"] ;
413 -> 415 ;
416 [label="haversine_distance <= 0.8248\nmse = 0.2632\nsamples = 2034\nvalue = 5.4976"] ;
412 -> 416 ;
417 [label="mse = 0.3209\nsamples = 937\nvalue = 5.4181"] ;
416 -> 417 ;
418 [label="mse = 0.2021\nsamples = 1097\nvalue = 5.5674"] ;
416 -> 418 ;
419 [label="haversine_distance <= 0.8394\nmse = 0.2059\nsamples = 2596\nvalue = 5.3964"] ;
411 -> 419 ;
420 [label="avg_pickup_weekday_hour_manhattan_speed <= 26.4053\nmse = 0.2387\nsamples = 1439\nvalue = 5.3183"] ;
419 -> 420 ;
421 [label="mse = 0.2635\nsamples = 901\nvalue = 5.3825"] ;
420 -> 421 ;
422 [label="mse = 0.1793\nsamples = 538\nvalue = 5.2115"] ;
420 -> 422 ;
423 [label="avg_pickup_cluster_dropoff_cluster_manhattan_speed <= 13.648\nmse = 0.1464\nsamples = 1157\nvalue = 5.4958"] ;
419 -> 423 ;
424 [label="mse = 0.1297\nsamples = 791\nvalue = 5.5531"] ;
423 -> 424 ;
425 [label="mse = 0.1603\nsamples = 366\nvalue = 5.3757"] ;
423 -> 425 ;
426 [label="avg_pickup_weekday_hour_haversine_speed <= 14.6008\nmse = 0.2444\nsamples = 17231\nvalue = 5.4176"] ;
394 -> 426 ;
427 [label="haversine_distance <= 0.8407\nmse = 0.2377\nsamples = 10511\nvalue = 5.4902"] ;
426 -> 427 ;
428 [label="avg_pickup_cluster_dropoff_cluster_haversine_speed <= 13.7496\nmse = 0.2381\nsamples = 5251\nvalue = 5.4041"] ;
427 -> 428 ;
429 [label="haversine_distance <= 0.7199\nmse = 0.2192\nsamples = 2280\nvalue = 5.5088"] ;
428 -> 429 ;
430 [label="mse = 0.2286\nsamples = 789\nvalue = 5.4457"] ;
429 -> 430 ;
431 [label="mse = 0.2108\nsamples = 1491\nvalue = 5.543"] ;
429 -> 431 ;
432 [label="avg_pickup_cluster_dropoff_cluster_manhattan_speed <= 22.6735\nmse = 0.2377\nsamples = 2971\nvalue = 5.3224"] ;
428 -> 432 ;
433 [label="mse = 0.2376\nsamples = 2268\nvalue = 5.3622"] ;
432 -> 433 ;
434 [label="mse = 0.2171\nsamples = 703\nvalue = 5.1961"] ;
432 -> 434 ;
435 [label="avg_pickup_cluster_dropoff_cluster_haversine_speed <= 16.3341\nmse = 0.2227\nsamples = 5260\nvalue = 5.5751"] ;
427 -> 435 ;
436 [label="manhattan_distance <= 1.146\nmse = 0.2053\nsamples = 4193\nvalue = 5.621"] ;
435 -> 436 ;
437 [label="mse = 0.1478\nsamples = 1328\nvalue = 5.7146"] ;
436 -> 437 ;
438 [label="mse = 0.2259\nsamples = 2865\nvalue = 5.5775"] ;
436 -> 438 ;
439 [label="avg_pickup_cluster_pickup_hour_haversine_speed <= 12.8556\nmse = 0.2505\nsamples = 1067\nvalue = 5.391"] ;
435 -> 439 ;
440 [label="mse = 0.2984\nsamples = 506\nvalue = 5.4962"] ;
439 -> 440 ;
441 [label="mse = 0.1887\nsamples = 561\nvalue = 5.2967"] ;
439 -> 441 ;
442 [label="avg_pickup_cluster_dropoff_cluster_manhattan_speed <= 21.1775\nmse = 0.2338\nsamples = 6720\nvalue = 5.3045"] ;
426 -> 442 ;
443 [label="haversine_distance <= 0.7751\nmse = 0.2284\nsamples = 5682\nvalue = 5.3403"] ;
442 -> 443 ;
444 [label="manhattan_distance <= 0.8793\nmse = 0.256\nsamples = 1803\nvalue = 5.2238"] ;
443 -> 444 ;
445 [label="mse = 0.2829\nsamples = 537\nvalue = 5.3532"] ;
444 -> 445 ;
446 [label="mse = 0.2346\nsamples = 1266\nvalue = 5.1691"] ;
444 -> 446 ;
447 [label="avg_pickup_weekday_hour_haversine_speed <= 18.9081\nmse = 0.2063\nsamples = 3879\nvalue = 5.3945"] ;
443 -> 447 ;
448 [label="mse = 0.1884\nsamples = 2848\nvalue = 5.4391"] ;
447 -> 448 ;
449 [label="mse = 0.2353\nsamples = 1031\nvalue = 5.2702"] ;
447 -> 449 ;
450 [label="avg_dropoff_cluster_pickup_hour_manhattan_speed <= 42.4733\nmse = 0.2177\nsamples = 1038\nvalue = 5.1084"] ;
442 -> 450 ;
451 [label="haversine_distance <= 0.7469\nmse = 0.2088\nsamples = 1029\nvalue = 5.0973"] ;
450 -> 451 ;
452 [label="mse = 0.243\nsamples = 196\nvalue = 4.9586"] ;
451 -> 452 ;
453 [label="mse = 0.194\nsamples = 833\nvalue = 5.1324"] ;
451 -> 453 ;
454 [label="avg_pickup_cluster_dropoff_cluster_manhattan_speed <= 28.9186\nmse = 0.1996\nsamples = 9\nvalue = 5.9228"] ;
450 -> 454 ;
455 [label="mse = 0.0328\nsamples = 7\nvalue = 5.7131"] ;
454 -> 455 ;
456 [label="mse = 0.1089\nsamples = 2\nvalue = 6.6358"] ;
454 -> 456 ;
457 [label="avg_pickup_cluster_dropoff_cluster_haversine_speed <= 12.7214\nmse = 0.2654\nsamples = 218193\nvalue = 6.192"] ;
1 -> 457 ;
458 [label="avg_pickup_weekday_hour_manhattan_speed <= 18.907\nmse = 0.2257\nsamples = 144359\nvalue = 6.3139"] ;
457 -> 458 ;
459 [label="haversine_distance <= 1.4562\nmse = 0.207\nsamples = 90718\nvalue = 6.4355"] ;
458 -> 459 ;
460 [label="avg_pickup_cluster_dropoff_cluster_haversine_speed <= 9.5954\nmse = 0.2056\nsamples = 45430\nvalue = 6.2783"] ;
459 -> 460 ;
461 [label="avg_dropoff_cluster_pickup_hour_haversine_speed <= 11.3249\nmse = 0.1892\nsamples = 16020\nvalue = 6.4365"] ;
460 -> 461 ;
462 [label="avg_pickup_weekday_hour_haversine_speed <= 12.0556\nmse = 0.1897\nsamples = 11205\nvalue = 6.5019"] ;
461 -> 462 ;
463 [label="haversine_distance <= 1.1964\nmse = 0.1761\nsamples = 6545\nvalue = 6.5772"] ;
462 -> 463 ;
464 [label="avg_pickup_cluster_dropoff_cluster_haversine_speed <= 8.1814\nmse = 0.1845\nsamples = 3184\nvalue = 6.4864"] ;
463 -> 464 ;
465 [label="mse = 0.1551\nsamples = 1172\nvalue = 6.5879"] ;
464 -> 465 ;
466 [label="mse = 0.1922\nsamples = 2012\nvalue = 6.4277"] ;
464 -> 466 ;
467 [label="avg_pickup_cluster_dropoff_cluster_haversine_speed <= 8.1814\nmse = 0.1527\nsamples = 3361\nvalue = 6.6636"] ;
463 -> 467 ;
468 [label="mse = 0.1526\nsamples = 936\nvalue = 6.7712"] ;
467 -> 468 ;
469 [label="mse = 0.1467\nsamples = 2425\nvalue = 6.6225"] ;
467 -> 469 ;
470 [label="haversine_distance <= 1.232\nmse = 0.1896\nsamples = 4660\nvalue = 6.3958"] ;
462 -> 470 ;
471 [label="avg_pickup_weekday_hour_manhattan_speed <= 17.2583\nmse = 0.189\nsamples = 2606\nvalue = 6.3313"] ;
470 -> 471 ;
472 [label="mse = 0.1839\nsamples = 1751\nvalue = 6.3786"] ;
471 -> 472 ;
473 [label="mse = 0.1858\nsamples = 855\nvalue = 6.2384"] ;
471 -> 473 ;
474 [label="avg_pickup_cluster_dropoff_cluster_haversine_speed <= 8.3593\nmse = 0.1783\nsamples = 2054\nvalue = 6.4786"] ;
470 -> 474 ;
475 [label="mse = 0.2152\nsamples = 747\nvalue = 6.5829"] ;
474 -> 475 ;
476 [label="mse = 0.1467\nsamples = 1307\nvalue = 6.4177"] ;
474 -> 476 ;
477 [label="haversine_distance <= 1.1782\nmse = 0.156\nsamples = 4815\nvalue = 6.2875"] ;
461 -> 477 ;
478 [label="avg_dropoff_cluster_pickup_hour_manhattan_speed <= 16.9555\nmse = 0.1699\nsamples = 2141\nvalue = 6.1966"] ;
477 -> 478 ;
479 [label="avg_pickup_cluster_dropoff_cluster_manhattan_speed <= 10.8253\nmse = 0.1522\nsamples = 1544\nvalue = 6.2351"] ;
478 -> 479 ;
480 [label="mse = 0.1381\nsamples = 633\nvalue = 6.3075"] ;
479 -> 480 ;
481 [label="mse = 0.1559\nsamples = 911\nvalue = 6.1842"] ;
479 -> 481 ;
482 [label="avg_pickup_cluster_pickup_hour_haversine_speed <= 20.5091\nmse = 0.2027\nsamples = 597\nvalue = 6.0929"] ;
478 -> 482 ;
483 [label="mse = 0.1952\nsamples = 596\nvalue = 6.09"] ;
482 -> 483 ;
484 [label="mse = -0.0\nsamples = 1\nvalue = 8.7869"] ;
482 -> 484 ;
485 [label="avg_pickup_weekday_hour_manhattan_speed <= 14.6914\nmse = 0.1328\nsamples = 2674\nvalue = 6.3609"] ;
477 -> 485 ;
486 [label="avg_pickup_cluster_manhattan_speed <= 16.163\nmse = 0.1697\nsamples = 433\nvalue = 6.5143"] ;
485 -> 486 ;
487 [label="mse = 0.3055\nsamples = 94\nvalue = 6.7601"] ;
486 -> 487 ;
488 [label="mse = 0.1043\nsamples = 339\nvalue = 6.4394"] ;
486 -> 488 ;
489 [label="haversine_distance <= 1.3618\nmse = 0.1197\nsamples = 2241\nvalue = 6.3302"] ;
485 -> 489 ;
490 [label="mse = 0.1238\nsamples = 1587\nvalue = 6.2956"] ;
489 -> 490 ;
491 [label="mse = 0.1003\nsamples = 654\nvalue = 6.4128"] ;
489 -> 491 ;
492 [label="haversine_distance <= 1.1864\nmse = 0.1934\nsamples = 29410\nvalue = 6.1917"] ;
460 -> 492 ;
493 [label="avg_dropoff_cluster_pickup_hour_haversine_speed <= 11.8208\nmse = 0.1945\nsamples = 12674\nvalue = 6.0851"] ;
492 -> 493 ;
494 [label="avg_pickup_weekday_hour_manhattan_speed <= 16.3812\nmse = 0.2019\nsamples = 6597\nvalue = 6.1622"] ;
493 -> 494 ;
495 [label="avg_pickup_cluster_dropoff_cluster_haversine_speed <= 11.1189\nmse = 0.2076\nsamples = 4668\nvalue = 6.2107"] ;
494 -> 495 ;
496 [label="mse = 0.208\nsamples = 3343\nvalue = 6.2518"] ;
495 -> 496 ;
497 [label="mse = 0.1914\nsamples = 1325\nvalue = 6.1065"] ;
495 -> 497 ;
498 [label="avg_pickup_weekday_hour_haversine_speed <= 13.3131\nmse = 0.1686\nsamples = 1929\nvalue = 6.0448"] ;
494 -> 498 ;
499 [label="mse = 0.1708\nsamples = 994\nvalue = 6.1084"] ;
498 -> 499 ;
500 [label="mse = 0.1578\nsamples = 935\nvalue = 5.9792"] ;
498 -> 500 ;
501 [label="avg_pickup_cluster_dropoff_cluster_haversine_speed <= 10.7516\nmse = 0.1732\nsamples = 6077\nvalue = 6.0017"] ;
493 -> 501 ;
502 [label="avg_pickup_weekday_hour_haversine_speed <= 11.7042\nmse = 0.144\nsamples = 2722\nvalue = 6.0756"] ;
501 -> 502 ;
503 [label="mse = 0.1432\nsamples = 881\nvalue = 6.1453"] ;
502 -> 503 ;
504 [label="mse = 0.1412\nsamples = 1841\nvalue = 6.0439"] ;
502 -> 504 ;
505 [label="avg_pickup_weekday_hour_manhattan_speed <= 15.5442\nmse = 0.1889\nsamples = 3355\nvalue = 5.941"] ;
501 -> 505 ;
506 [label="mse = 0.1918\nsamples = 1522\nvalue = 6.0051"] ;
505 -> 506 ;
507 [label="mse = 0.1804\nsamples = 1833\nvalue = 5.8882"] ;
505 -> 507 ;
508 [label="avg_pickup_weekday_hour_haversine_speed <= 12.0556\nmse = 0.1774\nsamples = 16736\nvalue = 6.2723"] ;
492 -> 508 ;
509 [label="avg_dropoff_cluster_pickup_hour_haversine_speed <= 10.3174\nmse = 0.1879\nsamples = 8645\nvalue = 6.3472"] ;
508 -> 509 ;
510 [label="avg_pickup_cluster_dropoff_cluster_haversine_speed <= 10.5641\nmse = 0.1946\nsamples = 2082\nvalue = 6.4927"] ;
509 -> 510 ;
511 [label="mse = 0.2375\nsamples = 1076\nvalue = 6.5698"] ;
510 -> 511 ;
512 [label="mse = 0.137\nsamples = 1006\nvalue = 6.412"] ;
510 -> 512 ;
513 [label="avg_pickup_cluster_dropoff_cluster_haversine_speed <= 11.1732\nmse = 0.1767\nsamples = 6563\nvalue = 6.3001"] ;
509 -> 513 ;
514 [label="mse = 0.1706\nsamples = 4053\nvalue = 6.3522"] ;
513 -> 514 ;
515 [label="mse = 0.1751\nsamples = 2510\nvalue = 6.216"] ;
513 -> 515 ;
516 [label="avg_pickup_cluster_dropoff_cluster_haversine_speed <= 11.3922\nmse = 0.1534\nsamples = 8091\nvalue = 6.1913"] ;
508 -> 516 ;
517 [label="haversine_distance <= 1.3097\nmse = 0.1478\nsamples = 5807\nvalue = 6.2371"] ;
516 -> 517 ;
518 [label="mse = 0.1267\nsamples = 2665\nvalue = 6.1722"] ;
517 -> 518 ;
519 [label="mse = 0.1591\nsamples = 3142\nvalue = 6.2921"] ;
517 -> 519 ;
520 [label="avg_pickup_weekday_hour_manhattan_speed <= 16.7402\nmse = 0.1488\nsamples = 2284\nvalue = 6.0752"] ;
516 -> 520 ;
521 [label="mse = 0.1551\nsamples = 979\nvalue = 6.137"] ;
520 -> 521 ;
522 [label="mse = 0.1391\nsamples = 1305\nvalue = 6.0291"] ;
520 -> 522 ;
523 [label="avg_pickup_cluster_dropoff_cluster_haversine_speed <= 10.4122\nmse = 0.1586\nsamples = 45288\nvalue = 6.5936"] ;
459 -> 523 ;
524 [label="avg_pickup_weekday_hour_manhattan_speed <= 16.4713\nmse = 0.1446\nsamples = 20053\nvalue = 6.6992"] ;
523 -> 524 ;
525 [label="haversine_distance <= 1.6996\nmse = 0.1415\nsamples = 12168\nvalue = 6.776"] ;
524 -> 525 ;
526 [label="avg_pickup_cluster_dropoff_cluster_haversine_speed <= 9.231\nmse = 0.1488\nsamples = 5879\nvalue = 6.6916"] ;
525 -> 526 ;
527 [label="avg_pickup_weekday_hour_haversine_speed <= 11.1\nmse = 0.1458\nsamples = 2362\nvalue = 6.7974"] ;
526 -> 527 ;
528 [label="mse = 0.1603\nsamples = 851\nvalue = 6.8836"] ;
527 -> 528 ;
529 [label="mse = 0.1315\nsamples = 1511\nvalue = 6.75"] ;
527 -> 529 ;
530 [label="avg_dropoff_cluster_pickup_hour_haversine_speed <= 11.1075\nmse = 0.1381\nsamples = 3517\nvalue = 6.6204"] ;
526 -> 530 ;
531 [label="mse = 0.1467\nsamples = 1795\nvalue = 6.6937"] ;
530 -> 531 ;
532 [label="mse = 0.1173\nsamples = 1722\nvalue = 6.5428"] ;
530 -> 532 ;
533 [label="passthru_latitude <= 40.7407\nmse = 0.1215\nsamples = 6289\nvalue = 6.8561"] ;
525 -> 533 ;
534 [label="avg_dropoff_cluster_pickup_hour_manhattan_speed <= 14.0596\nmse = 0.0826\nsamples = 1044\nvalue = 6.6886"] ;
533 -> 534 ;
535 [label="mse = 0.0949\nsamples = 236\nvalue = 6.7797"] ;
534 -> 535 ;
536 [label="mse = 0.0759\nsamples = 808\nvalue = 6.6621"] ;
534 -> 536 ;
537 [label="avg_pickup_cluster_dropoff_cluster_haversine_speed <= 9.4928\nmse = 0.1225\nsamples = 5245\nvalue = 6.8888"] ;
533 -> 537 ;
538 [label="mse = 0.1006\nsamples = 2420\nvalue = 6.959"] ;
537 -> 538 ;
539 [label="mse = 0.1335\nsamples = 2825\nvalue = 6.8276"] ;
537 -> 539 ;
540 [label="haversine_distance <= 1.7822\nmse = 0.1264\nsamples = 7885\nvalue = 6.5816"] ;
524 -> 540 ;
541 [label="avg_pickup_cluster_dropoff_cluster_haversine_speed <= 9.4495\nmse = 0.1209\nsamples = 4754\nvalue = 6.5198"] ;
540 -> 541 ;
542 [label="avg_dropoff_cluster_pickup_hour_manhattan_speed <= 12.5709\nmse = 0.1264\nsamples = 2143\nvalue = 6.585"] ;
541 -> 542 ;
543 [label="mse = 0.2254\nsamples = 426\nvalue = 6.6918"] ;
542 -> 543 ;
544 [label="mse = 0.0985\nsamples = 1717\nvalue = 6.5587"] ;
542 -> 544 ;
545 [label="avg_pickup_cluster_pickup_hour_haversine_speed <= 15.0723\nmse = 0.1099\nsamples = 2611\nvalue = 6.4657"] ;
541 -> 545 ;
546 [label="mse = 0.1066\nsamples = 2427\nvalue = 6.4793"] ;
545 -> 546 ;
547 [label="mse = 0.117\nsamples = 184\nvalue = 6.28"] ;
545 -> 547 ;
548 [label="passthru_longitude <= -73.973\nmse = 0.1203\nsamples = 3131\nvalue = 6.6741"] ;
540 -> 548 ;
549 [label="haversine_distance <= 1.9451\nmse = 0.1236\nsamples = 2779\nvalue = 6.694"] ;
548 -> 549 ;
550 [label="mse = 0.1134\nsamples = 1594\nvalue = 6.6579"] ;
549 -> 550 ;
551 [label="mse = 0.1332\nsamples = 1185\nvalue = 6.7428"] ;
549 -> 551 ;
552 [label="avg_pickup_cluster_pickup_hour_manhattan_speed <= 20.503\nmse = 0.0671\nsamples = 352\nvalue = 6.5183"] ;
548 -> 552 ;
553 [label="mse = 0.0641\nsamples = 321\nvalue = 6.5444"] ;
552 -> 553 ;
554 [label="mse = 0.0357\nsamples = 31\nvalue = 6.2903"] ;
552 -> 554 ;
555 [label="haversine_distance <= 1.6953\nmse = 0.1539\nsamples = 25235\nvalue = 6.5103"] ;
523 -> 555 ;
556 [label="avg_pickup_weekday_hour_manhattan_speed <= 14.6914\nmse = 0.1548\nsamples = 9535\nvalue = 6.3978"] ;
555 -> 556 ;
557 [label="dropoff_latitude <= 40.7765\nmse = 0.1537\nsamples = 2932\nvalue = 6.5295"] ;
556 -> 557 ;
558 [label="avg_pickup_cluster_dropoff_cluster_haversine_speed <= 11.0752\nmse = 0.1569\nsamples = 2589\nvalue = 6.5539"] ;
557 -> 558 ;
559 [label="mse = 0.1561\nsamples = 1160\nvalue = 6.6124"] ;
558 -> 559 ;
560 [label="mse = 0.1524\nsamples = 1429\nvalue = 6.5059"] ;
558 -> 560 ;
561 [label="pickup_cluster <= 15.5\nmse = 0.0908\nsamples = 343\nvalue = 6.3448"] ;
557 -> 561 ;
562 [label="mse = 0.0637\nsamples = 54\nvalue = 6.1428"] ;
561 -> 562 ;
563 [label="mse = 0.0861\nsamples = 289\nvalue = 6.3869"] ;
561 -> 563 ;
564 [label="avg_pickup_weekday_hour_haversine_speed <= 13.0597\nmse = 0.1441\nsamples = 6603\nvalue = 6.3389"] ;
556 -> 564 ;
565 [label="avg_dropoff_cluster_pickup_hour_haversine_speed <= 10.4886\nmse = 0.1589\nsamples = 4075\nvalue = 6.3851"] ;
564 -> 565 ;
566 [label="mse = 0.2064\nsamples = 898\nvalue = 6.5095"] ;
565 -> 566 ;
567 [label="mse = 0.1401\nsamples = 3177\nvalue = 6.3502"] ;
565 -> 567 ;
568 [label="passthru_longitude <= -73.9842\nmse = 0.1119\nsamples = 2528\nvalue = 6.2654"] ;
564 -> 568 ;
569 [label="mse = 0.1072\nsamples = 1479\nvalue = 6.3294"] ;
568 -> 569 ;
570 [label="mse = 0.1042\nsamples = 1049\nvalue = 6.1732"] ;
568 -> 570 ;
571 [label="avg_pickup_weekday_hour_haversine_speed <= 12.0088\nmse = 0.1409\nsamples = 15700\nvalue = 6.5787"] ;
555 -> 571 ;
572 [label="avg_pickup_cluster_dropoff_cluster_haversine_speed <= 11.1891\nmse = 0.1275\nsamples = 7703\nvalue = 6.6623"] ;
571 -> 572 ;
573 [label="avg_dropoff_cluster_pickup_hour_haversine_speed <= 11.9299\nmse = 0.1249\nsamples = 3052\nvalue = 6.7521"] ;
572 -> 573 ;
574 [label="mse = 0.127\nsamples = 2110\nvalue = 6.7977"] ;
573 -> 574 ;
575 [label="mse = 0.1044\nsamples = 942\nvalue = 6.6474"] ;
573 -> 575 ;
576 [label="avg_dropoff_cluster_pickup_hour_haversine_speed <= 11.0907\nmse = 0.1202\nsamples = 4651\nvalue = 6.6024"] ;
572 -> 576 ;
577 [label="mse = 0.1258\nsamples = 1732\nvalue = 6.6732"] ;
576 -> 577 ;
578 [label="mse = 0.1122\nsamples = 2919\nvalue = 6.5605"] ;
576 -> 578 ;
579 [label="avg_pickup_cluster_dropoff_cluster_haversine_speed <= 11.4848\nmse = 0.1406\nsamples = 7997\nvalue = 6.4981"] ;
571 -> 579 ;
580 [label="passthru_longitude <= -73.9744\nmse = 0.1202\nsamples = 4152\nvalue = 6.5557"] ;
579 -> 580 ;
581 [label="mse = 0.1263\nsamples = 3053\nvalue = 6.5893"] ;
580 -> 581 ;
582 [label="mse = 0.0914\nsamples = 1099\nvalue = 6.4623"] ;
580 -> 582 ;
583 [label="haversine_distance <= 1.9253\nmse = 0.1555\nsamples = 3845\nvalue = 6.4341"] ;
579 -> 583 ;
584 [label="mse = 0.1561\nsamples = 2140\nvalue = 6.3901"] ;
583 -> 584 ;
585 [label="mse = 0.1489\nsamples = 1705\nvalue = 6.4913"] ;
583 -> 585 ;
586 [label="haversine_distance <= 1.4158\nmse = 0.1904\nsamples = 53641\nvalue = 6.1092"] ;
458 -> 586 ;
587 [label="avg_pickup_weekday_hour_manhattan_speed <= 23.8505\nmse = 0.1893\nsamples = 23655\nvalue = 5.9345"] ;
586 -> 587 ;
588 [label="avg_pickup_cluster_dropoff_cluster_haversine_speed <= 10.2432\nmse = 0.18\nsamples = 17425\nvalue = 6.0008"] ;
587 -> 588 ;
589 [label="haversine_distance <= 1.2056\nmse = 0.1849\nsamples = 9852\nvalue = 6.0851"] ;
588 -> 589 ;
590 [label="avg_pickup_weekday_hour_manhattan_speed <= 20.4217\nmse = 0.218\nsamples = 5203\nvalue = 6.0149"] ;
589 -> 590 ;
591 [label="avg_dropoff_cluster_pickup_hour_manhattan_speed <= 12.0514\nmse = 0.2213\nsamples = 2859\nvalue = 6.0775"] ;
590 -> 591 ;
592 [label="mse = 0.8608\nsamples = 118\nvalue = 6.4325"] ;
591 -> 592 ;
593 [label="mse = 0.1874\nsamples = 2741\nvalue = 6.0619"] ;
591 -> 593 ;
594 [label="haversine_distance <= 0.9914\nmse = 0.2035\nsamples = 2344\nvalue = 5.9386"] ;
590 -> 594 ;
595 [label="mse = 8.4946\nsamples = 3\nvalue = 8.4159"] ;
594 -> 595 ;
596 [label="mse = 0.1804\nsamples = 2341\nvalue = 5.9346"] ;
594 -> 596 ;
597 [label="avg_pickup_cluster_dropoff_cluster_haversine_speed <= 9.6156\nmse = 0.1355\nsamples = 4649\nvalue = 6.1647"] ;
589 -> 597 ;
598 [label="avg_pickup_weekday_hour_manhattan_speed <= 20.1387\nmse = 0.1364\nsamples = 2980\nvalue = 6.205"] ;
597 -> 598 ;
599 [label="mse = 0.1148\nsamples = 1476\nvalue = 6.2628"] ;
598 -> 599 ;
600 [label="mse = 0.151\nsamples = 1504\nvalue = 6.1488"] ;
598 -> 600 ;
601 [label="avg_dropoff_cluster_pickup_hour_haversine_speed <= 14.7731\nmse = 0.1256\nsamples = 1669\nvalue = 6.0916"] ;
597 -> 601 ;
602 [label="mse = 0.1307\nsamples = 1339\nvalue = 6.1157"] ;
601 -> 602 ;
603 [label="mse = 0.0923\nsamples = 330\nvalue = 5.9922"] ;
601 -> 603 ;
604 [label="haversine_distance <= 1.2211\nmse = 0.1522\nsamples = 7573\nvalue = 5.8907"] ;
588 -> 604 ;
605 [label="avg_pickup_cluster_dropoff_cluster_haversine_speed <= 11.4527\nmse = 0.1646\nsamples = 4158\nvalue = 5.8168"] ;
604 -> 605 ;
606 [label="avg_pickup_weekday_hour_manhattan_speed <= 21.798\nmse = 0.1392\nsamples = 2553\nvalue = 5.8646"] ;
605 -> 606 ;
607 [label="mse = 0.1413\nsamples = 2034\nvalue = 5.8911"] ;
606 -> 607 ;
608 [label="mse = 0.1179\nsamples = 519\nvalue = 5.7626"] ;
606 -> 608 ;
609 [label="haversine_distance <= 1.1097\nmse = 0.1961\nsamples = 1605\nvalue = 5.7394"] ;
605 -> 609 ;
610 [label="mse = 0.155\nsamples = 825\nvalue = 5.6836"] ;
609 -> 610 ;
611 [label="mse = 0.2325\nsamples = 780\nvalue = 5.798"] ;
609 -> 611 ;
612 [label="avg_pickup_cluster_dropoff_cluster_haversine_speed <= 11.081\nmse = 0.1223\nsamples = 3415\nvalue = 5.9808"] ;
604 -> 612 ;
613 [label="avg_pickup_weekday_hour_haversine_speed <= 16.7265\nmse = 0.1248\nsamples = 1835\nvalue = 6.0265"] ;
612 -> 613 ;
614 [label="mse = 0.1289\nsamples = 1340\nvalue = 6.0594"] ;
613 -> 614 ;
615 [label="mse = 0.103\nsamples = 495\nvalue = 5.9372"] ;
613 -> 615 ;
616 [label="avg_pickup_weekday_hour_manhattan_speed <= 20.1314\nmse = 0.1139\nsamples = 1580\nvalue = 5.9271"] ;
612 -> 616 ;
617 [label="mse = 0.1164\nsamples = 726\nvalue = 5.9768"] ;
616 -> 617 ;
618 [label="mse = 0.1081\nsamples = 854\nvalue = 5.8855"] ;
616 -> 618 ;
619 [label="avg_pickup_cluster_dropoff_cluster_haversine_speed <= 10.2672\nmse = 0.1678\nsamples = 6230\nvalue = 5.7464"] ;
587 -> 619 ;
620 [label="haversine_distance <= 1.1809\nmse = 0.1321\nsamples = 3643\nvalue = 5.8175"] ;
619 -> 620 ;
621 [label="avg_pickup_weekday_hour_manhattan_speed <= 25.4373\nmse = 0.1309\nsamples = 1681\nvalue = 5.7406"] ;
620 -> 621 ;
622 [label="avg_dropoff_cluster_pickup_hour_haversine_speed <= 15.8167\nmse = 0.1411\nsamples = 612\nvalue = 5.8509"] ;
621 -> 622 ;
623 [label="mse = 0.1434\nsamples = 440\nvalue = 5.898"] ;
622 -> 623 ;
624 [label="mse = 0.1153\nsamples = 172\nvalue = 5.7312"] ;
622 -> 624 ;
625 [label="passthru_latitude <= 40.7249\nmse = 0.1141\nsamples = 1069\nvalue = 5.6774"] ;
621 -> 625 ;
626 [label="mse = 0.1439\nsamples = 104\nvalue = 5.8922"] ;
625 -> 626 ;
627 [label="mse = 0.1057\nsamples = 965\nvalue = 5.6548"] ;
625 -> 627 ;
628 [label="avg_pickup_weekday_hour_haversine_speed <= 20.5413\nmse = 0.1235\nsamples = 1962\nvalue = 5.8843"] ;
620 -> 628 ;
629 [label="dropoff_latitude <= 40.756\nmse = 0.1161\nsamples = 1277\nvalue = 5.927"] ;
628 -> 629 ;
630 [label="mse = 0.1072\nsamples = 829\nvalue = 5.9615"] ;
629 -> 630 ;
631 [label="mse = 0.1264\nsamples = 448\nvalue = 5.8632"] ;
629 -> 631 ;
632 [label="avg_dropoff_cluster_pickup_hour_manhattan_speed <= 22.5541\nmse = 0.1274\nsamples = 685\nvalue = 5.8047"] ;
628 -> 632 ;
633 [label="mse = 0.1482\nsamples = 412\nvalue = 5.848"] ;
632 -> 633 ;
634 [label="mse = 0.089\nsamples = 273\nvalue = 5.7396"] ;
632 -> 634 ;
635 [label="haversine_distance <= 1.1286\nmse = 0.2009\nsamples = 2587\nvalue = 5.6464"] ;
619 -> 635 ;
636 [label="avg_pickup_cluster_manhattan_speed <= 17.0419\nmse = 0.2123\nsamples = 913\nvalue = 5.5266"] ;
635 -> 636 ;
637 [label="manhattan_distance <= 1.3482\nmse = 0.1316\nsamples = 327\nvalue = 5.4234"] ;
636 -> 637 ;
638 [label="mse = 0.1035\nsamples = 115\nvalue = 5.5282"] ;
637 -> 638 ;
639 [label="mse = 0.1376\nsamples = 212\nvalue = 5.3659"] ;
637 -> 639 ;
640 [label="avg_pickup_weekday_hour_manhattan_speed <= 26.6103\nmse = 0.2483\nsamples = 586\nvalue = 5.5846"] ;
636 -> 640 ;
641 [label="mse = 0.2968\nsamples = 373\nvalue = 5.643"] ;
640 -> 641 ;
642 [label="mse = 0.1422\nsamples = 213\nvalue = 5.4779"] ;
640 -> 642 ;
643 [label="avg_pickup_weekday_hour_manhattan_speed <= 31.2114\nmse = 0.182\nsamples = 1674\nvalue = 5.7136"] ;
635 -> 643 ;
644 [label="haversine_distance <= 1.3311\nmse = 0.1847\nsamples = 1482\nvalue = 5.7411"] ;
643 -> 644 ;
645 [label="mse = 0.1752\nsamples = 1040\nvalue = 5.7013"] ;
644 -> 645 ;
646 [label="mse = 0.1945\nsamples = 442\nvalue = 5.8367"] ;
644 -> 646 ;
647 [label="avg_pickup_cluster_pickup_hour_manhattan_speed <= 30.7792\nmse = 0.1061\nsamples = 192\nvalue = 5.4936"] ;
643 -> 647 ;
648 [label="mse = 0.0971\nsamples = 129\nvalue = 5.5563"] ;
647 -> 648 ;
649 [label="mse = 0.1009\nsamples = 63\nvalue = 5.3706"] ;
647 -> 649 ;
650 [label="avg_pickup_weekday_hour_haversine_speed <= 17.5526\nmse = 0.1483\nsamples = 29986\nvalue = 6.2469"] ;
586 -> 650 ;
651 [label="haversine_distance <= 1.7219\nmse = 0.136\nsamples = 20058\nvalue = 6.3211"] ;
650 -> 651 ;
652 [label="avg_pickup_cluster_dropoff_cluster_haversine_speed <= 10.2813\nmse = 0.1467\nsamples = 9944\nvalue = 6.2408"] ;
651 -> 652 ;
653 [label="avg_pickup_weekday_hour_manhattan_speed <= 20.1314\nmse = 0.1402\nsamples = 4922\nvalue = 6.3298"] ;
652 -> 653 ;
654 [label="manhattan_distance <= 1.4459\nmse = 0.1533\nsamples = 2412\nvalue = 6.3836"] ;
653 -> 654 ;
655 [label="mse = 0.0\nsamples = 1\nvalue = 11.3655"] ;
654 -> 655 ;
656 [label="mse = 0.1405\nsamples = 2411\nvalue = 6.381"] ;
654 -> 656 ;
657 [label="haversine_distance <= 1.5264\nmse = 0.1224\nsamples = 2510\nvalue = 6.2788"] ;
653 -> 657 ;
658 [label="mse = 0.0981\nsamples = 979\nvalue = 6.2182"] ;
657 -> 658 ;
659 [label="mse = 0.1338\nsamples = 1531\nvalue = 6.3164"] ;
657 -> 659 ;
660 [label="avg_pickup_cluster_dropoff_cluster_haversine_speed <= 11.3922\nmse = 0.1376\nsamples = 5022\nvalue = 6.1531"] ;
652 -> 660 ;
661 [label="haversine_distance <= 1.487\nmse = 0.1266\nsamples = 2873\nvalue = 6.1979"] ;
660 -> 661 ;
662 [label="mse = 0.0908\nsamples = 707\nvalue = 6.1032"] ;
661 -> 662 ;
663 [label="mse = 0.1344\nsamples = 2166\nvalue = 6.2288"] ;
661 -> 663 ;
664 [label="dropoff_latitude <= 40.7369\nmse = 0.1462\nsamples = 2149\nvalue = 6.0924"] ;
660 -> 664 ;
665 [label="mse = 0.1561\nsamples = 621\nvalue = 6.1671"] ;
664 -> 665 ;
666 [label="mse = 0.1388\nsamples = 1528\nvalue = 6.0616"] ;
664 -> 666 ;
667 [label="avg_pickup_cluster_dropoff_cluster_haversine_speed <= 11.0814\nmse = 0.1123\nsamples = 10114\nvalue = 6.4017"] ;
651 -> 667 ;
668 [label="avg_pickup_cluster_dropoff_cluster_haversine_speed <= 9.7028\nmse = 0.1005\nsamples = 6477\nvalue = 6.4585"] ;
667 -> 668 ;
669 [label="avg_pickup_weekday_hour_manhattan_speed <= 20.9587\nmse = 0.095\nsamples = 2047\nvalue = 6.5295"] ;
668 -> 669 ;
670 [label="mse = 0.0826\nsamples = 1413\nvalue = 6.567"] ;
669 -> 670 ;
671 [label="mse = 0.1121\nsamples = 634\nvalue = 6.4486"] ;
669 -> 671 ;
672 [label="haversine_distance <= 1.9375\nmse = 0.0996\nsamples = 4430\nvalue = 6.4257"] ;
668 -> 672 ;
673 [label="mse = 0.1043\nsamples = 2588\nvalue = 6.3853"] ;
672 -> 673 ;
674 [label="mse = 0.0874\nsamples = 1842\nvalue = 6.4826"] ;
672 -> 674 ;
675 [label="avg_pickup_weekday_hour_manhattan_speed <= 20.2783\nmse = 0.1174\nsamples = 3637\nvalue = 6.298"] ;
667 -> 675 ;
676 [label="dropoff_latitude <= 40.7498\nmse = 0.0996\nsamples = 2038\nvalue = 6.3379"] ;
675 -> 676 ;
677 [label="mse = 0.0898\nsamples = 964\nvalue = 6.3891"] ;
676 -> 677 ;
678 [label="mse = 0.104\nsamples = 1074\nvalue = 6.2911"] ;
676 -> 678 ;
679 [label="pickup_longitude <= -73.9463\nmse = 0.1354\nsamples = 1599\nvalue = 6.2471"] ;
675 -> 679 ;
680 [label="mse = 0.1039\nsamples = 1585\nvalue = 6.2406"] ;
679 -> 680 ;
681 [label="mse = 2.7235\nsamples = 14\nvalue = 6.8628"] ;
679 -> 681 ;
682 [label="haversine_distance <= 1.6898\nmse = 0.1392\nsamples = 9928\nvalue = 6.0961"] ;
650 -> 682 ;
683 [label="avg_pickup_cluster_dropoff_cluster_haversine_speed <= 10.7392\nmse = 0.1519\nsamples = 4388\nvalue = 6.011"] ;
682 -> 683 ;
684 [label="avg_dropoff_cluster_pickup_hour_haversine_speed <= 15.8363\nmse = 0.149\nsamples = 2962\nvalue = 6.0686"] ;
683 -> 684 ;
685 [label="avg_pickup_weekday_hour_manhattan_speed <= 26.3602\nmse = 0.1964\nsamples = 1611\nvalue = 6.1322"] ;
684 -> 685 ;
686 [label="mse = 0.198\nsamples = 1211\nvalue = 6.1676"] ;
685 -> 686 ;
687 [label="mse = 0.1771\nsamples = 400\nvalue = 6.0278"] ;
685 -> 687 ;
688 [label="avg_pickup_weekday_hour_manhattan_speed <= 31.2938\nmse = 0.0826\nsamples = 1351\nvalue = 5.9935"] ;
684 -> 688 ;
689 [label="mse = 0.0795\nsamples = 1153\nvalue = 6.0164"] ;
688 -> 689 ;
690 [label="mse = 0.0785\nsamples = 198\nvalue = 5.8524"] ;
688 -> 690 ;
691 [label="avg_pickup_cluster_pickup_hour_haversine_speed <= 18.7653\nmse = 0.1368\nsamples = 1426\nvalue = 5.8917"] ;
683 -> 691 ;
692 [label="avg_pickup_cluster_dropoff_cluster_haversine_speed <= 11.5466\nmse = 0.1399\nsamples = 917\nvalue = 5.951"] ;
691 -> 692 ;
693 [label="mse = 0.1755\nsamples = 484\nvalue = 6.0032"] ;
692 -> 693 ;
694 [label="mse = 0.0957\nsamples = 433\nvalue = 5.8951"] ;
692 -> 694 ;
695 [label="avg_pickup_weekday_hour_haversine_speed <= 20.499\nmse = 0.1131\nsamples = 509\nvalue = 5.7838"] ;
691 -> 695 ;
696 [label="mse = 0.1047\nsamples = 328\nvalue = 5.8315"] ;
695 -> 696 ;
697 [label="mse = 0.1165\nsamples = 181\nvalue = 5.6926"] ;
695 -> 697 ;
698 [label="avg_pickup_weekday_hour_manhattan_speed <= 25.4373\nmse = 0.1193\nsamples = 5540\nvalue = 6.1627"] ;
682 -> 698 ;
699 [label="avg_pickup_cluster_dropoff_cluster_haversine_speed <= 10.8982\nmse = 0.0999\nsamples = 2935\nvalue = 6.2302"] ;
698 -> 699 ;
700 [label="avg_pickup_cluster_pickup_hour_haversine_speed <= 20.6298\nmse = 0.0972\nsamples = 1752\nvalue = 6.2892"] ;
699 -> 700 ;
701 [label="mse = 0.0957\nsamples = 1648\nvalue = 6.3021"] ;
700 -> 701 ;
702 [label="mse = 0.0757\nsamples = 104\nvalue = 6.0832"] ;
700 -> 702 ;
703 [label="haversine_distance <= 1.8827\nmse = 0.0916\nsamples = 1183\nvalue = 6.1452"] ;
699 -> 703 ;
704 [label="mse = 0.0955\nsamples = 562\nvalue = 6.0767"] ;
703 -> 704 ;
705 [label="mse = 0.08\nsamples = 621\nvalue = 6.2067"] ;
703 -> 705 ;
706 [label="avg_pickup_cluster_dropoff_cluster_manhattan_speed <= 14.6076\nmse = 0.1302\nsamples = 2605\nvalue = 6.0865"] ;
698 -> 706 ;
707 [label="avg_dropoff_cluster_haversine_speed <= 12.0765\nmse = 0.1157\nsamples = 1801\nvalue = 6.1343"] ;
706 -> 707 ;
708 [label="mse = 0.1025\nsamples = 589\nvalue = 6.0554"] ;
707 -> 708 ;
709 [label="mse = 0.1176\nsamples = 1212\nvalue = 6.1729"] ;
707 -> 709 ;
710 [label="avg_dropoff_cluster_manhattan_speed <= 16.5895\nmse = 0.1461\nsamples = 804\nvalue = 5.9762"] ;
706 -> 710 ;
711 [label="mse = 0.1541\nsamples = 380\nvalue = 5.8898"] ;
710 -> 711 ;
712 [label="mse = 0.1256\nsamples = 424\nvalue = 6.0556"] ;
710 -> 712 ;
713 [label="haversine_distance <= 1.4869\nmse = 0.2572\nsamples = 73834\nvalue = 5.9538"] ;
457 -> 713 ;
714 [label="avg_pickup_weekday_hour_manhattan_speed <= 17.0964\nmse = 0.246\nsamples = 34013\nvalue = 5.7718"] ;
713 -> 714 ;
715 [label="avg_pickup_cluster_dropoff_cluster_haversine_speed <= 15.3089\nmse = 0.222\nsamples = 16529\nvalue = 5.9006"] ;
714 -> 715 ;
716 [label="haversine_distance <= 1.2143\nmse = 0.2007\nsamples = 9864\nvalue = 5.9878"] ;
715 -> 716 ;
717 [label="avg_dropoff_cluster_pickup_hour_haversine_speed <= 11.5659\nmse = 0.1958\nsamples = 4590\nvalue = 5.8678"] ;
716 -> 717 ;
718 [label="avg_dropoff_cluster_pickup_hour_haversine_speed <= 10.082\nmse = 0.2203\nsamples = 1523\nvalue = 6.0014"] ;
717 -> 718 ;
719 [label="dropoff_longitude <= -73.9841\nmse = 0.1929\nsamples = 244\nvalue = 6.1724"] ;
718 -> 719 ;
720 [label="mse = 0.1928\nsamples = 169\nvalue = 6.2472"] ;
719 -> 720 ;
721 [label="mse = 0.1524\nsamples = 75\nvalue = 6.0048"] ;
719 -> 721 ;
722 [label="manhattan_distance <= 1.2795\nmse = 0.2189\nsamples = 1279\nvalue = 5.9683"] ;
718 -> 722 ;
723 [label="mse = 0.306\nsamples = 132\nvalue = 6.1807"] ;
722 -> 723 ;
724 [label="mse = 0.2041\nsamples = 1147\nvalue = 5.9453"] ;
722 -> 724 ;
725 [label="haversine_distance <= 1.0526\nmse = 0.1705\nsamples = 3067\nvalue = 5.8018"] ;
717 -> 725 ;
726 [label="avg_pickup_cluster_dropoff_cluster_haversine_speed <= 13.7496\nmse = 0.1646\nsamples = 907\nvalue = 5.7168"] ;
725 -> 726 ;
727 [label="mse = 0.1498\nsamples = 421\nvalue = 5.7964"] ;
726 -> 727 ;
728 [label="mse = 0.1672\nsamples = 486\nvalue = 5.6492"] ;
726 -> 728 ;
729 [label="haversine_distance <= 1.0539\nmse = 0.1688\nsamples = 2160\nvalue = 5.8368"] ;
725 -> 729 ;
730 [label="mse = 2.9199\nsamples = 17\nvalue = 6.463"] ;
729 -> 730 ;
731 [label="mse = 0.142\nsamples = 2143\nvalue = 5.8315"] ;
729 -> 731 ;
732 [label="avg_dropoff_cluster_pickup_hour_haversine_speed <= 12.2594\nmse = 0.1814\nsamples = 5274\nvalue = 6.0924"] ;
716 -> 732 ;
733 [label="avg_dropoff_cluster_pickup_hour_haversine_speed <= 10.7352\nmse = 0.2047\nsamples = 2911\nvalue = 6.1658"] ;
732 -> 733 ;
734 [label="haversine_distance <= 1.215\nmse = 0.2361\nsamples = 807\nvalue = 6.2683"] ;
733 -> 734 ;
735 [label="mse = 0.0\nsamples = 1\nvalue = 11.3604"] ;
734 -> 735 ;
736 [label="mse = 0.2164\nsamples = 806\nvalue = 6.2644"] ;
734 -> 736 ;
737 [label="avg_pickup_weekday_hour_manhattan_speed <= 14.6914\nmse = 0.1868\nsamples = 2104\nvalue = 6.1258"] ;
733 -> 737 ;
738 [label="mse = 0.1503\nsamples = 898\nvalue = 6.1987"] ;
737 -> 738 ;
739 [label="mse = 0.2072\nsamples = 1206\nvalue = 6.0714"] ;
737 -> 739 ;
740 [label="haversine_distance <= 1.3142\nmse = 0.1363\nsamples = 2363\nvalue = 5.9994"] ;
732 -> 740 ;
741 [label="passthru_longitude <= -73.9474\nmse = 0.1233\nsamples = 906\nvalue = 5.9214"] ;
740 -> 741 ;
742 [label="mse = 0.1179\nsamples = 880\nvalue = 5.9097"] ;
741 -> 742 ;
743 [label="mse = 0.1596\nsamples = 26\nvalue = 6.2598"] ;
741 -> 743 ;
744 [label="avg_pickup_weekday_hour_manhattan_speed <= 15.8125\nmse = 0.1383\nsamples = 1457\nvalue = 6.048"] ;
740 -> 744 ;
745 [label="mse = 0.1454\nsamples = 1021\nvalue = 6.0818"] ;
744 -> 745 ;
746 [label="mse = 0.1142\nsamples = 436\nvalue = 5.9727"] ;
744 -> 746 ;
747 [label="haversine_distance <= 1.2065\nmse = 0.2257\nsamples = 6665\nvalue = 5.771"] ;
715 -> 747 ;
748 [label="avg_pickup_cluster_dropoff_cluster_haversine_speed <= 17.8247\nmse = 0.2358\nsamples = 2657\nvalue = 5.6547"] ;
747 -> 748 ;
749 [label="avg_pickup_weekday_hour_manhattan_speed <= 14.8351\nmse = 0.2427\nsamples = 1864\nvalue = 5.7209"] ;
748 -> 749 ;
750 [label="passthru_longitude <= -73.9848\nmse = 0.2639\nsamples = 858\nvalue = 5.7946"] ;
749 -> 750 ;
751 [label="mse = 0.2054\nsamples = 196\nvalue = 5.6627"] ;
750 -> 751 ;
752 [label="mse = 0.2746\nsamples = 662\nvalue = 5.8341"] ;
750 -> 752 ;
753 [label="manhattan_distance <= 1.3438\nmse = 0.2156\nsamples = 1006\nvalue = 5.6573"] ;
749 -> 753 ;
754 [label="mse = 0.2622\nsamples = 194\nvalue = 5.7677"] ;
753 -> 754 ;
755 [label="mse = 0.2013\nsamples = 812\nvalue = 5.6317"] ;
753 -> 755 ;
756 [label="avg_dropoff_cluster_pickup_hour_manhattan_speed <= 17.404\nmse = 0.1847\nsamples = 793\nvalue = 5.4986"] ;
748 -> 756 ;
757 [label="passthru_longitude <= -73.9924\nmse = 0.2084\nsamples = 301\nvalue = 5.6153"] ;
756 -> 757 ;
758 [label="mse = 0.1741\nsamples = 66\nvalue = 5.3827"] ;
757 -> 758 ;
759 [label="mse = 0.1975\nsamples = 235\nvalue = 5.6855"] ;
757 -> 759 ;
760 [label="manhattan_distance <= 1.6438\nmse = 0.1549\nsamples = 492\nvalue = 5.423"] ;
756 -> 760 ;
761 [label="mse = 0.1548\nsamples = 471\nvalue = 5.4092"] ;
760 -> 761 ;
762 [label="mse = 0.0608\nsamples = 21\nvalue = 5.7257"] ;
760 -> 762 ;
763 [label="avg_pickup_cluster_dropoff_cluster_haversine_speed <= 17.9994\nmse = 0.2039\nsamples = 4008\nvalue = 5.8489"] ;
747 -> 763 ;
764 [label="avg_pickup_weekday_hour_manhattan_speed <= 14.76\nmse = 0.2123\nsamples = 2784\nvalue = 5.9037"] ;
763 -> 764 ;
765 [label="avg_pickup_cluster_pickup_hour_haversine_speed <= 10.799\nmse = 0.2327\nsamples = 1138\nvalue = 5.9878"] ;
764 -> 765 ;
766 [label="mse = 0.7668\nsamples = 105\nvalue = 6.2355"] ;
765 -> 766 ;
767 [label="mse = 0.1733\nsamples = 1033\nvalue = 5.9633"] ;
765 -> 767 ;
768 [label="avg_dropoff_cluster_manhattan_speed <= 15.5417\nmse = 0.1903\nsamples = 1646\nvalue = 5.8463"] ;
764 -> 768 ;
769 [label="mse = 4.9622\nsamples = 7\nvalue = 7.2313"] ;
768 -> 769 ;
770 [label="mse = 0.1668\nsamples = 1639\nvalue = 5.8414"] ;
768 -> 770 ;
771 [label="haversine_distance <= 1.344\nmse = 0.1637\nsamples = 1224\nvalue = 5.7272"] ;
763 -> 771 ;
772 [label="avg_pickup_cluster_dropoff_cluster_haversine_speed <= 22.1534\nmse = 0.1552\nsamples = 572\nvalue = 5.6494"] ;
771 -> 772 ;
773 [label="mse = 0.1486\nsamples = 562\nvalue = 5.6625"] ;
772 -> 773 ;
774 [label="mse = 0.1191\nsamples = 10\nvalue = 5.0939"] ;
772 -> 774 ;
775 [label="avg_dropoff_cluster_pickup_hour_manhattan_speed <= 17.7784\nmse = 0.1611\nsamples = 652\nvalue = 5.796"] ;
771 -> 775 ;
776 [label="mse = 0.1804\nsamples = 260\nvalue = 5.876"] ;
775 -> 776 ;
777 [label="mse = 0.1414\nsamples = 392\nvalue = 5.7436"] ;
775 -> 777 ;
778 [label="avg_pickup_cluster_dropoff_cluster_manhattan_speed <= 20.9092\nmse = 0.2382\nsamples = 17484\nvalue = 5.6506"] ;
714 -> 778 ;
779 [label="haversine_distance <= 1.2474\nmse = 0.2159\nsamples = 12251\nvalue = 5.711"] ;
778 -> 779 ;
780 [label="avg_pickup_weekday_hour_manhattan_speed <= 22.5512\nmse = 0.216\nsamples = 6244\nvalue = 5.6203"] ;
779 -> 780 ;
781 [label="passthru_latitude <= 40.7646\nmse = 0.1907\nsamples = 4635\nvalue = 5.6718"] ;
780 -> 781 ;
782 [label="avg_pickup_weekday_hour_manhattan_speed <= 18.9062\nmse = 0.2203\nsamples = 2701\nvalue = 5.7227"] ;
781 -> 782 ;
783 [label="mse = 0.2252\nsamples = 914\nvalue = 5.8255"] ;
782 -> 783 ;
784 [label="mse = 0.2101\nsamples = 1787\nvalue = 5.672"] ;
782 -> 784 ;
785 [label="haversine_distance <= 1.0984\nmse = 0.1398\nsamples = 1934\nvalue = 5.5996"] ;
781 -> 785 ;
786 [label="mse = 0.1307\nsamples = 835\nvalue = 5.528"] ;
785 -> 786 ;
787 [label="mse = 0.1399\nsamples = 1099\nvalue = 5.6536"] ;
785 -> 787 ;
788 [label="avg_pickup_cluster_pickup_hour_manhattan_speed <= 30.2954\nmse = 0.2592\nsamples = 1609\nvalue = 5.4711"] ;
780 -> 788 ;
789 [label="avg_pickup_cluster_haversine_speed <= 16.0009\nmse = 0.2589\nsamples = 1503\nvalue = 5.494"] ;
788 -> 789 ;
790 [label="mse = 0.2002\nsamples = 1221\nvalue = 5.4526"] ;
789 -> 790 ;
791 [label="mse = 0.4771\nsamples = 282\nvalue = 5.6769"] ;
789 -> 791 ;
792 [label="pickup_hour <= 3.5\nmse = 0.1644\nsamples = 106\nvalue = 5.1665"] ;
788 -> 792 ;
793 [label="mse = 0.037\nsamples = 8\nvalue = 5.5839"] ;
792 -> 793 ;
794 [label="mse = 0.1561\nsamples = 98\nvalue = 5.116"] ;
792 -> 794 ;
795 [label="avg_pickup_weekday_hour_manhattan_speed <= 24.251\nmse = 0.1985\nsamples = 6007\nvalue = 5.8047"] ;
779 -> 795 ;
796 [label="haversine_distance <= 1.2474\nmse = 0.182\nsamples = 5071\nvalue = 5.8443"] ;
795 -> 796 ;
797 [label="mse = 0.0\nsamples = 1\nvalue = 11.3592"] ;
796 -> 797 ;
798 [label="avg_pickup_weekday_hour_manhattan_speed <= 19.7439\nmse = 0.1782\nsamples = 5070\nvalue = 5.8437"] ;
796 -> 798 ;
799 [label="mse = 0.1547\nsamples = 2955\nvalue = 5.8933"] ;
798 -> 799 ;
800 [label="mse = 0.2028\nsamples = 2115\nvalue = 5.7743"] ;
798 -> 800 ;
801 [label="dropoff_latitude <= 40.7357\nmse = 0.2336\nsamples = 936\nvalue = 5.5891"] ;
795 -> 801 ;
802 [label="dropoff_latitude <= 40.7352\nmse = 0.4453\nsamples = 219\nvalue = 5.761"] ;
801 -> 802 ;
803 [label="mse = 0.3469\nsamples = 216\nvalue = 5.7333"] ;
802 -> 803 ;
804 [label="mse = 3.3567\nsamples = 3\nvalue = 7.0827"] ;
802 -> 804 ;
805 [label="avg_pickup_cluster_pickup_hour_manhattan_speed <= 30.1654\nmse = 0.1584\nsamples = 717\nvalue = 5.5375"] ;
801 -> 805 ;
806 [label="mse = 0.1506\nsamples = 635\nvalue = 5.5647"] ;
805 -> 806 ;
807 [label="mse = 0.1692\nsamples = 82\nvalue = 5.3291"] ;
805 -> 807 ;
808 [label="haversine_distance <= 1.2701\nmse = 0.2618\nsamples = 5233\nvalue = 5.5107"] ;
778 -> 808 ;
809 [label="pickup_longitude <= -73.8038\nmse = 0.2589\nsamples = 2673\nvalue = 5.4133"] ;
808 -> 809 ;
810 [label="avg_pickup_cluster_pickup_hour_haversine_speed <= 17.0893\nmse = 0.2452\nsamples = 2666\nvalue = 5.4078"] ;
809 -> 810 ;
811 [label="avg_pickup_cluster_dropoff_cluster_haversine_speed <= 18.0552\nmse = 0.2681\nsamples = 1886\nvalue = 5.4673"] ;
810 -> 811 ;
812 [label="mse = 0.2936\nsamples = 1335\nvalue = 5.5186"] ;
811 -> 812 ;
813 [label="mse = 0.185\nsamples = 551\nvalue = 5.3437"] ;
811 -> 813 ;
814 [label="dropoff_latitude <= 40.795\nmse = 0.1619\nsamples = 780\nvalue = 5.2657"] ;
810 -> 814 ;
815 [label="mse = 0.1662\nsamples = 630\nvalue = 5.2208"] ;
814 -> 815 ;
816 [label="mse = 0.0967\nsamples = 150\nvalue = 5.4606"] ;
814 -> 816 ;
817 [label="avg_dropoff_cluster_manhattan_speed <= 37.9813\nmse = 1.6545\nsamples = 7\nvalue = 6.9735"] ;
809 -> 817 ;
818 [label="avg_pickup_cluster_pickup_hour_manhattan_speed <= 29.3379\nmse = 0.0269\nsamples = 3\nvalue = 8.2585"] ;
817 -> 818 ;
819 [label="mse = 0.0\nsamples = 1\nvalue = 8.1176"] ;
818 -> 819 ;
820 [label="mse = 0.0011\nsamples = 2\nvalue = 8.4464"] ;
818 -> 820 ;
821 [label="dropoff_latitude <= 40.6454\nmse = 0.3694\nsamples = 4\nvalue = 5.8491"] ;
817 -> 821 ;
822 [label="mse = 0.0\nsamples = 1\nvalue = 7.1082"] ;
821 -> 822 ;
823 [label="mse = 0.1633\nsamples = 3\nvalue = 5.6692"] ;
821 -> 823 ;
824 [label="avg_pickup_weekday_hour_manhattan_speed <= 21.9021\nmse = 0.2451\nsamples = 2560\nvalue = 5.6107"] ;
808 -> 824 ;
825 [label="avg_pickup_cluster_dropoff_cluster_manhattan_speed <= 23.0255\nmse = 0.2566\nsamples = 1852\nvalue = 5.6687"] ;
824 -> 825 ;
826 [label="pickup_latitude <= 40.759\nmse = 0.1625\nsamples = 791\nvalue = 5.7521"] ;
825 -> 826 ;
827 [label="mse = 0.1856\nsamples = 424\nvalue = 5.8168"] ;
826 -> 827 ;
828 [label="mse = 0.1237\nsamples = 367\nvalue = 5.6745"] ;
826 -> 828 ;
829 [label="avg_dropoff_cluster_pickup_hour_manhattan_speed <= 29.9473\nmse = 0.3177\nsamples = 1061\nvalue = 5.6064"] ;
825 -> 829 ;
830 [label="mse = 0.2015\nsamples = 1019\nvalue = 5.5877"] ;
829 -> 830 ;
831 [label="mse = 3.208\nsamples = 42\nvalue = 6.1167"] ;
829 -> 831 ;
832 [label="dropoff_longitude <= -73.9325\nmse = 0.1814\nsamples = 708\nvalue = 5.4559"] ;
824 -> 832 ;
833 [label="avg_pickup_weekday_hour_haversine_speed <= 18.8105\nmse = 0.1628\nsamples = 686\nvalue = 5.4362"] ;
832 -> 833 ;
834 [label="mse = 0.1788\nsamples = 295\nvalue = 5.5236"] ;
833 -> 834 ;
835 [label="mse = 0.141\nsamples = 391\nvalue = 5.3714"] ;
833 -> 835 ;
836 [label="haversine_distance <= 1.4553\nmse = 0.3684\nsamples = 22\nvalue = 6.0859"] ;
832 -> 836 ;
837 [label="mse = 0.1232\nsamples = 19\nvalue = 5.8943"] ;
836 -> 837 ;
838 [label="mse = 0.3422\nsamples = 3\nvalue = 7.1971"] ;
836 -> 838 ;
839 [label="avg_pickup_weekday_hour_manhattan_speed <= 17.2583\nmse = 0.2146\nsamples = 39821\nvalue = 6.1088"] ;
713 -> 839 ;
840 [label="avg_pickup_cluster_dropoff_cluster_haversine_speed <= 15.1151\nmse = 0.2018\nsamples = 18424\nvalue = 6.2614"] ;
839 -> 840 ;
841 [label="haversine_distance <= 1.7731\nmse = 0.16\nsamples = 9589\nvalue = 6.3846"] ;
840 -> 841 ;
842 [label="avg_dropoff_cluster_pickup_hour_haversine_speed <= 11.6981\nmse = 0.1668\nsamples = 4668\nvalue = 6.3017"] ;
841 -> 842 ;
843 [label="avg_pickup_cluster_dropoff_cluster_haversine_speed <= 12.985\nmse = 0.1918\nsamples = 2083\nvalue = 6.3914"] ;
842 -> 843 ;
844 [label="dropoff_longitude <= -74.0018\nmse = 0.1963\nsamples = 347\nvalue = 6.5408"] ;
843 -> 844 ;
845 [label="mse = 4.7497\nsamples = 2\nvalue = 9.8191"] ;
844 -> 845 ;
846 [label="mse = 0.1129\nsamples = 345\nvalue = 6.5229"] ;
844 -> 846 ;
847 [label="haversine_distance <= 1.4876\nmse = 0.1854\nsamples = 1736\nvalue = 6.3611"] ;
843 -> 847 ;
848 [label="mse = 5.9653\nsamples = 3\nvalue = 8.3555"] ;
847 -> 848 ;
849 [label="mse = 0.1675\nsamples = 1733\nvalue = 6.3575"] ;
847 -> 849 ;
850 [label="avg_pickup_weekday_hour_manhattan_speed <= 15.8982\nmse = 0.1347\nsamples = 2585\nvalue = 6.229"] ;
842 -> 850 ;
851 [label="dropoff_cluster <= 59.5\nmse = 0.1329\nsamples = 1755\nvalue = 6.2657"] ;
850 -> 851 ;
852 [label="mse = 0.106\nsamples = 1068\nvalue = 6.2242"] ;
851 -> 852 ;
853 [label="mse = 0.1683\nsamples = 687\nvalue = 6.3311"] ;
851 -> 853 ;
854 [label="haversine_distance <= 1.5588\nmse = 0.1296\nsamples = 830\nvalue = 6.1518"] ;
850 -> 854 ;
855 [label="mse = 0.0797\nsamples = 233\nvalue = 6.0459"] ;
854 -> 855 ;
856 [label="mse = 0.1434\nsamples = 597\nvalue = 6.1943"] ;
854 -> 856 ;
857 [label="avg_pickup_weekday_hour_manhattan_speed <= 14.9609\nmse = 0.1409\nsamples = 4921\nvalue = 6.4629"] ;
841 -> 857 ;
858 [label="avg_dropoff_cluster_pickup_hour_haversine_speed <= 11.5382\nmse = 0.1349\nsamples = 2431\nvalue = 6.5341"] ;
857 -> 858 ;
859 [label="manhattan_distance <= 2.9213\nmse = 0.1328\nsamples = 1189\nvalue = 6.6041"] ;
858 -> 859 ;
860 [label="mse = 0.119\nsamples = 1166\nvalue = 6.5948"] ;
859 -> 860 ;
861 [label="mse = 0.5869\nsamples = 23\nvalue = 7.0394"] ;
859 -> 861 ;
862 [label="manhattan_distance <= 2.6966\nmse = 0.1279\nsamples = 1242\nvalue = 6.4677"] ;
858 -> 862 ;
863 [label="mse = 0.1322\nsamples = 944\nvalue = 6.443"] ;
862 -> 863 ;
864 [label="mse = 0.1046\nsamples = 298\nvalue = 6.5511"] ;
862 -> 864 ;
865 [label="dropoff_longitude <= -73.884\nmse = 0.1369\nsamples = 2490\nvalue = 6.3936"] ;
857 -> 865 ;
866 [label="haversine_distance <= 1.9396\nmse = 0.1329\nsamples = 2489\nvalue = 6.3918"] ;
865 -> 866 ;
867 [label="mse = 0.1182\nsamples = 1292\nvalue = 6.3413"] ;
866 -> 867 ;
868 [label="mse = 0.1431\nsamples = 1197\nvalue = 6.4464"] ;
866 -> 868 ;
869 [label="mse = -0.0\nsamples = 1\nvalue = 8.7078"] ;
865 -> 869 ;
870 [label="haversine_distance <= 1.6429\nmse = 0.2129\nsamples = 8835\nvalue = 6.1284"] ;
840 -> 870 ;
871 [label="avg_pickup_cluster_dropoff_cluster_manhattan_speed <= 24.0169\nmse = 0.1933\nsamples = 2324\nvalue = 5.992"] ;
870 -> 871 ;
872 [label="avg_pickup_weekday_hour_manhattan_speed <= 14.8351\nmse = 0.2032\nsamples = 1557\nvalue = 6.0489"] ;
871 -> 872 ;
873 [label="avg_pickup_cluster_dropoff_cluster_manhattan_speed <= 23.9133\nmse = 0.2746\nsamples = 687\nvalue = 6.1391"] ;
872 -> 873 ;
874 [label="mse = 0.1775\nsamples = 673\nvalue = 6.1199"] ;
873 -> 874 ;
875 [label="mse = 3.8301\nsamples = 14\nvalue = 6.9857"] ;
873 -> 875 ;
876 [label="dropoff_latitude <= 40.7814\nmse = 0.133\nsamples = 870\nvalue = 5.9754"] ;
872 -> 876 ;
877 [label="mse = 0.1385\nsamples = 576\nvalue = 6.0239"] ;
876 -> 877 ;
878 [label="mse = 0.1089\nsamples = 294\nvalue = 5.8815"] ;
876 -> 878 ;
879 [label="avg_pickup_cluster_pickup_hour_haversine_speed <= 12.7461\nmse = 0.1518\nsamples = 767\nvalue = 5.8733"] ;
871 -> 879 ;
880 [label="avg_pickup_cluster_pickup_hour_manhattan_speed <= 13.3661\nmse = 0.1343\nsamples = 261\nvalue = 5.988"] ;
879 -> 880 ;
881 [label="mse = 0.0114\nsamples = 5\nvalue = 6.5243"] ;
880 -> 881 ;
882 [label="mse = 0.1305\nsamples = 256\nvalue = 5.9761"] ;
880 -> 882 ;
883 [label="passthru_longitude <= -73.9754\nmse = 0.1505\nsamples = 506\nvalue = 5.8138"] ;
879 -> 883 ;
884 [label="mse = 0.1547\nsamples = 99\nvalue = 5.9973"] ;
883 -> 884 ;
885 [label="mse = 0.1402\nsamples = 407\nvalue = 5.7722"] ;
883 -> 885 ;
886 [label="avg_pickup_cluster_dropoff_cluster_manhattan_speed <= 23.5985\nmse = 0.2108\nsamples = 6511\nvalue = 6.1776"] ;
870 -> 886 ;
887 [label="avg_dropoff_cluster_pickup_hour_haversine_speed <= 11.4553\nmse = 0.192\nsamples = 3816\nvalue = 6.2474"] ;
886 -> 887 ;
888 [label="manhattan_distance <= 2.0853\nmse = 0.4607\nsamples = 581\nvalue = 6.4253"] ;
887 -> 888 ;
889 [label="mse = 4.4565\nsamples = 19\nvalue = 7.6222"] ;
888 -> 889 ;
890 [label="mse = 0.2228\nsamples = 562\nvalue = 6.3735"] ;
888 -> 890 ;
891 [label="avg_pickup_weekday_hour_haversine_speed <= 11.7042\nmse = 0.1379\nsamples = 3235\nvalue = 6.2158"] ;
887 -> 891 ;
892 [label="mse = 0.1512\nsamples = 1803\nvalue = 6.273"] ;
891 -> 892 ;
893 [label="mse = 0.1116\nsamples = 1432\nvalue = 6.1434"] ;
891 -> 893 ;
894 [label="pickup_hour <= 16.5\nmse = 0.2208\nsamples = 2695\nvalue = 6.077"] ;
886 -> 894 ;
895 [label="dropoff_latitude <= 40.6601\nmse = 0.2399\nsamples = 1768\nvalue = 6.1356"] ;
894 -> 895 ;
896 [label="mse = 1.1845\nsamples = 6\nvalue = 7.8059"] ;
895 -> 896 ;
897 [label="mse = 0.2276\nsamples = 1762\nvalue = 6.1302"] ;
895 -> 897 ;
898 [label="passthru_longitude <= -73.9736\nmse = 0.1658\nsamples = 927\nvalue = 5.9658"] ;
894 -> 898 ;
899 [label="mse = 0.1936\nsamples = 273\nvalue = 6.0762"] ;
898 -> 899 ;
900 [label="mse = 0.1475\nsamples = 654\nvalue = 5.9209"] ;
898 -> 900 ;
901 [label="avg_pickup_cluster_dropoff_cluster_manhattan_speed <= 22.9455\nmse = 0.1884\nsamples = 21397\nvalue = 5.9779"] ;
839 -> 901 ;
902 [label="avg_pickup_weekday_hour_haversine_speed <= 17.5526\nmse = 0.1737\nsamples = 16546\nvalue = 6.035"] ;
901 -> 902 ;
903 [label="haversine_distance <= 1.7664\nmse = 0.1718\nsamples = 12534\nvalue = 6.0945"] ;
902 -> 903 ;
904 [label="avg_pickup_cluster_dropoff_cluster_haversine_speed <= 14.1705\nmse = 0.1748\nsamples = 5837\nvalue = 6.0005"] ;
903 -> 904 ;
905 [label="avg_pickup_cluster_pickup_hour_manhattan_speed <= 20.8923\nmse = 0.1706\nsamples = 2717\nvalue = 6.0734"] ;
904 -> 905 ;
906 [label="mse = 0.1813\nsamples = 2090\nvalue = 6.1055"] ;
905 -> 906 ;
907 [label="mse = 0.119\nsamples = 627\nvalue = 5.9648"] ;
905 -> 907 ;
908 [label="avg_pickup_weekday_hour_manhattan_speed <= 19.5664\nmse = 0.1699\nsamples = 3120\nvalue = 5.9379"] ;
904 -> 908 ;
909 [label="mse = 0.1857\nsamples = 1774\nvalue = 5.9911"] ;
908 -> 909 ;
910 [label="mse = 0.1408\nsamples = 1346\nvalue = 5.8686"] ;
908 -> 910 ;
911 [label="avg_pickup_cluster_dropoff_cluster_haversine_speed <= 14.7623\nmse = 0.1547\nsamples = 6697\nvalue = 6.177"] ;
903 -> 911 ;
912 [label="pickup_longitude <= -73.9798\nmse = 0.1543\nsamples = 3890\nvalue = 6.236"] ;
911 -> 912 ;
913 [label="mse = 0.1994\nsamples = 2049\nvalue = 6.2893"] ;
912 -> 913 ;
914 [label="mse = 0.0982\nsamples = 1841\nvalue = 6.1775"] ;
912 -> 914 ;
915 [label="avg_pickup_weekday_hour_haversine_speed <= 14.5741\nmse = 0.1439\nsamples = 2807\nvalue = 6.0955"] ;
911 -> 915 ;
916 [label="mse = 0.1649\nsamples = 963\nvalue = 6.1745"] ;
915 -> 916 ;
917 [label="mse = 0.1281\nsamples = 1844\nvalue = 6.0545"] ;
915 -> 917 ;
918 [label="haversine_distance <= 1.7936\nmse = 0.1338\nsamples = 4012\nvalue = 5.8484"] ;
902 -> 918 ;
919 [label="avg_pickup_cluster_pickup_hour_haversine_speed <= 19.3281\nmse = 0.1328\nsamples = 2033\nvalue = 5.7642"] ;
918 -> 919 ;
920 [label="avg_dropoff_cluster_haversine_speed <= 17.2608\nmse = 0.1261\nsamples = 1300\nvalue = 5.8284"] ;
919 -> 920 ;
921 [label="mse = 0.1209\nsamples = 1041\nvalue = 5.7916"] ;
920 -> 921 ;
922 [label="mse = 0.1196\nsamples = 259\nvalue = 5.9771"] ;
920 -> 922 ;
923 [label="avg_pickup_cluster_haversine_speed <= 15.7943\nmse = 0.1242\nsamples = 733\nvalue = 5.6494"] ;
919 -> 923 ;
924 [label="mse = 0.1144\nsamples = 576\nvalue = 5.5907"] ;
923 -> 924 ;
925 [label="mse = 0.1063\nsamples = 157\nvalue = 5.8481"] ;
923 -> 925 ;
926 [label="passthru_latitude <= 40.7352\nmse = 0.12\nsamples = 1979\nvalue = 5.9348"] ;
918 -> 926 ;
927 [label="avg_pickup_weekday_hour_haversine_speed <= 21.5504\nmse = 0.111\nsamples = 467\nvalue = 6.0686"] ;
926 -> 927 ;
928 [label="mse = 0.1113\nsamples = 397\nvalue = 6.0969"] ;
927 -> 928 ;
929 [label="mse = 0.0819\nsamples = 70\nvalue = 5.9165"] ;
927 -> 929 ;
930 [label="avg_pickup_cluster_dropoff_cluster_haversine_speed <= 13.7867\nmse = 0.1158\nsamples = 1512\nvalue = 5.8953"] ;
926 -> 930 ;
931 [label="mse = 0.1361\nsamples = 478\nvalue = 5.9953"] ;
930 -> 931 ;
932 [label="mse = 0.0996\nsamples = 1034\nvalue = 5.8488"] ;
930 -> 932 ;
933 [label="avg_pickup_weekday_hour_haversine_speed <= 16.7265\nmse = 0.1898\nsamples = 4851\nvalue = 5.7851"] ;
901 -> 933 ;
934 [label="haversine_distance <= 1.8005\nmse = 0.1867\nsamples = 3364\nvalue = 5.8391"] ;
933 -> 934 ;
935 [label="passthru_longitude <= -73.9779\nmse = 0.2072\nsamples = 1712\nvalue = 5.7552"] ;
934 -> 935 ;
936 [label="passthru_latitude <= 40.7881\nmse = 0.2207\nsamples = 423\nvalue = 5.9074"] ;
935 -> 936 ;
937 [label="mse = 0.1775\nsamples = 422\nvalue = 5.8995"] ;
936 -> 937 ;
938 [label="mse = -0.0\nsamples = 1\nvalue = 11.3658"] ;
936 -> 938 ;
939 [label="avg_pickup_cluster_pickup_hour_manhattan_speed <= 38.9656\nmse = 0.1921\nsamples = 1289\nvalue = 5.7035"] ;
935 -> 939 ;
940 [label="mse = 0.1875\nsamples = 1287\nvalue = 5.7013"] ;
939 -> 940 ;
941 [label="mse = 0.006\nsamples = 2\nvalue = 7.9013"] ;
939 -> 941 ;
942 [label="avg_pickup_cluster_dropoff_cluster_manhattan_speed <= 26.4065\nmse = 0.1519\nsamples = 1652\nvalue = 5.9234"] ;
934 -> 942 ;
943 [label="pickup_latitude <= 40.7442\nmse = 0.1182\nsamples = 1086\nvalue = 5.9731"] ;
942 -> 943 ;
944 [label="mse = 0.1397\nsamples = 117\nvalue = 6.1228"] ;
943 -> 944 ;
945 [label="mse = 0.1126\nsamples = 969\nvalue = 5.9551"] ;
943 -> 945 ;
946 [label="manhattan_distance <= 2.2429\nmse = 0.2033\nsamples = 566\nvalue = 5.827"] ;
942 -> 946 ;
947 [label="mse = 1.0105\nsamples = 17\nvalue = 6.3173"] ;
946 -> 947 ;
948 [label="mse = 0.1713\nsamples = 549\nvalue = 5.8121"] ;
946 -> 948 ;
949 [label="avg_pickup_cluster_dropoff_cluster_manhattan_speed <= 25.6188\nmse = 0.1749\nsamples = 1487\nvalue = 5.6612"] ;
933 -> 949 ;
950 [label="dropoff_longitude <= -73.8938\nmse = 0.1758\nsamples = 854\nvalue = 5.7376"] ;
949 -> 950 ;
951 [label="haversine_distance <= 1.8152\nmse = 0.1524\nsamples = 853\nvalue = 5.7334"] ;
950 -> 951 ;
952 [label="mse = 0.1534\nsamples = 446\nvalue = 5.6452"] ;
951 -> 952 ;
953 [label="mse = 0.133\nsamples = 407\nvalue = 5.8314"] ;
951 -> 953 ;
954 [label="mse = 0.0\nsamples = 1\nvalue = 11.3459"] ;
950 -> 954 ;
955 [label="manhattan_distance <= 2.8644\nmse = 0.1559\nsamples = 633\nvalue = 5.5606"] ;
949 -> 955 ;
956 [label="passthru_longitude <= -74.0006\nmse = 0.1474\nsamples = 610\nvalue = 5.5422"] ;
955 -> 956 ;
957 [label="mse = 0.0\nsamples = 1\nvalue = 6.9098"] ;
956 -> 957 ;
958 [label="mse = 0.1403\nsamples = 609\nvalue = 5.5366"] ;
956 -> 958 ;
959 [label="haversine_distance <= 2.059\nmse = 0.1481\nsamples = 23\nvalue = 6.0197"] ;
955 -> 959 ;
960 [label="mse = 0.0673\nsamples = 5\nvalue = 6.6099"] ;
959 -> 960 ;
961 [label="mse = 0.0879\nsamples = 18\nvalue = 5.9124"] ;
959 -> 961 ;
962 [label="haversine_distance <= 5.2886\nmse = 0.3055\nsamples = 320164\nvalue = 6.9602"] ;
0 -> 962 [labeldistance=2.5, labelangle=-45, headlabel="False"] ;
963 [label="avg_pickup_weekday_hour_haversine_speed <= 13.4912\nmse = 0.2089\nsamples = 212622\nvalue = 6.7426"] ;
962 -> 963 ;
964 [label="haversine_distance <= 3.0511\nmse = 0.1912\nsamples = 94079\nvalue = 6.9072"] ;
963 -> 964 ;
965 [label="avg_pickup_cluster_dropoff_cluster_haversine_speed <= 14.2514\nmse = 0.1729\nsamples = 49943\nvalue = 6.7609"] ;
964 -> 965 ;
966 [label="avg_pickup_cluster_dropoff_cluster_haversine_speed <= 11.4714\nmse = 0.1343\nsamples = 34242\nvalue = 6.8706"] ;
965 -> 966 ;
967 [label="avg_pickup_weekday_hour_haversine_speed <= 11.8908\nmse = 0.1216\nsamples = 14469\nvalue = 6.9646"] ;
966 -> 967 ;
968 [label="haversine_distance <= 2.6622\nmse = 0.1317\nsamples = 7946\nvalue = 7.0351"] ;
967 -> 968 ;
969 [label="avg_pickup_cluster_dropoff_cluster_haversine_speed <= 10.3926\nmse = 0.1094\nsamples = 6109\nvalue = 6.9908"] ;
968 -> 969 ;
970 [label="dropoff_latitude <= 40.7378\nmse = 0.0999\nsamples = 2766\nvalue = 7.0624"] ;
969 -> 970 ;
971 [label="mse = 0.0836\nsamples = 290\nvalue = 6.8838"] ;
970 -> 971 ;
972 [label="mse = 0.0975\nsamples = 2476\nvalue = 7.084"] ;
970 -> 972 ;
973 [label="haversine_distance <= 2.229\nmse = 0.1096\nsamples = 3343\nvalue = 6.9318"] ;
969 -> 973 ;
974 [label="mse = 0.1073\nsamples = 927\nvalue = 6.8413"] ;
973 -> 974 ;
975 [label="mse = 0.1061\nsamples = 2416\nvalue = 6.9661"] ;
973 -> 975 ;
976 [label="avg_pickup_cluster_dropoff_cluster_haversine_speed <= 10.8432\nmse = 0.1776\nsamples = 1837\nvalue = 7.1826"] ;
968 -> 976 ;
977 [label="passthru_longitude <= -73.9687\nmse = 0.2188\nsamples = 1101\nvalue = 7.229"] ;
976 -> 977 ;
978 [label="mse = 0.112\nsamples = 1005\nvalue = 7.2097"] ;
977 -> 978 ;
979 [label="mse = 1.2747\nsamples = 96\nvalue = 7.4273"] ;
977 -> 979 ;
980 [label="pickup_latitude <= 40.7126\nmse = 0.107\nsamples = 736\nvalue = 7.1123"] ;
976 -> 980 ;
981 [label="mse = 3.1115\nsamples = 7\nvalue = 7.7277"] ;
980 -> 981 ;
982 [label="mse = 0.074\nsamples = 729\nvalue = 7.1063"] ;
980 -> 982 ;
983 [label="haversine_distance <= 2.578\nmse = 0.0966\nsamples = 6523\nvalue = 6.8806"] ;
967 -> 983 ;
984 [label="avg_pickup_cluster_dropoff_cluster_haversine_speed <= 10.6958\nmse = 0.1002\nsamples = 4389\nvalue = 6.8262"] ;
983 -> 984 ;
985 [label="avg_pickup_cluster_dropoff_cluster_haversine_speed <= 10.695\nmse = 0.094\nsamples = 2637\nvalue = 6.8694"] ;
984 -> 985 ;
986 [label="mse = 0.0798\nsamples = 2630\nvalue = 6.8665"] ;
985 -> 986 ;
987 [label="mse = 3.2005\nsamples = 7\nvalue = 7.6448"] ;
985 -> 987 ;
988 [label="avg_pickup_weekday_hour_manhattan_speed <= 16.6347\nmse = 0.1025\nsamples = 1752\nvalue = 6.7616"] ;
984 -> 988 ;
989 [label="mse = 0.1087\nsamples = 1026\nvalue = 6.8009"] ;
988 -> 989 ;
990 [label="mse = 0.0885\nsamples = 726\nvalue = 6.7063"] ;
988 -> 990 ;
991 [label="avg_pickup_cluster_dropoff_cluster_haversine_speed <= 10.8869\nmse = 0.0708\nsamples = 2134\nvalue = 6.9917"] ;
983 -> 991 ;
992 [label="haversine_distance <= 2.8118\nmse = 0.0717\nsamples = 1352\nvalue = 7.0235"] ;
991 -> 992 ;
993 [label="mse = 0.0669\nsamples = 819\nvalue = 6.9831"] ;
992 -> 993 ;
994 [label="mse = 0.0725\nsamples = 533\nvalue = 7.0884"] ;
992 -> 994 ;
995 [label="passthru_longitude <= -73.9767\nmse = 0.0645\nsamples = 782\nvalue = 6.9368"] ;
991 -> 995 ;
996 [label="mse = 0.0606\nsamples = 465\nvalue = 6.9755"] ;
995 -> 996 ;
997 [label="mse = 0.0648\nsamples = 317\nvalue = 6.8785"] ;
995 -> 997 ;
998 [label="haversine_distance <= 2.5353\nmse = 0.1324\nsamples = 19773\nvalue = 6.8019"] ;
966 -> 998 ;
999 [label="avg_pickup_weekday_hour_haversine_speed <= 11.6544\nmse = 0.1298\nsamples = 10297\nvalue = 6.7173"] ;
998 -> 999 ;
1000 [label="avg_dropoff_cluster_pickup_hour_manhattan_speed <= 15.1186\nmse = 0.1352\nsamples = 5251\nvalue = 6.7898"] ;
999 -> 1000 ;
1001 [label="haversine_distance <= 2.2614\nmse = 0.1486\nsamples = 2653\nvalue = 6.859"] ;
1000 -> 1001 ;
1002 [label="mse = 0.108\nsamples = 1043\nvalue = 6.7886"] ;
1001 -> 1002 ;
1003 [label="mse = 0.169\nsamples = 1610\nvalue = 6.903"] ;
1001 -> 1003 ;
1004 [label="avg_pickup_cluster_dropoff_cluster_haversine_speed <= 12.1553\nmse = 0.1111\nsamples = 2598\nvalue = 6.7181"] ;
1000 -> 1004 ;
1005 [label="mse = 0.1504\nsamples = 734\nvalue = 6.7969"] ;
1004 -> 1005 ;
1006 [label="mse = 0.0916\nsamples = 1864\nvalue = 6.6861"] ;
1004 -> 1006 ;
1007 [label="haversine_distance <= 2.3078\nmse = 0.1131\nsamples = 5046\nvalue = 6.6421"] ;
999 -> 1007 ;
1008 [label="avg_pickup_cluster_dropoff_cluster_haversine_speed <= 12.5856\nmse = 0.1164\nsamples = 2496\nvalue = 6.5974"] ;
1007 -> 1008 ;
1009 [label="mse = 0.1193\nsamples = 1240\nvalue = 6.6522"] ;
1008 -> 1009 ;
1010 [label="mse = 0.1073\nsamples = 1256\nvalue = 6.542"] ;
1008 -> 1010 ;
1011 [label="avg_pickup_cluster_dropoff_cluster_haversine_speed <= 12.7529\nmse = 0.1059\nsamples = 2550\nvalue = 6.6867"] ;
1007 -> 1011 ;
1012 [label="mse = 0.1126\nsamples = 1423\nvalue = 6.7222"] ;
1011 -> 1012 ;
1013 [label="mse = 0.0942\nsamples = 1127\nvalue = 6.6431"] ;
1011 -> 1013 ;
1014 [label="avg_pickup_weekday_hour_manhattan_speed <= 15.5442\nmse = 0.1188\nsamples = 9476\nvalue = 6.8946"] ;
998 -> 1014 ;
1015 [label="avg_dropoff_cluster_pickup_hour_manhattan_speed <= 13.07\nmse = 0.1121\nsamples = 5420\nvalue = 6.9656"] ;
1014 -> 1015 ;
1016 [label="avg_pickup_cluster_pickup_hour_manhattan_speed <= 14.5419\nmse = 0.1559\nsamples = 1025\nvalue = 7.1146"] ;
1015 -> 1016 ;
1017 [label="mse = 0.2075\nsamples = 409\nvalue = 7.1859"] ;
1016 -> 1017 ;
1018 [label="mse = 0.1163\nsamples = 616\nvalue = 7.0676"] ;
1016 -> 1018 ;
1019 [label="avg_pickup_cluster_dropoff_cluster_haversine_speed <= 13.2718\nmse = 0.0951\nsamples = 4395\nvalue = 6.9301"] ;
1015 -> 1019 ;
1020 [label="mse = 0.0955\nsamples = 2997\nvalue = 6.9655"] ;
1019 -> 1020 ;
1021 [label="mse = 0.0861\nsamples = 1398\nvalue = 6.855"] ;
1019 -> 1021 ;
1022 [label="haversine_distance <= 2.9049\nmse = 0.112\nsamples = 4056\nvalue = 6.7994"] ;
1014 -> 1022 ;
1023 [label="avg_pickup_cluster_dropoff_cluster_haversine_speed <= 12.3781\nmse = 0.1141\nsamples = 3062\nvalue = 6.771"] ;
1022 -> 1023 ;
1024 [label="mse = 0.1053\nsamples = 1057\nvalue = 6.8309"] ;
1023 -> 1024 ;
1025 [label="mse = 0.1159\nsamples = 2005\nvalue = 6.7391"] ;
1023 -> 1025 ;
1026 [label="avg_pickup_cluster_dropoff_cluster_haversine_speed <= 12.1233\nmse = 0.095\nsamples = 994\nvalue = 6.8877"] ;
1022 -> 1026 ;
1027 [label="mse = 0.1019\nsamples = 252\nvalue = 7.0125"] ;
1026 -> 1027 ;
1028 [label="mse = 0.0855\nsamples = 742\nvalue = 6.8449"] ;
1026 -> 1028 ;
1029 [label="avg_pickup_cluster_dropoff_cluster_haversine_speed <= 16.7172\nmse = 0.174\nsamples = 15701\nvalue = 6.5226"] ;
965 -> 1029 ;
1030 [label="haversine_distance <= 2.5241\nmse = 0.1658\nsamples = 8643\nvalue = 6.6311"] ;
1029 -> 1030 ;
1031 [label="avg_dropoff_cluster_pickup_hour_haversine_speed <= 11.8861\nmse = 0.1616\nsamples = 3965\nvalue = 6.5175"] ;
1030 -> 1031 ;
1032 [label="avg_pickup_weekday_hour_manhattan_speed <= 14.9609\nmse = 0.1695\nsamples = 1666\nvalue = 6.5935"] ;
1031 -> 1032 ;
1033 [label="dropoff_latitude <= 40.7425\nmse = 0.1674\nsamples = 800\nvalue = 6.6708"] ;
1032 -> 1033 ;
1034 [label="mse = 0.1001\nsamples = 146\nvalue = 6.4937"] ;
1033 -> 1034 ;
1035 [label="mse = 0.1738\nsamples = 654\nvalue = 6.7102"] ;
1033 -> 1035 ;
1036 [label="avg_dropoff_cluster_pickup_hour_haversine_speed <= 10.5627\nmse = 0.1614\nsamples = 866\nvalue = 6.5247"] ;
1032 -> 1036 ;
1037 [label="mse = 0.2466\nsamples = 230\nvalue = 6.6211"] ;
1036 -> 1037 ;
1038 [label="mse = 0.1277\nsamples = 636\nvalue = 6.4915"] ;
1036 -> 1038 ;
1039 [label="haversine_distance <= 2.27\nmse = 0.1483\nsamples = 2299\nvalue = 6.4612"] ;
1031 -> 1039 ;
1040 [label="passthru_latitude <= 40.8174\nmse = 0.1309\nsamples = 948\nvalue = 6.3845"] ;
1039 -> 1040 ;
1041 [label="mse = 0.1279\nsamples = 939\nvalue = 6.3912"] ;
1040 -> 1041 ;
1042 [label="mse = 0.086\nsamples = 9\nvalue = 5.8656"] ;
1040 -> 1042 ;
1043 [label="avg_pickup_weekday_hour_manhattan_speed <= 15.3919\nmse = 0.1536\nsamples = 1351\nvalue = 6.5152"] ;
1039 -> 1043 ;
1044 [label="mse = 0.12\nsamples = 703\nvalue = 6.5702"] ;
1043 -> 1044 ;
1045 [label="mse = 0.1835\nsamples = 648\nvalue = 6.4548"] ;
1043 -> 1045 ;
1046 [label="avg_pickup_weekday_hour_haversine_speed <= 11.7042\nmse = 0.1488\nsamples = 4678\nvalue = 6.7289"] ;
1030 -> 1046 ;
1047 [label="haversine_distance <= 2.823\nmse = 0.1304\nsamples = 2331\nvalue = 6.8009"] ;
1046 -> 1047 ;
1048 [label="avg_dropoff_cluster_pickup_hour_haversine_speed <= 11.8431\nmse = 0.1353\nsamples = 1308\nvalue = 6.7465"] ;
1047 -> 1048 ;
